[1.4154330152393868e-08, 6.140888908490183e-10, -5.87517590133757e-09, 3.275737725516592e-08, 3.2906157798606728e-09, -2.9995625983048058e-09, 1.8805538459787385e-08, 2.339944016327422e-09, -7.105653843098025e-09, -6.615060055281674e-09, 5.401494806989149e-09, -2.447675306882502e-08, -7.71151231759859e-09, -1.0557827501145312e-08, 3.3949348221540276e-08, -7.229516096884936e-09, -1.3715361291133377e-08, -1.0125446259223736e-08, 1.1861078341723896e-08, 1.8386272060411102e-08, 4.345338755484818e-09, -1.0836373576239566e-08, 4.597280778284585e-09, 1.659623194427695e-08, 7.497289011837438e-09, -5.440690564739725e-09, -5.2223164459519467e-08, 2.782382102495262e-09, -7.61702789731089e-09, -1.5498130778723862e-08, -1.6311449968497982e-08, -2.964783973880003e-09, -2.261621112609191e-09, -1.045994135751016e-08, -1.6719438056256308e-09, -1.1064169580521366e-09, 3.40252270802921e-08, 5.382485568361517e-09, -2.7858048312623396e-08, -1.3285157862696906e-08, -5.218514509408578e-09, 3.3368647844866928e-09, 2.313341296300564e-09]
[0.09664300084114075, -0.08523321151733398, -0.17540296912193298, -0.21400539577007294, -0.20005017518997192, 0.18013045191764832, 0.0859716534614563, -0.23800905048847198, -0.22786779701709747, -0.21666266024112701, -0.23956944048404694, 0.02426433563232422, 0.1899736225605011, 0.18898767232894897, -0.09954239428043365, 0.25309374928474426, 0.183871328830719, 0.08776375651359558, 0.1315155327320099, -0.17323026061058044, -0.20088057219982147, -0.01802898943424225, 0.15237265825271606, -0.19884279370307922, -0.06697040796279907, 0.13340893387794495, -0.12645278871059418, -0.14684531092643738, 0.1084124743938446, 0.10930213332176208, 0.1536218523979187, 0.005512207746505737, -0.24686278402805328, -0.2359410971403122, 0.1494419276714325, 0.12907975912094116, -0.04347194731235504, 0.1725485622882843, 0.16701236367225647, 0.1365717053413391, 0.12582248449325562, 0.007075637578964233, -0.14851278066635132]
[-0.05083055794239044, 0.10722130537033081, -0.13589778542518616, -0.06480927765369415, 0.1686440110206604, 0.18191289901733398, -0.23999357223510742, 0.12168073654174805, -0.12072007358074188, 0.16382697224617004, -0.23526069521903992, -0.15609881281852722, -0.07191553711891174, 0.09207388758659363, -0.15220656991004944, -0.19204288721084595, -0.17221204936504364, 0.03762871026992798, -0.05312705039978027, 0.16577699780464172, -0.09419995546340942, -0.12514281272888184, -0.05908316373825073, -0.037275418639183044, 0.03503409028053284, 0.18716216087341309, 0.23970669507980347, -0.008320018649101257, -0.1442662924528122, 0.0867525041103363, -0.21803447604179382, -0.15367650985717773, 0.15572991967201233, -0.17480827867984772, -0.07310327887535095, -0.2388772815465927, -0.0889628678560257, -0.20033222436904907, -0.16223473846912384, -0.18286700546741486, -0.011968433856964111, 0.14636945724487305, -0.21562999486923218]
[0.22733622789382935, -0.15599064528942108, 0.2232643961906433, 0.23698043823242188, -0.16311350464820862, 0.10980567336082458, 0.0993218719959259, -0.15067856013774872, -0.11750264465808868, 0.06796646118164062, -0.1975819617509842, 0.17707416415214539, -0.012596681714057922, -0.08702689409255981, -0.08387613296508789, -0.07988262176513672, 0.005464881658554077, 0.17776325345039368, 0.15029776096343994, -0.029488742351531982, 0.11067259311676025, -0.08181749284267426, 0.18510553240776062, -0.047218382358551025, -0.2517416775226593, 0.09609398245811462, 0.021748006343841553, 0.10774058103561401, 0.25078216195106506, -0.0677480399608612, -0.03628590703010559, 0.03272417187690735, -0.06332437694072723, 0.16020357608795166, 0.14877113699913025, 0.07623320817947388, 0.0784810483455658, -0.19080671668052673, -0.018132328987121582, -0.2462550550699234, -0.216861754655838, 0.15928974747657776, -0.011251479387283325]
[0.1649453341960907, 0.08628955483436584, 0.1268686056137085, 0.026020079851150513, 0.13468965888023376, -0.17325249314308167, -0.011046767234802246, -0.08577243983745575, 0.16133958101272583, -0.1796373873949051, 0.15363752841949463, -0.04870779812335968, 0.18806105852127075, 0.07276412844657898, 0.13627061247825623, 0.09694764018058777, -0.1390598714351654, -0.08479958772659302, -0.22994022071361542, 0.16698616743087769, 0.048168957233428955, -0.1938573122024536, 0.06880709528923035, -0.13144224882125854, -0.12680554389953613, 0.1039435863494873, 0.0020259618759155273, -0.004115104675292969, -0.09555095434188843, -0.014415904879570007, 0.012337088584899902, -0.1529042273759842, -0.05707177519798279, -0.036776408553123474, 0.2032674252986908, 0.16008657217025757, 0.0053338706493377686, 0.1685945987701416, -0.020458757877349854, -0.07691667973995209, -0.08951660990715027, -0.08978511393070221, -0.15511640906333923]
[-0.24583955109119415, 0.11322402954101562, -0.11209474503993988, 0.1734541356563568, -0.03778085112571716, 0.068661630153656, 0.17249205708503723, -0.0165555477142334, -0.1220550388097763, 0.13997194170951843, -0.046893730759620667, -0.07922853529453278, -0.1722383201122284, -0.0938836932182312, -0.1582450270652771, -0.24587970972061157, -0.17825093865394592, -0.18745894730091095, -0.1373780369758606, 0.14004233479499817, 0.019465267658233643, -0.13266664743423462, 0.19355329871177673, 0.21616041660308838, -0.051258787512779236, 0.07458093762397766, 0.12819817662239075, -0.12156227231025696, -0.1571258008480072, 0.1873464286327362, 0.17529705166816711, -0.10977469384670258, -0.05742935836315155, -0.20998071134090424, 0.07851171493530273, 0.060470402240753174, 0.1991041898727417, -0.08011665940284729, -0.15142440795898438, 0.06443235278129578, -0.22834965586662292, 0.06065279245376587, -0.15049827098846436]
[0.09034198522567749, 0.23602283000946045, -0.05515699088573456, 0.17864438891410828, -0.10934264957904816, 0.07530444860458374, 0.11550784111022949, 0.0586797297000885, 0.22022780776023865, -0.015036121010780334, 0.12187284231185913, 0.07529324293136597, 0.13255932927131653, 0.12508508563041687, 0.24764111638069153, -0.1388368010520935, -0.13168130815029144, 0.12736931443214417, 0.24554958939552307, 0.18490111827850342, -0.11648400127887726, -0.10427196323871613, -0.18419554829597473, 0.17174139618873596, 0.08169475197792053, 0.116241455078125, -0.04643316566944122, 0.09453359246253967, 0.12003183364868164, 0.19444000720977783, 0.20321017503738403, -0.025180861353874207, -0.01307988166809082, -0.1549854725599289, -0.10011346638202667, -0.24752195179462433, -0.15592992305755615, 0.030088037252426147, -0.00987580418586731, 0.041955649852752686, 0.19336798787117004, 0.05960279703140259, -0.1108994334936142]
[-0.11427003145217896, -0.024455219507217407, -0.17171622812747955, 0.039633482694625854, -0.03436592221260071, -0.05779343843460083, 0.23858103156089783, 0.09034466743469238, 0.15528735518455505, 0.020705968141555786, 0.2285732924938202, 0.08695673942565918, -0.22535642981529236, 0.029121309518814087, -0.13728608191013336, -0.024998128414154053, -0.07511711120605469, -0.10116571187973022, 0.18102526664733887, -0.17090395092964172, 0.027845412492752075, 0.0055551230907440186, -0.1220170259475708, -0.16174057126045227, -0.20971551537513733, 0.18644985556602478, -0.24825432896614075, -0.10984006524085999, 0.182282954454422, -0.18966391682624817, 0.1043194830417633, 0.22340074181556702, -0.1787479817867279, -0.015490308403968811, -0.01802869141101837, 0.15493258833885193, 0.026467233896255493, -0.029753103852272034, -0.10691031813621521, 0.16262495517730713, -0.15708202123641968, 0.012763500213623047, 0.23468106985092163]
[-0.10844540596008301, -0.052779555320739746, -0.10991580784320831, 0.12023881077766418, -0.10097764432430267, 0.13203907012939453, -0.2269255518913269, 0.1646549105644226, -0.11236026883125305, 0.19219470024108887, -0.16699522733688354, 0.17195254564285278, -0.04166442155838013, 0.107384592294693, -0.22296112775802612, -0.09645169973373413, -0.1287982016801834, -0.1240105926990509, -0.044129207730293274, -0.24171961843967438, 0.023239076137542725, -0.06452919542789459, 0.11543381214141846, 0.07833343744277954, 0.21531495451927185, -0.15120261907577515, 0.11160436272621155, 0.05240580439567566, 0.23516744375228882, 0.07551699876785278, -0.07692286372184753, 0.14051911234855652, 0.194259911775589, -0.12991350889205933, 0.16989591717720032, -0.09465904533863068, -0.05650903284549713, -0.10083109140396118, -0.20196913182735443, -0.18472278118133545, 0.014939814805984497, 0.1618865728378296, 0.1253770887851715]
[0.19702613353729248, 0.11553159356117249, -0.1591791808605194, -0.029408305883407593, 0.017377853393554688, 0.22543901205062866, 0.057516902685165405, 0.1408419907093048, 0.044688016176223755, 0.09670791029930115, -0.17638751864433289, 0.11450737714767456, -0.15326352417469025, 0.1877187192440033, 0.14724436402320862, 0.022247612476348877, -0.21725429594516754, -0.14914193749427795, -0.17650750279426575, 0.02242356538772583, 0.1785135567188263, 0.039409369230270386, -0.010595574975013733, -0.19254115223884583, -0.20639510452747345, 0.2289704978466034, 0.05860528349876404, -0.18295136094093323, 0.13370996713638306, 0.023866355419158936, -0.04838554561138153, 0.06669676303863525, -0.2533336579799652, -0.010913550853729248, 0.102938711643219, -0.19033831357955933, -0.06680089235305786, -0.13743723928928375, 0.15217581391334534, 0.14141690731048584, 0.10662031173706055, 0.1970166563987732, 0.13539555668830872]
[-0.17497700452804565, 0.05706602334976196, -0.20638799667358398, 0.0907055139541626, 0.19687363505363464, 0.1479235291481018, -0.020371213555336, 0.2314414083957672, 0.02278989553451538, 0.14156115055084229, 0.09314942359924316, 0.24842527508735657, 0.1055716872215271, -0.0018564462661743164, 0.08676964044570923, -0.22755637764930725, -0.17759856581687927, -0.1230253130197525, 0.22749605774879456, -0.046401143074035645, 0.2406030297279358, 0.057412952184677124, -0.13889488577842712, 0.2135658860206604, -0.1432551145553589, 0.11984491348266602, -0.1740998923778534, 0.11494633555412292, 0.24437710642814636, 0.005523175001144409, 0.10501861572265625, 0.1503523886203766, -0.14028263092041016, 0.03237602114677429, 0.15989404916763306, 0.05168524384498596, 0.17254748940467834, 0.07755410671234131, 0.12776309251785278, -0.008622318506240845, 0.1675001084804535, -0.15165001153945923, 0.03468745946884155]
[-0.10614603757858276, -0.11488774418830872, 0.07231462001800537, 0.18932512402534485, -0.045145705342292786, 0.14702549576759338, 0.18954434990882874, 0.2473069131374359, -0.1024319976568222, -0.1683008074760437, 0.1495000123977661, 0.014946013689041138, 0.04502308368682861, 0.07259631156921387, -0.05399172008037567, 0.23402521014213562, 0.035734623670578, -0.119148850440979, 0.22812873125076294, -0.18104287981987, 0.0021438514813780785, -0.22769343852996826, 0.18616798520088196, -0.23656144738197327, -0.2422860860824585, 0.23984172940254211, 0.1605600118637085, -0.02838873863220215, 0.16208168864250183, 0.006090134382247925, -0.17743316292762756, 0.0401034951210022, 0.17095354199409485, 0.25003018975257874, 0.08738350868225098, -0.08678153157234192, 0.25150880217552185, -0.04925517737865448, 0.01457977294921875, -0.05581681430339813, -0.13536670804023743, -0.21224506199359894, -0.07654458284378052]
[0.03197672963142395, 0.24015101790428162, 0.07122650742530823, -0.21041323244571686, -0.11231832206249237, -0.22436746954917908, 0.09808671474456787, -0.020823031663894653, -0.025588959455490112, 0.11271265149116516, -0.0945809930562973, 0.1099032461643219, -0.23817306756973267, 0.05876654386520386, -0.07846052944660187, 0.17750000953674316, -0.016322419047355652, -0.11595296859741211, -0.24295400083065033, 0.0045757293701171875, -0.17438775300979614, -0.1863701492547989, 0.1855904459953308, 0.08076420426368713, -0.19736450910568237, 0.08458542823791504, -0.19303715229034424, -0.1806127429008484, -0.07042966783046722, 0.04774528741836548, 0.12165728211402893, 0.005554884672164917, 0.09027603268623352, 0.25302860140800476, -0.23719488084316254, -0.23509442806243896, -0.0025738179683685303, -0.2280743569135666, -0.16597150266170502, -0.04955637454986572, -0.23743265867233276, 0.017722517251968384, 0.08605203032493591]
[-0.1149863600730896, -0.056310251355171204, -0.09164394438266754, -0.08880724012851715, -0.22253625094890594, 0.10346722602844238, 0.1516328752040863, 0.05716729164123535, -0.18097597360610962, 0.022384822368621826, 0.09543275833129883, -0.1347317397594452, 0.22207391262054443, 0.16837120056152344, -0.018460959196090698, 0.11664122343063354, 0.09653759002685547, -0.07493601739406586, -0.23950637876987457, 0.130894273519516, 0.032845646142959595, -0.22975894808769226, 0.1594792902469635, -0.07387189567089081, 0.18761378526687622, 0.21306559443473816, 0.05508163571357727, 0.07575514912605286, 0.2285771667957306, 0.16080138087272644, 0.09384727478027344, -0.11646629869937897, 0.08069366216659546, 0.16230490803718567, -0.16062059998512268, -0.12517212331295013, -0.21887730062007904, -0.23027749359607697, -0.17866159975528717, -0.08548495173454285, 0.07373279333114624, 0.08153936266899109, 0.22750476002693176]
[-0.04086989164352417, 0.10601159930229187, 0.13249683380126953, 0.1278356909751892, 0.11462149024009705, -0.06806392967700958, -0.08727160096168518, -0.12704430520534515, -0.2251857966184616, 0.03613880276679993, 0.13343465328216553, -0.0561225563287735, 0.17614403367042542, 0.08077356219291687, 0.03099513053894043, 0.11638385057449341, 0.08181393146514893, -0.2018529325723648, 0.12761685252189636, -0.2200314849615097, -0.07764409482479095, -0.23239466547966003, 0.09977325797080994, -0.11099761724472046, -0.13401415944099426, 0.02744615077972412, -0.027012765407562256, -0.12487336993217468, -0.25478652119636536, -0.19886299967765808, 0.24201872944831848, -0.1201830506324768, -0.21356748044490814, -0.16056931018829346, -0.07572442293167114, 0.031037509441375732, -0.1412513256072998, 0.16606560349464417, -0.16076397895812988, 0.016939759254455566, 0.10089161992073059, 0.024929016828536987, -0.15335431694984436]
[-0.08870244026184082, 0.08089232444763184, 0.24245396256446838, 0.21717384457588196, 0.19272008538246155, 0.03142473101615906, 0.2166082262992859, -0.011529669165611267, 0.05783990025520325, -0.21754974126815796, 0.004297912120819092, 0.18135374784469604, 0.22125566005706787, 0.09333533048629761, 0.014043748378753662, -0.23625802993774414, 0.18791088461875916, -0.22666709125041962, -0.19466763734817505, 0.08168083429336548, -0.10263903439044952, -0.10309317708015442, 0.16648361086845398, 0.11829894781112671, 0.23744526505470276, 0.2018962800502777, -0.2256498485803604, -0.14990584552288055, -0.2144300788640976, 0.2213616669178009, -0.2445249706506729, -0.09971748292446136, -0.004980206489562988, 0.15829190611839294, -0.1806298941373825, -0.08039124310016632, -0.06493477523326874, -0.06336325407028198, -0.15976908802986145, -0.023022547364234924, 0.017816990613937378, 0.10235968232154846, 0.18763098120689392]
[0.11393967270851135, -0.23088864982128143, -0.01368260383605957, 0.21754196286201477, -0.12932053208351135, 0.16574186086654663, 0.09507906436920166, 0.035977303981781006, 0.18666020035743713, -0.19652928411960602, 0.13551750779151917, 0.17425808310508728, 0.10651218891143799, 0.19822508096694946, 0.1725931465625763, 0.20271503925323486, -0.13008113205432892, -0.10418400168418884, -0.012740671634674072, -0.05311419069766998, 0.14894959330558777, 0.1009376049041748, 0.04602298140525818, -0.03294646739959717, 0.02708989381790161, -0.13397395610809326, -0.12289589643478394, 0.13580891489982605, 0.04313400387763977, -0.1965780109167099, 0.05764767527580261, 0.023573637008666992, 0.17680349946022034, 0.09522190690040588, 0.1337105929851532, 0.2528630197048187, 0.0525951087474823, -0.025769129395484924, 0.1632385551929474, 0.04519394040107727, -0.0978606790304184, -0.08183230459690094, -0.217652827501297]
[0.0332716703414917, -0.11057116091251373, 0.11887580156326294, -0.060268089175224304, -0.19021061062812805, 0.09874886274337769, 0.2454611361026764, -0.1135302484035492, 0.17176049947738647, 0.07609209418296814, 0.0821007490158081, 0.006401419639587402, -0.24875804781913757, -0.15474706888198853, -0.0060149431228637695, -0.24402131140232086, -0.016151368618011475, -0.23686209321022034, 0.03044220805168152, 0.15546977519989014, 0.0013401207979768515, 0.06609433889389038, 0.04791390895843506, 0.031360238790512085, -0.02987988293170929, -0.043132469058036804, -0.1048753559589386, -0.037088751792907715, -0.09709517657756805, -0.20840325951576233, 0.05511045455932617, 0.23663467168807983, -0.2279176265001297, -0.19657360017299652, 0.02338692545890808, -0.19770079851150513, 0.24978497624397278, 0.2265438437461853, -0.049621641635894775, 0.004062026739120483, -0.1158839762210846, -0.061853811144828796, 0.025702208280563354]
[-0.08626556396484375, -0.12051211297512054, -0.21474070847034454, -0.004009366035461426, -0.020518019795417786, -0.19707708060741425, 0.2320539653301239, -0.12476947903633118, -0.25208592414855957, -0.0902860164642334, -0.001624613651074469, 0.15774887800216675, 0.12774771451950073, 0.22653049230575562, 0.197275310754776, 0.20130953192710876, -0.14949046075344086, 0.0036444365978240967, -0.07965114712715149, -0.19530750811100006, -0.17676866054534912, -0.1117081493139267, 0.12071070075035095, -0.13903123140335083, -0.074405238032341, -0.24914085865020752, -0.2265038788318634, -0.0475064218044281, 0.12297987937927246, -0.23432695865631104, -0.060676366090774536, -0.15727859735488892, 0.19660022854804993, -0.13696981966495514, 0.22573837637901306, -0.06969305872917175, -0.003278583288192749, 0.10629963874816895, 0.15343508124351501, -0.02405153214931488, -0.2206326723098755, -0.11610002815723419, -0.25036555528640747]
[-0.23496615886688232, 0.16894790530204773, 0.07640177011489868, 0.09019419550895691, -0.24875657260417938, 0.17122375965118408, -0.19485104084014893, 0.009030342102050781, 0.09087184071540833, -0.20885512232780457, 0.25250259041786194, -0.17950962483882904, 0.15407684445381165, 0.1746368110179901, -0.12180593609809875, -0.05204467475414276, -0.18000298738479614, -0.151789590716362, 0.01711699366569519, -0.017097651958465576, 0.17499279975891113, -0.061328545212745667, 0.0904184877872467, 0.002966106403619051, 0.00442957878112793, 0.05312502384185791, 0.04211267828941345, -0.16757798194885254, 0.1756998896598816, -0.020808205008506775, -0.0857679694890976, 0.06691157817840576, -0.19581061601638794, 0.013612866401672363, -0.09453079104423523, -0.24433298408985138, 0.15988829731941223, 0.2492457926273346, -0.16494128108024597, 0.04388877749443054, 0.243072509765625, 0.13560417294502258, -0.05773986876010895]
[0.2524275481700897, -0.03454364836215973, -0.10245709121227264, -0.1593445986509323, -0.016311705112457275, 0.0042986273765563965, -0.12721779942512512, -0.04211437702178955, -0.09145796298980713, 0.25347933173179626, -0.07792100310325623, -0.15466472506523132, -0.21339643001556396, 0.05652648210525513, -0.20634141564369202, 0.10526704788208008, -0.012605428695678711, -0.17503993213176727, 0.06485122442245483, -0.10108458995819092, -0.0941210389137268, -0.018086597323417664, 0.027006208896636963, 0.12596657872200012, -0.22564072906970978, -0.24419279396533966, -0.24679666757583618, 0.06543475389480591, -0.16246578097343445, -0.24155756831169128, -0.08757169544696808, 0.16858536005020142, -0.010203585028648376, 0.19739645719528198, -0.1995217204093933, -0.014781743288040161, 0.12770333886146545, 0.2450646460056305, 0.10866054892539978, -0.06772679090499878, -0.11881348490715027, -0.1779361367225647, -0.11415371298789978]
[0.11177664995193481, -0.197336345911026, 0.06476318836212158, 0.17730605602264404, 0.07884904742240906, -0.0675884336233139, 0.1780184805393219, 0.0016397833824157715, -0.16140735149383545, -0.053427889943122864, -0.1975623071193695, 0.21935665607452393, -0.23908720910549164, -0.24942050874233246, 0.2558901607990265, -0.16657814383506775, -0.1529817283153534, -0.13638454675674438, 0.022336512804031372, -0.04267264902591705, -0.06697335839271545, 0.19202762842178345, -0.037777841091156006, 0.16751763224601746, 0.25451895594596863, -0.2544151544570923, 0.0663096010684967, -0.04351620376110077, -0.24206973612308502, -0.051242440938949585, -0.09781207144260406, 0.1658354103565216, -0.03626790642738342, -0.22649340331554413, -0.14977359771728516, -0.1381104737520218, -0.18594202399253845, -0.20267543196678162, 0.03344210982322693, -0.15921112895011902, 0.081358402967453, 0.013483196496963501, -0.08289337158203125]
[0.10161355137825012, 0.12309199571609497, 0.033806294202804565, -0.18101203441619873, -0.25472909212112427, 0.2565556466579437, -0.04352433979511261, 0.20447364449501038, -0.1120414286851883, -0.24178683757781982, 0.1133590042591095, -0.24983111023902893, -0.24137891829013824, 0.03399136662483215, -0.16299167275428772, 0.2391522228717804, 0.11584082245826721, 0.06018903851509094, 0.15383806824684143, 0.1534145474433899, 0.1606558859348297, -0.038254693150520325, -0.15582957863807678, 0.23705488443374634, -0.1197812557220459, 0.1041216254234314, -0.250299870967865, -0.21934735774993896, -0.09121748805046082, -0.08423231542110443, -0.2359279990196228, 0.04977530241012573, 0.10388877987861633, -0.22521212697029114, 0.03297194838523865, -0.03667809069156647, 0.1869911551475525, -0.17427852749824524, -0.2299017757177353, 0.15618747472763062, 0.24648550152778625, 0.0017853670287877321, 0.1677379012107849]
[0.013908684253692627, -0.16281388700008392, -0.24151219427585602, 0.12485292553901672, -0.19381967186927795, 0.12549537420272827, 0.23286306858062744, 0.14228564500808716, -0.0651770830154419, 0.20267415046691895, 0.07106560468673706, 0.08479443192481995, -0.19267448782920837, 0.03963354229927063, 0.14309418201446533, -0.08418138325214386, -0.09158805012702942, 0.2462007701396942, 0.1130201518535614, 0.241531103849411, -0.16933268308639526, -0.061178550124168396, -0.013684377074241638, -0.1182512491941452, -0.11985735595226288, -0.03094664216041565, 0.11914438009262085, -0.21384334564208984, -0.22796177864074707, 0.05984589457511902, 0.23195859789848328, 0.2404983937740326, 0.07041007280349731, 0.06526342034339905, 0.1018424928188324, 0.08015742897987366, 0.1403905749320984, -0.09902691841125488, 0.0226115882396698, 0.019398868083953857, -0.02108161151409149, 0.1582520604133606, -0.008447781205177307]
[-0.22432810068130493, 0.162245512008667, 0.03692767024040222, 0.00271683931350708, -0.19110645353794098, -0.19325301051139832, -0.17592892050743103, -0.012147501111030579, -0.2462322860956192, -0.07303880155086517, -0.10177314281463623, -0.05509117245674133, -0.22121083736419678, 0.05907753109931946, -0.24070324003696442, -0.05161374807357788, 0.033146053552627563, 0.1280958354473114, -0.2059764862060547, -0.23807621002197266, -0.15174783766269684, 0.23263686895370483, 0.12475576996803284, -0.12171532213687897, 0.11001136898994446, -0.06359565258026123, -0.14347630739212036, 0.04924550652503967, -0.044180259108543396, -0.0956689864397049, -0.09700855612754822, 0.20505139231681824, 0.10189485549926758, 0.04795044660568237, 0.13405635952949524, -0.2373846024274826, 0.007649540901184082, 0.1986926794052124, -0.1032683253288269, 0.15538737177848816, 0.0798194408416748, -0.22337105870246887, -0.0047934954054653645]
[-0.09749886393547058, 0.07282081246376038, 0.20696359872817993, -0.04137784242630005, -0.17635273933410645, -0.24943575263023376, -0.08718068897724152, -0.15354710817337036, 0.21090617775917053, 0.11703962087631226, -0.23483380675315857, 0.18220099806785583, -0.1273004561662674, 0.0932152271270752, 0.0039019882678985596, 0.22562175989151, -0.15894991159439087, 0.10307466983795166, 0.21663039922714233, -0.12713705003261566, 0.07492929697036743, 0.179947167634964, -0.16289836168289185, -0.13533824682235718, 0.13757595419883728, -0.030319571495056152, -0.12718339264392853, -0.06995582580566406, -0.20039117336273193, -0.2505621910095215, -0.10128821432590485, 0.05708751082420349, -0.15735971927642822, -0.24667422473430634, 0.1732025444507599, -0.176839679479599, -0.2523534595966339, -0.1491146981716156, 0.16263794898986816, -0.10992136597633362, 0.08624455332756042, 0.10878095030784607, 0.1444416344165802]
[-0.22176824510097504, -0.17131394147872925, -0.20546481013298035, 0.24867233633995056, 0.19622349739074707, 0.05696463584899902, 0.22608095407485962, -0.19567911326885223, -0.07658480107784271, -0.07910475134849548, -0.20063820481300354, 0.1626882553100586, 0.14989280700683594, 0.1851261556148529, -0.1975099742412567, -0.25280052423477173, -0.23093298077583313, 0.17027559876441956, 0.0025776922702789307, 0.22247198224067688, 0.08404046297073364, -0.048135146498680115, 0.10477977991104126, -0.006245255470275879, -0.20762501657009125, 0.04174920916557312, 0.2080494463443756, 0.0073203444480896, -0.12549665570259094, 0.23772388696670532, -0.12642580270767212, -0.0010929075069725513, -0.18951734900474548, -0.2524423897266388, -0.19706538319587708, 0.13569051027297974, -0.010901615023612976, 0.15783503651618958, -0.021343275904655457, 0.23929288983345032, -0.2315773218870163, 0.02200835943222046, -0.23558351397514343]
[-0.09489339590072632, -0.14081335067749023, 0.05362635850906372, 0.06726905703544617, 0.014809608459472656, -0.13102558255195618, -0.17722538113594055, -0.18495240807533264, -0.10177761316299438, -0.11294099688529968, -0.21482102572917938, -0.08656150102615356, -0.10816337168216705, -0.04861168563365936, -0.01034267246723175, -0.17641621828079224, 0.08799877762794495, 0.1241154670715332, -0.02992488443851471, 0.07281053066253662, 0.044304221868515015, -0.13654330372810364, 0.034809231758117676, -0.020772084593772888, -0.06890705227851868, -0.18908850848674774, 0.10775625705718994, -0.23861514031887054, -0.016923055052757263, 0.17826470732688904, -0.19148381054401398, -0.11512956023216248, 0.22768628597259521, 0.16118192672729492, -0.20658911764621735, -0.13885498046875, 0.08771464228630066, 0.16133785247802734, -0.08291137218475342, 0.057286232709884644, -0.2114492654800415, 0.23564282059669495, -0.08667004108428955]
[0.09914666414260864, -0.08141709864139557, -0.03657792508602142, 0.2546962797641754, 0.21612465381622314, -0.18482059240341187, -0.12032219767570496, 0.008336901664733887, 0.1687738001346588, 0.16867229342460632, 0.22314250469207764, 0.21233126521110535, 0.24993637204170227, 0.14087682962417603, 0.08863300085067749, -0.10126414895057678, 0.24997779726982117, -0.1569143384695053, 0.10526007413864136, 0.23802417516708374, 0.1611185073852539, 0.2063077986240387, 0.056193143129348755, -0.1809227168560028, 0.1725946068763733, 0.11377948522567749, -0.17433536052703857, 0.1944742500782013, -0.10640959441661835, -0.13958442211151123, -0.08233001828193665, -0.06268450617790222, -0.10563644766807556, -0.12132234871387482, 0.07383376359939575, -0.15368086099624634, 0.19437119364738464, 0.20504558086395264, 0.2081310749053955, -0.1043265163898468, -0.14948917925357819, 0.18327215313911438, 0.024448901414871216]
[0.05713820457458496, 0.018018275499343872, -0.15531422197818756, 0.09246447682380676, -0.0857791155576706, 0.21010726690292358, 0.2117849886417389, -0.17916837334632874, -0.07629431784152985, 0.1449759602546692, 0.22242623567581177, -0.15829196572303772, -0.07922498881816864, -0.039983853697776794, 0.21415141224861145, -0.22303622961044312, 0.19022279977798462, 0.021987318992614746, 0.22187012434005737, 0.18925079703330994, -0.10130156576633453, 0.01770108938217163, -5.10780191689264e-05, -0.2334471046924591, -0.14810970425605774, -0.2370365709066391, -0.030877351760864258, 0.11662748456001282, 0.06595489382743835, 0.23151835799217224, -0.0997694581747055, -0.0772630125284195, 0.20546910166740417, 0.1127120852470398, -0.06731079518795013, 0.1597021222114563, 0.21621227264404297, 0.1180693507194519, 0.15274426341056824, -0.16060033440589905, -0.16645367443561554, -0.2486812174320221, 0.08183750510215759]
[0.17381346225738525, 0.0013862848281860352, 0.12766367197036743, 0.06913986802101135, -0.16518206894397736, 0.0839303731918335, -0.043543264269828796, 0.0032619237899780273, -0.11928389966487885, 0.2451755702495575, 0.25136759877204895, 0.12970176339149475, -0.17171010375022888, -0.17026016116142273, 0.2284553349018097, -0.2018871009349823, -0.07986842095851898, -0.10407495498657227, -0.07375973463058472, 0.004315465688705444, 0.04336163401603699, 0.17693960666656494, -0.07925976812839508, -0.10457518696784973, 0.19233617186546326, -0.14932027459144592, 0.19049009680747986, 0.15581244230270386, -0.05356299877166748, 0.04501262307167053, -0.19932985305786133, 0.2221013307571411, 0.15615785121917725, -0.2068737894296646, 0.043546199798583984, -0.24956633150577545, 0.20435768365859985, -0.1652185618877411, 0.050165385007858276, 0.16141152381896973, 0.16070306301116943, 0.14493483304977417, 0.1617063581943512]
[-0.008199721574783325, -0.2535814642906189, -0.1006351113319397, 0.15548330545425415, 0.12035182118415833, -0.20268313586711884, 0.09155908226966858, 0.1887759268283844, 0.16561776399612427, -0.13639789819717407, 0.10491973161697388, 0.20876291394233704, -0.1260918378829956, -0.09737153351306915, -0.04260745644569397, 0.10519957542419434, 0.004969567060470581, -0.05063323676586151, 0.1806151270866394, 0.14243704080581665, -0.0540565550327301, 0.08460888266563416, 0.11221572756767273, -0.24364781379699707, -0.2401607632637024, -0.10564690828323364, -0.0261346697807312, -0.16350480914115906, -0.25096067786216736, -0.11468400061130524, 0.035064637660980225, 0.06212231516838074, 0.02570343017578125, -0.24559706449508667, 0.029463768005371094, -0.24103878438472748, -0.22101272642612457, 0.20374396443367004, 0.16444039344787598, 0.24567291140556335, -0.023589134216308594, 0.1031842827796936, -0.24509793519973755]
[-0.025913789868354797, 0.17530220746994019, -0.20083342492580414, 0.15259090065956116, -0.06988798081874847, -0.08937408030033112, 0.005144655704498291, -0.04715758562088013, -0.2167879194021225, 0.15099230408668518, 0.1702064871788025, 0.20221197605133057, -0.12563513219356537, 0.0677490234375, -0.13414640724658966, -0.23330090939998627, -0.05882523953914642, 0.19492360949516296, -0.0916958600282669, -0.1694668084383011, -0.08042049407958984, 0.24417242407798767, -0.12870551645755768, -0.13868123292922974, 0.17817556858062744, 0.08822596073150635, -0.03093758225440979, 0.19212955236434937, 0.14934083819389343, -0.1205894947052002, 0.23713910579681396, -0.16015325486660004, 0.024038314819335938, -0.007123961113393307, -0.005943864583969116, -0.13477304577827454, 0.11073815822601318, 0.19364649057388306, -0.10249106585979462, -0.22736713290214539, -0.1447378695011139, 0.07051035761833191, 0.08460289239883423]
[-0.16155347228050232, -0.055654898285865784, 0.24990704655647278, 0.13019150495529175, 0.20100441575050354, -0.01148785650730133, 0.1530633270740509, 0.103923499584198, -0.15334011614322662, -0.11411367356777191, -0.09833629429340363, 0.19919052720069885, -0.1718316376209259, 0.16072413325309753, -0.13586638867855072, -0.12651322782039642, -0.17380891740322113, 0.0403083860874176, 0.2524302899837494, 0.23330530524253845, 0.14942416548728943, 0.16613546013832092, 0.0965527594089508, -0.19950948655605316, -0.18617841601371765, -0.10835622251033783, -0.1285047084093094, -0.1646042764186859, 0.1496395468711853, -0.027188211679458618, 0.0022617876529693604, -0.13801416754722595, 0.15259027481079102, 0.14402803778648376, -0.21109774708747864, -0.1162591427564621, -0.13416177034378052, 0.08199936151504517, 0.04238516092300415, 0.06226086616516113, -0.11040353775024414, -0.24374955892562866, 0.11699703335762024]
[-0.07782310247421265, 0.016080856323242188, 0.2540930211544037, 0.028845995664596558, -0.20365023612976074, 0.21721169352531433, -0.06041225790977478, -0.12585259974002838, 0.06454658508300781, 0.016552984714508057, -0.03618741035461426, 0.10419005155563354, 0.15393444895744324, 0.2109578549861908, -0.12327374517917633, -0.17057549953460693, 0.04105943441390991, 0.010153919458389282, 0.20784124732017517, 0.04058852791786194, -0.08868376910686493, -0.004056096076965332, -0.205563485622406, -0.08217255771160126, 0.04147174954414368, 0.09173247218132019, -0.21575218439102173, 0.11755749583244324, -0.02866227924823761, -0.03287331759929657, 0.05876922607421875, -0.0014945617876946926, 0.09461227059364319, -0.10180099308490753, 0.11680018901824951, 0.014309972524642944, 0.1084083616733551, -0.24559926986694336, -0.07616133987903595, -0.14471811056137085, -0.21481956541538239, 0.2531450092792511, -0.12840589880943298]
[0.12675508856773376, 0.17707812786102295, -0.02490316331386566, 0.004581242799758911, -0.25335514545440674, 0.03127202391624451, -0.09977534413337708, 0.21593528985977173, 0.01095658540725708, 0.12135222554206848, -0.15995293855667114, -0.039753541350364685, 0.13116320967674255, 0.10479748249053955, -0.17363891005516052, 0.19130021333694458, -0.2249220609664917, -0.10868515074253082, -0.0834859162569046, 0.11253616213798523, 0.12985387444496155, 0.09601330757141113, -0.18253053724765778, 0.07419028878211975, 0.04104951024055481, -0.24408014118671417, -0.04832431674003601, -0.18144723773002625, 0.16216334700584412, 0.1024027168750763, -0.16433973610401154, 0.24708780646324158, 0.03310203552246094, -0.07758116722106934, -0.1432364583015442, -0.19186937808990479, -0.17012351751327515, -0.04874594509601593, 0.2291533648967743, 0.07313591241836548, 0.249973326921463, -0.2419697642326355, -0.1673891842365265]
[-0.21132327616214752, -0.12898021936416626, -0.013917326927185059, -0.016885221004486084, -0.1423904448747635, 0.08025741577148438, 0.21021518111228943, -0.09009765088558197, -0.2102445662021637, -0.14983457326889038, -0.05449599027633667, -0.02817024290561676, -0.20732614398002625, -0.18433120846748352, -0.1855776607990265, 0.24912884831428528, 0.23462516069412231, -0.24824048578739166, 0.22656846046447754, 0.18928846716880798, -0.11350005865097046, 0.1640385389328003, 0.08959496021270752, -0.231915682554245, -0.1443673074245453, 0.21465769410133362, 0.21838900446891785, -0.18768957257270813, 0.20491209626197815, 0.11637294292449951, -0.014002904295921326, 0.03534141182899475, 0.005968362092971802, 0.2486867606639862, -0.028069719672203064, 0.21418747305870056, -0.019020766019821167, 0.002366037108004093, -0.04236765205860138, 0.19884958863258362, 0.15281942486763, 0.1153503954410553, -0.09282910823822021]
[0.09402120113372803, -0.06549966335296631, 0.024320781230926514, 0.10323190689086914, -0.17790088057518005, 0.20771893858909607, -0.14665021002292633, 0.11855930089950562, -0.03329530358314514, -0.2164226770401001, 0.16252902150154114, 0.14470341801643372, 0.0012520825257524848, 0.18613401055335999, -0.0712435245513916, -0.22062207758426666, 0.12755665183067322, -0.09530980885028839, 0.1804909110069275, 0.07611194252967834, 0.06381097435951233, 0.07003337144851685, 0.088503897190094, 0.16345375776290894, -0.0055408477783203125, -0.007044926285743713, -0.20486955344676971, -0.14400072395801544, -0.011308789253234863, -0.026258155703544617, -0.18712761998176575, 0.05302989482879639, -0.1270611435174942, -0.15815415978431702, -0.11462670564651489, -0.10867156088352203, -0.04147493839263916, -0.10178342461585999, -0.23730991780757904, -0.01440519094467163, -0.15455558896064758, -0.23277822136878967, 0.039094507694244385]
[0.21328526735305786, -0.08928115665912628, 0.06202632188796997, 0.15364015102386475, -0.09687687456607819, -0.24070899188518524, 0.14411765336990356, -0.056796953082084656, -0.016907989978790283, -0.09901890158653259, 0.012209653854370117, -0.24384242296218872, -0.013169631361961365, 0.11327925324440002, -0.023461684584617615, -0.10986395180225372, 0.17452606558799744, 0.07059979438781738, 0.1358955204486847, 0.22923314571380615, 0.11468362808227539, 0.03162840008735657, 0.030953019857406616, -0.03399983048439026, -0.11686833202838898, -0.016697511076927185, 0.06938180327415466, 0.1918424367904663, 0.13874667882919312, -0.08643080294132233, 0.1160302460193634, -0.14932388067245483, -0.13720913231372833, 0.2083415985107422, 0.223202645778656, -0.019467487931251526, 0.2056613266468048, 6.996284582783119e-07, 0.18572530150413513, 0.13329863548278809, 0.16198673844337463, -0.09101632237434387, 0.1060643196105957]
[-0.08897291123867035, -0.2453247457742691, 0.06044960021972656, -0.12421880662441254, -0.23116059601306915, -0.13893523812294006, 0.1976231038570404, 0.02202361822128296, -0.20687097311019897, 0.16542181372642517, -0.10131710767745972, 0.20994073152542114, -0.058177649974823, -0.1296398639678955, -0.014442533254623413, -0.03317977488040924, -0.0820753425359726, -0.20590288937091827, 0.09526529908180237, 0.047081977128982544, 0.2393900752067566, -0.25552165508270264, -0.06532983481884003, -0.24461355805397034, 0.04921230673789978, -0.19634512066841125, 0.06270116567611694, 0.18118572235107422, 0.03193444013595581, -0.2527538239955902, -0.14499279856681824, 0.0630122721195221, -0.014885768294334412, -0.23217953741550446, 0.02700558304786682, 0.010272443294525146, -0.17738020420074463, -0.16668778657913208, -0.1039898693561554, -0.09858240187168121, -0.057904183864593506, -0.2074051797389984, 0.022034645080566406]
[-0.1538732796907425, 0.1356978416442871, 0.18204757571220398, -0.030576080083847046, -0.09773983061313629, 0.15759766101837158, -0.0008601158042438328, -0.1899278461933136, -0.05008561909198761, -0.11294619739055634, 0.20190614461898804, 0.013042241334915161, 0.00911673903465271, 0.15891554951667786, 0.07689863443374634, -0.06427022814750671, 0.17968341708183289, -0.21887680888175964, 0.1681044101715088, -0.11929498612880707, -0.06967200338840485, 0.06111866235733032, 0.005291461944580078, 0.2236606776714325, -0.11525917053222656, 0.04016652703285217, 0.15276122093200684, 0.20975059270858765, -0.03706273436546326, -0.14101390540599823, 0.11532381176948547, 0.20582258701324463, -0.0537743866443634, -0.026387080550193787, -0.25369784235954285, -0.0520746111869812, 0.21700596809387207, 0.02666911482810974, -0.1697264462709427, 0.10910996794700623, 0.07489487528800964, -0.09047169983386993, -0.19257891178131104]
[-0.012076735496520996, -0.20164436101913452, -0.15989503264427185, -0.09732279181480408, 0.18643981218338013, 0.24438586831092834, 0.2399703562259674, 0.11240869760513306, -0.10588879883289337, 0.050295233726501465, 0.18382719159126282, 0.06957709789276123, 0.12475618720054626, -0.22960400581359863, 0.03502863645553589, -0.2163209319114685, 0.16659632325172424, -0.1124514788389206, -0.01407422125339508, -0.09661772847175598, -0.0835355669260025, -0.0882532000541687, -0.0686575174331665, 0.1576583981513977, -0.12581506371498108, -0.04765157401561737, -0.043927475810050964, -0.1972113996744156, 0.07838889956474304, -0.10473418235778809, 0.22371432185173035, 0.0643375813961029, -0.18895885348320007, -0.03190767765045166, 0.13782572746276855, -0.246822327375412, -0.17165690660476685, -0.03163336217403412, -0.05573399364948273, 0.2402966022491455, 0.09345704317092896, -0.13659465312957764, 0.19718226790428162]
[-0.09527792036533356, -0.18184316158294678, -0.032868847250938416, 0.0406399667263031, -0.09814786911010742, 0.15727853775024414, -0.24671806395053864, 0.02935001254081726, 0.21136337518692017, 0.1933567225933075, 0.14869314432144165, -0.15621201694011688, -0.12299899756908417, -0.19017529487609863, 0.21459287405014038, 0.1700315773487091, -0.24184860289096832, 0.12947645783424377, -0.14448313415050507, 0.16306594014167786, -0.24025478959083557, 0.25065872073173523, -0.04162070155143738, -0.1855819970369339, -0.05778902769088745, 0.042933136224746704, 0.22998961806297302, -0.13752403855323792, 0.0632055401802063, -0.23089343309402466, -0.05171586573123932, 0.0016716032987460494, -0.045154765248298645, 0.004339158535003662, -0.1849757432937622, -0.10039134323596954, -0.0591287761926651, -0.06895101070404053, -0.014948815107345581, -0.17282167077064514, 0.1527138352394104, -0.1563168168067932, -0.042870208621025085]
[0.04975214600563049, -0.022410213947296143, -0.20728468894958496, 0.018063634634017944, 0.11437124013900757, -0.041505247354507446, 0.18490803241729736, -0.20596839487552643, 0.2172178030014038, 0.21102312207221985, 0.04414188861846924, -0.21850183606147766, 0.09352812170982361, -0.20527875423431396, 0.21966588497161865, -0.2052628993988037, 0.17644768953323364, 0.24686643481254578, -0.19504426419734955, -0.1391524374485016, -0.08726474642753601, 0.04938402771949768, 0.24403807520866394, -0.2007731944322586, -0.07968640327453613, -0.10953672230243683, 0.010738104581832886, -0.02187056839466095, -0.007128909230232239, 0.08915215730667114, -0.001810651388950646, 0.009874582290649414, -0.1968402862548828, 0.012105375528335571, -0.23740297555923462, 0.02723821997642517, -0.16826793551445007, 0.09211644530296326, 0.021799802780151367, 0.2137349247932434, 0.16163620352745056, 0.13939541578292847, 0.024555861949920654]
[-0.06726904213428497, -0.1649032086133957, 0.1784227192401886, 0.16867738962173462, 0.07998338341712952, -0.21394258737564087, -0.2333143800497055, -0.008515313267707825, 0.16300684213638306, -0.10507713258266449, 0.18123102188110352, 0.21997633576393127, -0.032312169671058655, -0.08103477954864502, -0.18702177703380585, -0.2399425059556961, 0.1407070755958557, 0.23452544212341309, 0.19593104720115662, 0.2152031660079956, 0.22484546899795532, 0.18920490145683289, 0.2531449496746063, -0.06773211061954498, -0.0409402996301651, 0.2005278766155243, -0.18538805842399597, -0.21702654659748077, 0.09059804677963257, -0.23483650386333466, -0.2002967745065689, 0.08935332298278809, 0.2563922107219696, -0.18291249871253967, 0.12091580033302307, 0.11816424131393433, 0.24444147944450378, -0.12119495868682861, -0.13180191814899445, -0.14297449588775635, 0.15663424134254456, 0.14828217029571533, -0.14816319942474365]
[-0.06212213635444641, 0.0983075201511383, 0.08823582530021667, -0.006146639585494995, 0.015895456075668335, 0.13252094388008118, 0.09916681051254272, 0.09620118141174316, -0.23842191696166992, 0.013755887746810913, -0.19315506517887115, -0.030226215720176697, 0.015211820602416992, 0.010495156049728394, -0.1955232471227646, -0.1069774180650711, 0.24936023354530334, 0.11393344402313232, 0.031216204166412354, 0.017037421464920044, -0.053900688886642456, -0.08514492213726044, -0.036972492933273315, -0.2188500612974167, 0.17483985424041748, -0.038447052240371704, 0.09357023239135742, 0.10644394159317017, -0.017130345106124878, 0.09917470812797546, -0.006989330053329468, -0.017335250973701477, 0.18180164694786072, 0.15023085474967957, 0.17237845063209534, 0.12279567122459412, 0.03908422589302063, 0.15110906958580017, -0.2076558768749237, 0.13912472128868103, 0.22545748949050903, 0.18758323788642883, -0.15340372920036316]
[-0.2562962770462036, -0.21430501341819763, 0.23194897174835205, -0.10325290262699127, 0.19408807158470154, -0.061699897050857544, -0.04283042252063751, -0.14285559952259064, 0.18837693333625793, -0.21533069014549255, -0.02114081382751465, 0.09367313981056213, -0.18059700727462769, -0.1953875869512558, -0.2364867478609085, 0.147993803024292, 0.0937010645866394, 0.18309596180915833, 0.22304663062095642, 0.18612372875213623, 0.19134962558746338, 0.050874024629592896, -0.15456849336624146, 0.1840415894985199, 0.08766677975654602, 0.20956501364707947, -0.04479093849658966, -0.038433581590652466, 0.14289215207099915, -0.18386195600032806, 0.11983299255371094, -0.08478611707687378, -0.11357302963733673, -0.12761132419109344, 0.23069587349891663, -0.12312719225883484, -0.18645046651363373, 0.2553023397922516, 0.137688547372818, 0.20889851450920105, 0.19402414560317993, -0.04232718050479889, 0.25669434666633606]
[-0.013837859034538269, 0.1976374387741089, -0.1444108933210373, -0.22532641887664795, 0.13967612385749817, 0.008034110069274902, -0.20238107442855835, 0.14769384264945984, 0.13384735584259033, -0.19434121251106262, 0.10009902715682983, -0.16640977561473846, -0.16251787543296814, -0.11801064014434814, 0.24347075819969177, -0.15916815400123596, 0.24545618891716003, -0.1266523152589798, -0.13651108741760254, -0.18916425108909607, 0.2055642306804657, -0.08530214428901672, 0.17055290937423706, 0.17025238275527954, -0.12392255663871765, -0.06396658718585968, 0.034996867179870605, -0.14712241291999817, 0.06047391891479492, 0.08025765419006348, 0.1630013883113861, -0.11509013175964355, -0.23654301464557648, 0.051212698221206665, -0.06652258336544037, 0.02483975887298584, -0.2504015564918518, -0.1808951497077942, -0.013083681464195251, 0.18835073709487915, 0.2224678099155426, -0.2073243111371994, 0.15409532189369202]
[0.16374889016151428, 0.005708247423171997, -0.08007387816905975, -0.029608070850372314, 0.1933077573776245, 0.10058462619781494, -0.24011129140853882, -0.050256550312042236, 0.24930784106254578, -0.07263211905956268, -0.0010565519332885742, 0.1260371208190918, 0.09316018223762512, 0.17666631937026978, -0.10645103454589844, -0.06842041015625, 0.1603107750415802, 0.1701730489730835, 0.0031188130378723145, 0.16720795631408691, 0.0410405695438385, 0.1728464663028717, -0.03506633639335632, -0.11895079910755157, -0.1854330599308014, 0.12436249852180481, 0.14929169416427612, 0.05441132187843323, 0.2366376519203186, 0.10020089149475098, -0.1774081140756607, 0.09836083650588989, 0.08756557106971741, -0.1343066692352295, -0.15697795152664185, -0.12062469124794006, 0.00824776291847229, -0.16613465547561646, -0.19415253400802612, -0.005720615386962891, 0.13787803053855896, 0.19397395849227905, 0.04956710338592529]

[5.273433911767711e-10, -2.3706545615453933e-09, -1.6255635060247187e-08, -4.972872247321902e-08, -6.72029258907969e-08, 2.6014879139779623e-09, -3.06347018863562e-08, -5.104573119751876e-08, -1.2227620693749941e-08, 2.662875253633956e-08, 3.493778777396983e-08, 1.800197857448893e-08, 5.2005709960667446e-08, 1.7376239114241798e-08, -4.750211246573599e-08, 4.540828513199813e-08, 7.154367320794108e-09, 6.165788590806187e-08, 2.2649798481211292e-08, 1.8392987133353245e-09, -4.790436847201818e-08, 7.548561775649887e-09, -5.3280338363492774e-08, -2.7719577744278467e-08, -5.3894502194395955e-09, 5.612848497094092e-08, -2.3553917927188195e-08, -2.9265979861747837e-08, -1.205074440235876e-08, 2.6744944037204732e-08, 1.2000587190641454e-08, -1.5854999091402533e-08, 1.1918503517449608e-08, 2.4183760771734342e-08, 7.21394712854817e-08, 2.4016313382446697e-09, 1.0195028821158303e-08, -2.85351742235207e-08, 3.478667309764205e-08, -1.528194815136885e-08, -1.822782422777891e-07, -4.803453279578207e-08, 1.0289986818179386e-07]
[0.03607967495918274, -0.24174490571022034, 0.12959197163581848, -0.22452238202095032, -0.14531639218330383, 0.10181552171707153, -0.01571856439113617, -0.07521773874759674, 0.0017750590341165662, -0.20610158145427704, 0.10051369667053223, 0.25644025206565857, 0.20232164859771729, -0.08149141073226929, 0.1637902855873108, -0.014952227473258972, 0.2440108358860016, -0.07541164755821228, -0.22451123595237732, -0.07055698335170746, 0.007836581207811832, 0.04367387294769287, -0.03518664836883545, -0.23804275691509247, 0.011407554149627686, -0.04913164675235748, -0.04079347848892212, 0.17721399664878845, 0.0394248366355896, 0.21333518624305725, 0.2467232048511505, -0.04553547501564026, 0.08685502409934998, -0.06996519863605499, 0.2606181800365448, -0.12199960649013519, 0.17721763253211975, 0.004532545804977417, -0.23200184106826782, -0.10892818868160248, -0.06489881873130798, 0.035351693630218506, -0.26374438405036926]
[-0.03340734541416168, 0.24956783652305603, 0.08099669218063354, -0.04477618634700775, 0.2239387333393097, 0.14961352944374084, -0.2061614692211151, 0.22437912225723267, 0.07565554976463318, 0.18456685543060303, -0.18190395832061768, 0.24113157391548157, 0.044426918029785156, 0.08960911631584167, -0.22161345183849335, 0.13745620846748352, 0.04094177484512329, 0.01908627152442932, 0.20972886681556702, -0.17781275510787964, -0.26367732882499695, -0.001444985973648727, -0.09358792006969452, 0.05070558190345764, -0.005486565176397562, 0.027613937854766846, 0.03597289323806763, -0.04387514293193817, 0.1928587555885315, 0.1536966860294342, -0.1685408502817154, 0.21626678109169006, -0.2421695441007614, -0.16722777485847473, 0.2520070970058441, 0.13407942652702332, 0.12562254071235657, -0.1366363912820816, -0.18602126836776733, -0.018988966941833496, -0.026497632265090942, -0.034656643867492676, -0.062141984701156616]
[0.021507203578948975, 0.11784031987190247, 0.053222864866256714, -0.05540922284126282, 0.14925262331962585, 0.1666933000087738, 0.06559556722640991, 0.09261628985404968, -0.2346833050251007, -0.009200423955917358, 0.1517498791217804, -0.04496076703071594, -0.16956305503845215, -0.2157173752784729, -4.382112092571333e-05, 0.2501581013202667, 0.23852941393852234, 0.21971803903579712, -0.25760284066200256, -0.07302269339561462, -0.24301165342330933, 0.23218068480491638, 0.03343525528907776, 0.17594629526138306, 0.25306352972984314, -0.23532992601394653, 0.0025818473659455776, -0.14873547852039337, 0.06127914786338806, 0.11138489842414856, 0.02211359143257141, -0.07506585121154785, -0.18685975670814514, -0.2302444577217102, -0.021655380725860596, -0.1241258829832077, 0.2571069896221161, 0.07539105415344238, -0.12408420443534851, 0.1712503433227539, -0.02776890993118286, 0.21744981408119202, -0.06069891154766083]
[-0.22720196843147278, 0.20049777626991272, -0.021505877375602722, -0.22970658540725708, 0.25118008255958557, 0.09742042422294617, -0.25257858633995056, 0.1319732964038849, -0.16884848475456238, 0.20914509892463684, 0.0011369390413165092, 0.21343699097633362, -0.060434043407440186, 0.1829300820827484, -0.007938027381896973, 0.16355672478675842, 0.127567321062088, 0.07361793518066406, -0.1809227615594864, -0.19952872395515442, -0.18246041238307953, 0.13696378469467163, -0.16612815856933594, 0.09358155727386475, 0.1599586009979248, 0.06340637803077698, -0.12361761927604675, -0.17645633220672607, -0.029903367161750793, 0.06029108166694641, 0.24996361136436462, 0.22262534499168396, 0.06174549460411072, -0.1856296807527542, -0.1335180699825287, -0.06776612997055054, -0.15807166695594788, -0.18306352198123932, 0.1257815659046173, 0.19919514656066895, -0.2379833608865738, 0.22262462973594666, -0.15261812508106232]
[-0.19988968968391418, 0.09264463186264038, 0.002313077449798584, 0.10891351103782654, 0.027838677167892456, 0.17686474323272705, 0.161754310131073, 0.11240899562835693, -0.014576449990272522, -0.22312787175178528, -0.0326448529958725, -0.21766607463359833, -0.2520396411418915, 0.03817814588546753, 0.06834349036216736, -0.03093905746936798, -0.2509844899177551, 0.15143060684204102, 0.1127934455871582, 0.2628801167011261, 0.013624015264213085, 0.095277339220047, 0.09813192486763, 0.09550002217292786, 0.005354993510991335, 0.05116918683052063, 0.134416401386261, 0.12419340014457703, -0.228630930185318, -0.08814765512943268, -0.10741017758846283, -0.18125860393047333, -0.00040396235999651253, 0.26144370436668396, 0.24919745326042175, -0.14077678322792053, -0.03929309546947479, -0.132806196808815, 0.14901301264762878, 0.23212167620658875, -0.17805445194244385, 0.20347541570663452, 0.05084070563316345]
[0.21838518977165222, -0.0005274153663776815, 0.23210075497627258, -0.21719671785831451, -0.15767669677734375, -0.13825516402721405, 0.20380616188049316, -0.11554621160030365, 0.1554347276687622, 0.24542179703712463, 0.2012081742286682, 0.2589671313762665, 0.004879206418991089, -0.006703674793243408, 0.12711140513420105, 0.20801696181297302, 0.08424302935600281, 0.10774892568588257, -0.1690252423286438, -0.23096683621406555, 0.20392674207687378, -0.25753653049468994, 0.21223154664039612, -0.20648710429668427, -0.05050480365753174, 0.14271214604377747, 0.23584693670272827, 0.0469910204410553, 0.0352194607257843, 0.1086089015007019, -0.07346068322658539, 0.21963277459144592, 0.2447914183139801, -0.11189770698547363, -0.13061682879924774, 0.109820157289505, 0.14325502514839172, -0.2036014199256897, 0.21467778086662292, 0.16202062368392944, 0.21459448337554932, -0.17167535424232483, -0.13622434437274933]
[0.18376171588897705, -0.2314821034669876, -0.1824057549238205, -0.0029786978848278522, -0.2124134749174118, 0.16185733675956726, -0.17324984073638916, 0.08092305064201355, 0.14054271578788757, 0.1756480634212494, -0.20214015245437622, -0.059828981757164, 0.0790572464466095, -0.22508928179740906, 0.14313790202140808, -0.21917223930358887, -0.23780539631843567, -0.010277420282363892, 0.2097756564617157, -0.23477397859096527, 0.21476206183433533, -0.034021735191345215, 0.13213565945625305, 0.0861329734325409, 0.07715111970901489, -0.09653708338737488, 0.19306403398513794, 0.22159293293952942, -0.19796989858150482, 0.22665300965309143, 0.23943570256233215, -0.06359827518463135, 0.0011231735115870833, -0.10589456558227539, -0.016160890460014343, -0.11168107390403748, 0.15079808235168457, -0.13709793984889984, 0.16716542840003967, 0.19847407937049866, 0.04408445954322815, 0.19431206583976746, -0.11284390091896057]
[0.05595704913139343, -0.011813938617706299, 0.04190447926521301, -0.23757252097129822, -0.18149305880069733, 0.04819458723068237, 0.22696441411972046, 0.1538749635219574, -0.21964411437511444, -0.039972469210624695, -0.12415371835231781, 0.20828190445899963, -0.051244258880615234, -0.23692500591278076, -0.18849056959152222, -0.07522246241569519, -0.1952442228794098, -0.1112261414527893, 0.03557795286178589, 0.1718895435333252, 0.06167733669281006, 0.07091882824897766, -0.17046982049942017, -0.023618876934051514, -0.0085468590259552, 0.1825142502784729, 0.1950736939907074, 0.045726925134658813, 0.1933450996875763, 0.04313594102859497, -0.0023263494949787855, -0.15392088890075684, 0.24392864108085632, 0.23906144499778748, 0.2175106406211853, 0.05458909273147583, -0.043707504868507385, -0.0941631942987442, -0.24255666136741638, 0.04132366180419922, 0.13400620222091675, -0.009223610162734985, -0.14849188923835754]
[-0.07440051436424255, 0.23318594694137573, 0.14184296131134033, 0.03898137807846069, -0.010764390230178833, -0.2569698691368103, -0.16622747480869293, -0.2290397584438324, 0.23542135953903198, 0.25275006890296936, 0.10716709494590759, -0.10592101514339447, 0.2318069338798523, 0.04677501320838928, -0.004488766193389893, -0.05679100751876831, -0.13916540145874023, -0.2532353401184082, 0.11146053671836853, -0.15388284623622894, 0.24742087721824646, 0.10266220569610596, 0.05513182282447815, 0.04176032543182373, 0.08635514974594116, 0.2444455325603485, -0.1668453812599182, -0.11859285831451416, -0.139809250831604, -0.024016812443733215, -0.13833047449588776, 0.08100435137748718, -0.1501646339893341, -0.027074739336967468, 0.15555676817893982, 0.1643376648426056, 0.17631381750106812, -0.07584604620933533, 0.06479641795158386, -0.08818519115447998, 0.1917082667350769, -0.04641900956630707, -0.04453152418136597]
[0.17763108015060425, 0.09110808372497559, 0.03715062141418457, -0.04035314917564392, -0.17379792034626007, -0.07506723701953888, -0.026517286896705627, -0.035557568073272705, -0.10103222727775574, 0.14594116806983948, -0.23740947246551514, 0.18997418880462646, -0.19379857182502747, 0.215519517660141, 0.20198333263397217, 0.043278008699417114, 0.1443507969379425, -0.039364203810691833, -0.2632036805152893, -0.18709278106689453, -0.03396102786064148, 0.11718091368675232, 0.07417187094688416, -0.13400524854660034, 0.0586068332195282, 0.002278853440657258, 0.2093561887741089, -0.10901452600955963, -0.04329949617385864, 0.09962844848632812, 0.022269129753112793, 0.11576062440872192, -0.25089558959007263, 0.16934612393379211, 0.23049673438072205, 0.19493073225021362, -0.18981927633285522, 0.12319278717041016, -0.10436201095581055, -0.04618555307388306, 0.23438656330108643, 0.016564130783081055, 0.08610507845878601]
[-0.263018399477005, -0.10707207024097443, -0.2305806279182434, 0.2362593114376068, 0.026836872100830078, -0.24076250195503235, -0.06112448871135712, 0.25381234288215637, 0.08834418654441833, 0.1611097753047943, 0.05971410870552063, -0.14608153700828552, 0.08036530017852783, 0.07465764880180359, 0.13743290305137634, 0.19804823398590088, 0.015305250883102417, -0.20787003636360168, 0.01618248224258423, -0.20560099184513092, -0.19419851899147034, 0.1344057023525238, 0.12042012810707092, -0.04945679008960724, 0.06478226184844971, -0.20427285134792328, -0.05863170325756073, -0.1072496622800827, -0.014755145646631718, -0.1460598111152649, 0.07374513149261475, -0.06948861479759216, 0.19028925895690918, 0.24677684903144836, 0.10104313492774963, 0.22314807772636414, -0.18369987607002258, -0.04658009111881256, 0.18846985697746277, -0.02615240216255188, 0.07615450024604797, -0.21091952919960022, -0.23566898703575134]
[-0.18596893548965454, -0.11010108888149261, 0.2122495472431183, 0.15367239713668823, 0.2607404291629791, -0.1381710171699524, -0.09280368685722351, -0.15558820962905884, 0.21407511830329895, -0.20534619688987732, -0.2094789743423462, 0.08056151866912842, -0.17933031916618347, 0.17277446389198303, -0.062410444021224976, -0.2540987432003021, 0.07479393482208252, -0.18988701701164246, 0.0034861466847360134, -0.1966884881258011, -0.048302143812179565, -0.10065695643424988, -0.11674140393733978, -0.1401759535074234, -0.010155066847801208, -0.2551179826259613, 0.23382237553596497, 0.2500384747982025, -0.16748948395252228, 0.17500382661819458, -0.16595026850700378, 0.08441609144210815, -0.016188859939575195, -0.07791034877300262, -0.25616544485092163, 0.15025505423545837, 0.10558021068572998, -0.2547152042388916, -0.11048266291618347, 0.07185658812522888, -0.2174799144268036, -0.22698520123958588, -0.1472512185573578]
[0.05665731430053711, 0.02325725555419922, 0.14849713444709778, 0.24856361746788025, 0.10476139187812805, -0.0658726692199707, -0.13274013996124268, 0.17013171315193176, -0.07133446633815765, -0.1483171284198761, 0.0017357144970446825, -0.10331374406814575, -0.20453841984272003, 0.18151798844337463, -0.1875881850719452, 0.24740025401115417, -0.08105972409248352, 0.17345577478408813, -0.008785665035247803, 0.04945167899131775, 0.26336535811424255, -0.0944996029138565, 0.11394697427749634, -0.17567652463912964, 0.05820786952972412, 0.25709304213523865, -0.162180095911026, 0.0911996066570282, -0.12472125887870789, -0.20076963305473328, 0.11006084084510803, 0.07855579257011414, -0.021463245153427124, -0.17216864228248596, -0.1559467911720276, 0.1512501835823059, -0.17247873544692993, 0.2095944583415985, 0.24274352192878723, -0.12404483556747437, -0.07843071222305298, -0.2353285402059555, 0.08356383442878723]
[-0.0836789608001709, 0.14228114485740662, 0.06912052631378174, -0.01113321352750063, -0.09524333477020264, 0.12862518429756165, 0.0759894847869873, 0.014313030056655407, -0.06545275449752808, -0.24780963361263275, 0.06978711485862732, 0.0646396279335022, 0.10911130905151367, -0.12924523651599884, -0.20666205883026123, 0.0423964262008667, -0.23844824731349945, -0.03316792845726013, -0.04558515548706055, 0.16970482468605042, 0.20767587423324585, 0.030658632516860962, -0.033854469656944275, -0.014845922589302063, 0.029363363981246948, -0.10793155431747437, 0.12994533777236938, -0.15262550115585327, -0.13388508558273315, -0.19614526629447937, -0.19382086396217346, 0.12958461046218872, 0.050365567207336426, -0.09859302639961243, -0.25601109862327576, 0.05091932415962219, 0.12007591128349304, -0.05400626361370087, 0.14494988322257996, -0.2065303772687912, -0.18158796429634094, 0.06396937370300293, -0.032111018896102905]
[-0.23560166358947754, -0.2456403374671936, -0.17627018690109253, -0.1635095477104187, -0.1950024664402008, 0.23144257068634033, -0.09152404963970184, 0.16572266817092896, 0.052218228578567505, -0.2571575343608856, -0.004260719288140535, -0.03506945073604584, 0.24044319987297058, 0.2053062617778778, -0.15410476922988892, 0.08837658166885376, -0.05181656777858734, -0.013790726661682129, 0.08731335401535034, 0.24739471077919006, -0.20503579080104828, -0.03491409122943878, -0.24664075672626495, 0.13289695978164673, 0.13536927103996277, 0.26321324706077576, -0.25245729088783264, -0.012983769178390503, -0.17982202768325806, -0.09741438925266266, 0.1564946472644806, 0.16675180196762085, 0.067070871591568, -0.0627450942993164, -0.24848012626171112, -0.10197584331035614, -0.15937644243240356, -0.014741629362106323, -0.033845022320747375, 0.20736175775527954, 0.011431245133280754, 0.17720693349838257, 0.10484057664871216]
[0.17361074686050415, 0.015058517456054688, 0.11127060651779175, 0.06523454189300537, 0.049163371324539185, 0.08747407793998718, 0.06286284327507019, 0.08928194642066956, -0.10777789354324341, 0.09137806296348572, -0.004263389855623245, -0.0008588856435380876, -0.06045752763748169, 0.14213314652442932, -0.1867305338382721, -0.03960601985454559, -0.1801312267780304, -0.22838148474693298, 0.26249459385871887, -0.030588164925575256, -0.2551007866859436, 0.25881651043891907, -0.0357092022895813, -0.15528655052185059, 0.17822971940040588, -0.057044804096221924, 0.08587929606437683, 0.09764248132705688, -0.15996035933494568, -0.2591872811317444, -0.12377285957336426, 0.05649641156196594, -0.0835811048746109, 0.18748870491981506, -0.25678926706314087, -0.05795226991176605, 0.2256510853767395, 0.13871902227401733, 0.13412150740623474, -0.1170111894607544, 0.009664476849138737, 0.19887086749076843, -0.023260802030563354]
[0.24916014075279236, 0.13126477599143982, 0.03701251745223999, -0.24547648429870605, -0.09304343163967133, 0.12365508079528809, 0.07332780957221985, 0.19733265042304993, 0.0413440465927124, -0.15995796024799347, 0.09032821655273438, -0.09934563934803009, -0.22926992177963257, 0.106381356716156, -0.026776418089866638, -0.0033790781162679195, -0.12653851509094238, -0.10120365023612976, -0.17788228392601013, 0.10742121934890747, 0.15920397639274597, -0.09606434404850006, -0.10648414492607117, 0.023540586233139038, 0.12803316116333008, 0.20099091529846191, -0.1351371556520462, 0.15382182598114014, -0.12115398049354553, -0.05303746461868286, -0.013564586639404297, -0.24621184170246124, -0.06248784065246582, 0.1856938600540161, 0.19015082716941833, -0.2201337367296219, 0.04439923167228699, -0.06322942674160004, -0.0027731657028198242, -0.2528509497642517, 0.09440261125564575, 0.23546293377876282, -0.22842253744602203]
[0.1704772710800171, -0.009236246347427368, -0.0403590053319931, 0.11169913411140442, -0.0018879525596275926, -0.0033546090126037598, -0.24080267548561096, -0.09782139956951141, 0.23876240849494934, 0.09471604228019714, 0.08651798963546753, 0.07450705766677856, -0.1057540774345398, -0.19217249751091003, 0.04436230659484863, 0.12998512387275696, -0.17010048031806946, -0.02254892885684967, 0.02470305562019348, -0.050138041377067566, -0.15051615238189697, -0.2509642243385315, 0.22224906086921692, -0.04887394607067108, 0.2505684196949005, -0.21543601155281067, 0.1081244945526123, 0.1506003439426422, -0.06382687389850616, -0.07179267704486847, 0.04299703240394592, 0.05979540944099426, -0.13542979955673218, -0.25093337893486023, -0.14135099947452545, 0.04401633143424988, -0.11005689203739166, -0.1364770084619522, 0.16996610164642334, -0.2295924872159958, 0.09355694055557251, -0.2511487305164337, 0.03845924139022827]
[0.025858432054519653, 0.037970513105392456, -0.2350511997938156, -0.01647186279296875, 0.22199943661689758, 0.12293264269828796, 0.1193503737449646, -0.21703386306762695, 0.10353055596351624, -0.2474256157875061, -0.020169608294963837, 0.08229774236679077, 0.09530097246170044, -0.252562016248703, 0.03186044096946716, -0.13579989969730377, -0.029759034514427185, 0.07569929957389832, -0.11626513302326202, -0.1802007555961609, 0.06323453783988953, -0.011874012649059296, -0.2517268657684326, 0.0053320834413170815, -0.13106192648410797, 0.042937517166137695, 0.10235124826431274, -0.25565144419670105, -0.2376069724559784, 0.12916412949562073, -0.13511504232883453, 0.17327749729156494, -0.19905993342399597, -0.23047135770320892, -0.1297062784433365, 0.009531324729323387, 0.011412978172302246, 0.2462819516658783, 0.00680387020111084, -0.2232045829296112, -0.09785181283950806, -0.17167145013809204, -0.15356746315956116]
[0.17870202660560608, -0.23155030608177185, 0.18230995535850525, -0.0718444287776947, 0.2450701892375946, -0.031437814235687256, -0.006989330053329468, -0.19273808598518372, -0.2491137832403183, -0.011428654193878174, 0.1753712296485901, -0.1572284996509552, -0.17511220276355743, -0.10681268572807312, 0.02736493945121765, -0.014090925455093384, 0.24847248196601868, 0.16892355680465698, 0.1714898943901062, 0.22850051522254944, 0.027454406023025513, 0.03256845474243164, 0.09275129437446594, 0.14039990305900574, -0.014404596760869026, 0.16643068194389343, 0.023658305406570435, -0.03757578134536743, 0.11371666193008423, -0.26133662462234497, 0.15900370478630066, 0.16221296787261963, -0.1347985416650772, -0.04098887741565704, -0.2526669502258301, 0.17274990677833557, -0.008641332387924194, -0.013754457235336304, -0.26321232318878174, 0.23005995154380798, 0.07598048448562622, 0.008615076541900635, -0.10734564065933228]
[-0.1963413655757904, 0.2038511037826538, -0.1708594560623169, 0.25771215558052063, -0.07615707814693451, -0.24107907712459564, -0.02923029661178589, -0.15063214302062988, 0.14188459515571594, 0.023226678371429443, -0.23459488153457642, 0.17541706562042236, -0.06824353337287903, 0.0859021544456482, 0.04024994373321533, 0.18274202942848206, 0.011374235153198242, -0.20364555716514587, -0.18791711330413818, 0.16654613614082336, -0.018566161394119263, -0.17236122488975525, -0.22610966861248016, 0.010046422481536865, 0.030787736177444458, 0.1794317066669464, -0.09087899327278137, -0.19071009755134583, -0.02336829900741577, -0.22703608870506287, -0.21811552345752716, 0.23033156991004944, -0.1458832323551178, 0.25152865052223206, 0.2356480062007904, 0.03442138433456421, -0.06159025430679321, -0.02037043869495392, 0.061317890882492065, 0.15474385023117065, -0.02265605330467224, 0.15123683214187622, 0.1273881196975708]
[-0.1507909744977951, 0.15731370449066162, -0.041663721203804016, 0.11173918843269348, 0.23830607533454895, 0.12306463718414307, 0.11573174595832825, 0.20860716700553894, 0.13941961526870728, 0.12628787755966187, -0.21809902787208557, 0.20342105627059937, 0.09251666069030762, 0.013538748025894165, 0.14312618970870972, 0.11011338233947754, -0.1067163348197937, -0.003049970604479313, -0.08199149370193481, -0.03562942147254944, -0.262134313583374, -0.13724598288536072, 0.24439367651939392, -0.016993865370750427, 0.15610849857330322, -0.047301918268203735, 0.018751174211502075, -0.21358895301818848, 0.2258756458759308, 0.00374790420755744, -0.09561614692211151, 0.15884053707122803, -0.16808339953422546, 0.24035075306892395, 0.09848412871360779, 0.0142863430082798, -0.07429768145084381, -0.17262281477451324, -0.2388952374458313, 0.20599773526191711, -0.24808010458946228, 0.16494444012641907, -0.029097169637680054]
[-0.1137373149394989, 0.2583591043949127, -0.14857117831707, 0.2352316975593567, 0.09928977489471436, 0.21011438965797424, 0.13384932279586792, -0.2479284107685089, -0.06895087659358978, 0.13561978936195374, -0.12912362813949585, 0.22014722228050232, 0.12131243944168091, 0.23986920714378357, 0.01252901554107666, 0.035096198320388794, 0.14662525057792664, -0.05453236401081085, -0.028029367327690125, -0.17808252573013306, -0.2259160876274109, 0.13782697916030884, -0.1093105673789978, 0.1429845690727234, 0.059376060962677, -0.1895984709262848, -0.21097537875175476, 0.19669699668884277, 0.05111193656921387, 0.06856617331504822, 0.19663476943969727, 0.09321963787078857, -0.06261113286018372, -0.07955481112003326, 0.12831521034240723, -0.17368564009666443, -0.196494460105896, 0.08520716428756714, -0.08764643967151642, 0.1504407823085785, -0.1842041313648224, 0.190347820520401, -0.043056026101112366]
[0.18820622563362122, -0.25260767340660095, -0.19540473818778992, -0.25599023699760437, -0.16482912003993988, -0.025105133652687073, -0.021048247814178467, -0.028248712420463562, -0.18533149361610413, -0.19122353196144104, 0.19199416041374207, -0.24386854469776154, -0.26328831911087036, -0.043804168701171875, -0.05223144590854645, 0.11737769842147827, 0.062898188829422, 0.05440482497215271, 0.15951454639434814, -0.16723960638046265, -0.1850399225950241, -0.21178637444972992, 0.14094838500022888, -0.1026010513305664, -0.16778156161308289, 0.2342890202999115, 0.08840504288673401, 0.09571802616119385, 0.13257300853729248, -0.09829887747764587, 0.2335575520992279, 0.004958808422088623, -0.058437734842300415, 0.15156498551368713, 0.15564027428627014, -0.021837502717971802, -0.23525705933570862, -0.1972656548023224, -0.20709815621376038, 0.07419684529304504, 0.011496484279632568, -0.1772066205739975, 0.006319054402410984]
[0.16585630178451538, -0.17317982017993927, 0.07782018184661865, 0.014124482870101929, 0.04368633031845093, 0.19321802258491516, 0.1039038896560669, 0.07763522863388062, 0.2619034945964813, 0.2584420144557953, 0.21488603949546814, 0.25701192021369934, -0.03690636157989502, 0.12223589420318604, 0.13789060711860657, 0.19167247414588928, -0.21279075741767883, 0.20390179753303528, 0.10803431272506714, -0.10778369009494781, 0.06621921062469482, 0.1894991099834442, 0.18402975797653198, 0.11535829305648804, -0.08567281067371368, -0.11270403861999512, 0.028436869382858276, -0.18364357948303223, -0.23982959985733032, -0.014362141489982605, 0.01495826244354248, -0.04650326073169708, 0.14762195944786072, -0.24581439793109894, 0.24345430731773376, -0.21240445971488953, 0.09558528661727905, 0.1930154263973236, -0.12468446791172028, -0.08412577211856842, -0.13210107386112213, 0.030380964279174805, 0.20316827297210693]
[0.06284961104393005, 0.06377920508384705, 0.09238851070404053, -0.20876264572143555, -0.14916804432868958, -0.09960685670375824, -0.06096832454204559, 0.2593018114566803, -0.02094729244709015, -0.10474604368209839, -0.01912619173526764, -0.15541186928749084, 0.18631309270858765, -0.008590251207351685, 0.13696235418319702, -0.057950884103775024, -0.04817505180835724, 0.21996131539344788, 0.22862941026687622, 0.21127626299858093, 0.11402302980422974, -0.08534137904644012, -0.21009865403175354, 0.0055273473262786865, 0.228408545255661, -0.15454111993312836, 0.22653701901435852, 0.010613948106765747, 0.11124712228775024, -0.21462149918079376, 0.06570208072662354, -0.021333515644073486, 0.020886093378067017, 0.08000689744949341, 0.002443502889946103, 0.22557860612869263, -0.11856994032859802, 0.05487135052680969, -0.10163961350917816, 0.2452353537082672, -0.21648341417312622, 0.04291743040084839, -0.19191709160804749]
[-0.20392857491970062, 0.2401045262813568, -0.24516229331493378, 0.12802451848983765, 0.2211512327194214, 0.00039559410652145743, 0.25099751353263855, -0.07345129549503326, -0.20038101077079773, -0.004661589860916138, -0.127985417842865, 0.22572407126426697, 0.08308687806129456, 0.0627632737159729, 0.19731685519218445, 0.21003586053848267, -0.20290309190750122, -0.15751636028289795, 0.055271923542022705, -0.06420351564884186, 0.05765697360038757, -0.09979559481143951, 0.0466136634349823, -0.2457210123538971, -0.26294925808906555, 0.013176143169403076, 0.18388986587524414, 0.08999338746070862, -0.052503883838653564, 0.19637751579284668, 0.05928152799606323, 0.10446944832801819, 0.0864931046962738, 0.028099089860916138, -0.06178686022758484, 0.10292461514472961, 0.19837304949760437, -0.01070547103881836, 0.22697120904922485, -0.05202066898345947, 0.10245722532272339, 0.13272157311439514, -0.15045985579490662]
[-0.2500230669975281, -0.0870826244354248, 0.14983496069908142, -0.030469954013824463, 0.23146763443946838, 0.2110741138458252, -0.1893797665834427, -0.13695794343948364, 0.2255176305770874, -0.06008194386959076, -0.17315028607845306, -0.2420625537633896, 0.0321175754070282, 0.22325783967971802, 0.09246185421943665, 0.221131831407547, -0.17848412692546844, -0.1960388422012329, -0.198664128780365, 0.15052181482315063, -0.18290261924266815, -0.11483654379844666, -0.1713269203901291, -0.2596830725669861, -0.005573407746851444, 0.015839606523513794, -0.17514923214912415, 0.011811047792434692, 0.23923394083976746, 0.11280101537704468, -0.05281604826450348, 0.1854010820388794, -0.22050900757312775, -0.1978112757205963, 0.008198797702789307, -0.2158166915178299, -0.15960612893104553, -0.0630776584148407, -0.19069574773311615, -0.09928788244724274, 0.08782163262367249, 0.013888895511627197, 0.18797782063484192]
[-0.10800044238567352, 0.19121763110160828, 0.06484529376029968, 0.028241336345672607, -0.12296941876411438, -0.1854572594165802, 0.258987694978714, -0.261555016040802, -0.14294621348381042, -0.08153247833251953, 0.2615683972835541, -0.055645376443862915, 0.15410685539245605, -0.21356017887592316, -0.2184261828660965, 0.25214090943336487, 0.11504548788070679, -0.16216504573822021, 0.16797035932540894, 0.15625181794166565, 0.13105347752571106, 0.2573988139629364, -0.08518356084823608, 0.10765251517295837, -0.04018223285675049, -0.10498011112213135, 0.15829965472221375, 0.24857202172279358, 0.2406187355518341, -0.025754347443580627, -0.193802610039711, -0.1429283320903778, 0.2493392527103424, -0.011447042226791382, -0.23721393942832947, 0.09874051809310913, -0.18942850828170776, 0.0018200353952124715, 0.10185214877128601, -0.032951727509498596, 0.11152300238609314, -0.04135224223136902, -0.05138646066188812]
[0.1425996720790863, -0.07777060568332672, 0.19328263401985168, -0.06721459329128265, -0.19926396012306213, 0.01887020468711853, -0.18354514241218567, -0.12476067245006561, -0.031208589673042297, 0.25627371668815613, -0.16149945557117462, -0.032893165946006775, -0.12270882725715637, -0.17938415706157684, 0.18475490808486938, -0.09524717926979065, -0.058529362082481384, -0.24577656388282776, -0.07034897804260254, -0.09692412614822388, 0.17200377583503723, -0.22402545809745789, 0.14940804243087769, 0.2167944312095642, -0.08848041296005249, -0.13733862340450287, -0.12042964994907379, -0.2568701207637787, 0.13763222098350525, -0.20500802993774414, -0.11965002119541168, -0.1826719343662262, -0.0536198616027832, 0.07526722550392151, 0.19699782133102417, -0.01887252926826477, -0.05139772593975067, 0.1473146378993988, 0.23208904266357422, -0.16724973917007446, -0.026508525013923645, -0.10376356542110443, 0.12553256750106812]
[0.08223879337310791, 0.004266172647476196, 0.033447206020355225, 0.2402801215648651, 0.21466770768165588, -0.2399473637342453, 0.23346403241157532, 0.19954389333724976, -0.127675399184227, 0.22727185487747192, 0.1878456473350525, 0.1789959967136383, -0.25668278336524963, 0.2611439526081085, 0.0717625617980957, 0.12226355075836182, -0.23481100797653198, -0.18272364139556885, 0.016117185354232788, 0.0387800931930542, 0.0685233473777771, -0.09653343260288239, 0.07922330498695374, -0.1421622335910797, 0.09410858154296875, -0.20952104032039642, -0.0712813138961792, -0.10563108325004578, -0.19533157348632812, -0.251720666885376, -0.13774940371513367, -0.04211752116680145, -0.021990343928337097, 0.09890958666801453, -0.1590237319469452, 0.17985472083091736, -0.20399507880210876, -0.13544420897960663, 0.2500006854534149, 0.22037965059280396, -0.08662058413028717, 0.040785789489746094, -0.14357715845108032]
[0.16735994815826416, -0.2484988272190094, -0.014613479375839233, -0.06358705461025238, 0.12381649017333984, -0.2201419174671173, 0.2527037560939789, 0.16786298155784607, -0.00990566611289978, -0.19568201899528503, 0.12573274970054626, -0.18898390233516693, -0.08878326416015625, 0.13837826251983643, -0.11621065437793732, 0.16629138588905334, -0.058018580079078674, -0.15359705686569214, 0.010277152061462402, -0.2504977583885193, 0.05389505624771118, 0.15797734260559082, -0.03435927629470825, 0.23946252465248108, 0.01544220931828022, 0.2393302619457245, 0.03181830048561096, 0.046432554721832275, -0.23217476904392242, 0.15396463871002197, 0.188412606716156, 0.17925330996513367, -0.15154805779457092, -0.22535207867622375, 0.225789874792099, 0.24917945265769958, 0.049781978130340576, -0.25738343596458435, -0.23860864341259003, 0.17294391989707947, -0.005518898833543062, -0.009124964475631714, -0.15534058213233948]
[0.021470993757247925, -0.26317447423934937, 0.08581173419952393, -0.15951140224933624, -0.006356912665069103, -0.14121365547180176, -0.23150810599327087, 0.13838034868240356, -0.2573974132537842, 0.20057013630867004, -0.15316417813301086, 0.06385180354118347, -0.17738263309001923, 0.18769803643226624, -0.10261723399162292, 0.16212385892868042, 0.1412615180015564, -0.01186797022819519, -0.0682762861251831, 0.1479143500328064, 0.072954922914505, -0.24148495495319366, -0.030268684029579163, -0.041975319385528564, -0.15331147611141205, 0.0996694564819336, 0.11435121297836304, 0.09086892008781433, 0.23354792594909668, -0.12165355682373047, -0.21834343671798706, 0.1056043803691864, 0.039346009492874146, -0.04020661115646362, 0.0602400004863739, -0.13463594019412994, 0.04911985993385315, 0.040825843811035156, 0.1470600962638855, 0.015612393617630005, 0.1409236490726471, 0.11104312539100647, 0.059761226177215576]
[0.067740797996521, -0.014388099312782288, 0.20425453782081604, -0.076775923371315, 0.009440363384783268, 0.060846954584121704, 0.0115090012550354, -0.18473342061042786, 0.11497148871421814, -0.25006726384162903, 0.18115198612213135, 0.11757588386535645, -0.20817464590072632, -0.035216182470321655, -0.03495313227176666, 0.17392298579216003, -0.25308069586753845, -0.17779114842414856, -0.14619602262973785, -0.24478772282600403, 0.24403032660484314, 0.23829886317253113, 0.05210795998573303, -0.24186161160469055, -0.10961361229419708, -0.05601496994495392, -0.08355547487735748, -0.15917417407035828, -0.15290522575378418, 0.19208157062530518, 0.21178758144378662, -0.03941400349140167, 0.05215775966644287, 0.13661831617355347, -0.19641618430614471, 0.06874576210975647, -0.19652311503887177, -0.004724353551864624, 0.24232074618339539, 0.05783155560493469, 0.202214777469635, 0.22395071387290955, -0.238917276263237]
[0.2294081449508667, 0.22608402371406555, -0.09429153800010681, 0.04713684320449829, 0.24134930968284607, -0.2313176691532135, -0.19822293519973755, 0.22057190537452698, -0.04202538728713989, 0.033970147371292114, 0.11790686845779419, 0.1598728895187378, -0.14904122054576874, -0.028019294142723083, -0.03610891103744507, 0.10031890869140625, 0.07879370450973511, -0.21219325065612793, 0.21460461616516113, 0.131355881690979, 0.23201265931129456, -0.04922811686992645, -0.20534645020961761, -0.21812491118907928, 0.005032621324062347, -0.1856493353843689, 0.03435128927230835, -0.19807448983192444, -0.14082491397857666, 0.02340179681777954, 0.04879900813102722, 0.25777360796928406, 0.22807428240776062, 0.038620710372924805, -0.25000059604644775, -0.15300825238227844, -0.22550208866596222, -0.02094106376171112, -0.1455448567867279, 0.15396609902381897, -0.2479255646467209, 0.11166658997535706, 0.1493552029132843]
[-0.09392811357975006, -0.0037408173084259033, -0.07196900248527527, 0.003525924403220415, 0.0260392427444458, 0.02418777346611023, 0.011142551898956299, 0.029182255268096924, -0.2421826422214508, -0.026902437210083008, 0.00036350262234918773, 0.1556294560432434, -0.25271856784820557, -0.13176724314689636, 0.12880799174308777, 0.232974112033844, 0.09726998209953308, -0.06651821732521057, -0.16325223445892334, -0.08885039389133453, 0.07085850834846497, 0.24265101552009583, -0.024276137351989746, -0.05225922167301178, -0.20393946766853333, 0.11070886254310608, -0.23353929817676544, 0.06304383277893066, 0.010738343000411987, -0.23426268994808197, 0.13267087936401367, -0.0653349906206131, -0.15441736578941345, 0.1253182590007782, 0.16417273879051208, -0.11574023962020874, 0.2027025818824768, -0.07170671224594116, 0.17336571216583252, 0.2148122489452362, -0.03118881583213806, 0.1277942955493927, -0.02059747278690338]
[-0.010586678981781006, -0.2567870020866394, -0.14925318956375122, 0.1981578767299652, 0.061976224184036255, -0.016748011112213135, 0.22052425146102905, -0.030018866062164307, -0.13062545657157898, -0.16307999193668365, -0.1689452826976776, -0.13452434539794922, 0.146631121635437, 0.16429319977760315, 0.05070626735687256, -0.1659124791622162, 0.21197623014450073, 0.0723680853843689, 0.08930259943008423, 0.20651966333389282, 0.2026297152042389, 0.19544637203216553, 0.06860065460205078, 0.19123241305351257, -0.00952851865440607, -0.09020170569419861, -0.14824610948562622, -0.13439694046974182, 0.08115732669830322, -0.1311994045972824, 0.0346427857875824, -0.2147139459848404, -0.14760351181030273, 0.15978151559829712, 0.20116323232650757, -0.08328902721405029, 0.03458490967750549, -0.024260401725769043, 0.11842924356460571, -0.1770646721124649, -0.20119130611419678, -0.24119526147842407, 0.13171795010566711]
[0.18512237071990967, -0.23542672395706177, -0.23680554330348969, -0.21109887957572937, 0.07710227370262146, -0.15052056312561035, 0.2417168915271759, -0.05220569670200348, 0.1251475214958191, -0.12832000851631165, 0.25701048970222473, -0.2539941370487213, 0.04415223002433777, -0.17220264673233032, -0.20927494764328003, -0.22683298587799072, -0.02543008327484131, -0.13936591148376465, 0.19032621383666992, 0.06108123064041138, 0.04846605658531189, -0.06052982807159424, -0.13584454357624054, 0.00947234034538269, -0.04616546630859375, 0.021502912044525146, 0.23085689544677734, 0.08143749833106995, 0.04837355017662048, 0.06769523024559021, -0.0549810528755188, -0.24915048480033875, 0.11353522539138794, -0.05614614486694336, -0.1936851590871811, 0.25103840231895447, 0.17885547876358032, -0.15726201236248016, -0.15907958149909973, 0.08588624000549316, -0.21044324338436127, -0.14566414058208466, -0.020013883709907532]
[0.033891260623931885, -0.21821250021457672, -0.05819277465343475, -0.05449666082859039, -0.18354755640029907, 0.2519724667072296, -0.08108063042163849, 0.23059800267219543, 0.251995712518692, -0.21404710412025452, -0.2113126814365387, 0.026711374521255493, 0.07530736923217773, -0.2282368242740631, 0.23417571187019348, -0.028004944324493408, 0.012713789939880371, -0.043512970209121704, -0.25286412239074707, -0.012312769889831543, 0.17009052634239197, -0.07706592977046967, 0.04163026809692383, 0.1072782576084137, -0.0021842224523425102, -0.12309058010578156, 0.2536943256855011, 0.05194208025932312, 0.056670159101486206, -0.04949274659156799, -0.053312987089157104, 0.0425584614276886, 0.1414979100227356, -0.1151328980922699, -0.20106688141822815, 0.09461215138435364, 0.21887803077697754, 0.1953379213809967, -0.10376854240894318, -0.11522534489631653, 0.2160794734954834, 0.1743900179862976, -0.013052641414105892]
[0.1697034239768982, -0.1768399178981781, -0.22443333268165588, 0.15507256984710693, 0.18788349628448486, 0.17277809977531433, 0.1206226646900177, 0.04573509097099304, -0.0721057802438736, 0.20020291209220886, 0.0787772536277771, -0.2504954934120178, -0.09160685539245605, -0.06155794858932495, -0.12312409281730652, -0.06644183397293091, -0.020208656787872314, 0.20318692922592163, 0.14415287971496582, -0.2230221927165985, 0.04060661792755127, 0.048404842615127563, 0.014454782009124756, -0.22006024420261383, -0.1386176347732544, 0.08996975421905518, 0.2084152102470398, -0.15362408757209778, -0.196407750248909, -0.023454323410987854, -0.1811932921409607, 0.03802227973937988, 0.23913714289665222, 0.1879575550556183, 0.03816407918930054, -0.07067763805389404, 0.2037774920463562, 0.06577858328819275, -0.02294781804084778, 0.20883122086524963, 0.03780949115753174, 0.007214096374809742, 0.17063263058662415]
[0.09815579652786255, -0.08092369139194489, 0.040025174617767334, 0.07232096791267395, -0.1743077039718628, -0.2329288274049759, 0.2121882140636444, 0.009600465185940266, -0.11062617599964142, -0.20674316585063934, -0.12681283056735992, 0.2111169397830963, 0.2014184594154358, -0.0917467325925827, 0.08512750267982483, 0.09916955232620239, 0.014408320188522339, -0.25708290934562683, 0.05418863892555237, -0.08451880514621735, 0.21779900789260864, -0.12398520112037659, -0.09610508382320404, -0.04996196925640106, -0.18871960043907166, 0.17095908522605896, 0.15154391527175903, 0.20427247881889343, 0.12413975596427917, -0.09690341353416443, -0.15228858590126038, 0.012542188167572021, -0.11606751382350922, -0.1595449149608612, 0.2096787393093109, -0.012480136938393116, 0.1680378019809723, -0.09767919778823853, -0.24906402826309204, -0.16103538870811462, 0.17805060744285583, 0.2196371853351593, 0.21241560578346252]
[0.10213246941566467, 0.18483474850654602, 0.1881960928440094, -0.2282077968120575, -0.06786499917507172, 0.09862670302391052, -0.2330450713634491, -0.26044702529907227, -0.15151940286159515, -0.03113490343093872, -0.03147546947002411, -0.04406885802745819, 0.06416541337966919, 0.21564874053001404, 0.05713900923728943, 0.2305680215358734, -0.13422924280166626, 0.23128795623779297, -0.09999106824398041, 0.010320544242858887, -0.2544442117214203, -0.22670383751392365, 0.05872690677642822, 0.21801060438156128, 0.21866241097450256, -0.035891205072402954, 0.2421530783176422, -0.05776585638523102, -0.0011565479217097163, -0.13171838223934174, -0.2146558165550232, 0.24380084872245789, -0.1165543645620346, 0.003136059967800975, 0.019356101751327515, 0.12599825859069824, -0.004568010568618774, -0.04662260413169861, -0.14598733186721802, -0.006971985101699829, 0.19083669781684875, -0.21425694227218628, 0.023984551429748535]
[-0.0807386189699173, -0.20749855041503906, 0.25989553332328796, 0.15214210748672485, -0.004401530139148235, 0.1406458020210266, 0.2555341422557831, 0.1560407280921936, -0.1013803482055664, -0.12686459720134735, -0.181539848446846, -0.23803235590457916, 0.241722971200943, -0.0026800932828336954, 0.2295849323272705, 0.2056989073753357, 0.04511013627052307, 0.23407623171806335, -0.1283774971961975, 0.07868552207946777, -0.10221382975578308, -0.040696799755096436, 0.005699276924133301, 0.018432587385177612, -0.041356027126312256, -0.2492554634809494, -0.22186428308486938, 0.06318125128746033, -0.2025475949048996, -0.13694748282432556, -0.24845260381698608, -0.26036888360977173, -0.20823925733566284, 0.0552440881729126, -0.05561313033103943, -0.0182114839553833, 0.18609526753425598, -0.22328391671180725, -0.016461417078971863, 0.23314723372459412, -0.21299737691879272, -0.13809268176555634, 0.09712955355644226]

[3.057982951304439e-07, 1.8018602077063406e-07, 2.404010217560426e-07, -2.413470383544336e-07, -4.547420928702195e-08, -3.8569854154957284e-07, -1.782288592266923e-07, -2.458998835663806e-07, -4.605920977951428e-09, -2.2622812512196333e-09, -6.1487028801821e-09, -1.75228706211783e-07, 8.827976927250347e-08, 9.511444432064309e-08, -1.8042776162019436e-07, 6.40199715462586e-08, 8.559818098774485e-08, -6.180740541594787e-08, 7.848154126577356e-08, -1.5569348477129097e-08, 1.653374503973737e-08, -2.397360958639183e-07, -2.904247153878714e-08, -1.736055139645032e-07, -8.119013727991842e-08, -1.3550176447552076e-07, 2.336971789418385e-07, 2.709438717829471e-07, -8.706133769464941e-08, 2.1540942896081106e-07, -2.3733407772397186e-07, -3.4227937817377097e-07, -8.849560195756112e-09, -1.390155404124016e-07, -1.2975722540886636e-07, 1.1284627987606655e-07, -7.499512122421947e-09, -1.794957995571167e-07]
[0.11175030469894409, -0.024338845163583755, -0.00048336037434637547, -0.1010175496339798, -0.004763132426887751, 0.1603793501853943, -0.15336987376213074, 0.06009743735194206, -0.042468830943107605, -0.23563745617866516, -0.1078958809375763, 0.14870646595954895, 0.23984503746032715, 0.03191918134689331, 0.1286289393901825, -0.15739703178405762, -0.0973658412694931, -0.05088759586215019, -0.12702934443950653, -0.09128330647945404, -0.17565013468265533, 0.1642477810382843, 0.2479223608970642, 0.04509633779525757, 0.11944162845611572, -0.1478099524974823, 0.2417517900466919, 0.07597339153289795, 0.21238163113594055, 0.24084395170211792, -0.2551259398460388, 0.14382848143577576, 0.06173524260520935, 0.22293996810913086, -0.09639087319374084, -0.13187827169895172, 0.0325588583946228, -0.0536416620016098]
[0.18715593218803406, 0.02703840471804142, 0.200894296169281, 0.1450679898262024, -0.10812948644161224, 0.1934514045715332, 0.19984450936317444, 0.2433282732963562, 0.14754220843315125, 0.07232224941253662, 0.25754058361053467, -0.06409299373626709, 0.14999672770500183, -0.2609231472015381, 0.17436188459396362, -0.03588581085205078, 0.18398302793502808, 0.040866777300834656, -0.003366950899362564, 0.1895601451396942, -0.062263697385787964, 0.19504424929618835, -0.04443971812725067, -0.10746638476848602, -0.1373152732849121, 0.007388494908809662, -0.026009397581219673, 0.1798672378063202, 0.00022039799659978598, -0.1176852136850357, -0.17903943359851837, -0.046603187918663025, 0.14275586605072021, 0.03106147050857544, -0.17920061945915222, -0.12662793695926666, 0.13668644428253174, -0.21612542867660522]
[-0.26543378829956055, 0.1558055579662323, 0.20763260126113892, -0.2572816014289856, -0.0422251895070076, -0.26334428787231445, -0.04190266877412796, 0.022349540144205093, -0.2099684774875641, -0.12432651221752167, -0.1463133543729782, 0.11170202493667603, -0.2163858413696289, 0.07482945919036865, 0.025259844958782196, -0.12704116106033325, -0.08183400332927704, 0.036659110337495804, 0.16288933157920837, 0.1349007487297058, 0.09353730082511902, 0.10067012906074524, -0.07745890319347382, 0.2663279175758362, -0.11380353569984436, -0.03791937232017517, -0.19341430068016052, 0.22291311621665955, 0.04494175314903259, -0.08086429536342621, -0.03868610039353371, 0.25431162118911743, -0.13405433297157288, 0.09992462396621704, 0.1360352635383606, -0.13459549844264984, -0.15303874015808105, 0.04195237159729004]
[-0.11185432970523834, -0.128119096159935, 0.003938424866646528, -0.23747532069683075, 0.14300936460494995, 0.24856579303741455, 0.0031424500048160553, -0.0661163181066513, -0.2602255642414093, 0.15046873688697815, -0.13895457983016968, 0.17198964953422546, 0.17821234464645386, 0.2419843077659607, -0.05302463471889496, -0.2046661078929901, 0.09665840864181519, -0.02984580211341381, -0.27152812480926514, -0.25004497170448303, -0.09595170617103577, 0.22166094183921814, -0.05998809635639191, -0.06735894083976746, 0.02609161101281643, 0.22777780890464783, -0.06587304174900055, 0.029330501332879066, 0.01411732193082571, 0.03800832852721214, 0.0547095388174057, -0.007934830151498318, 0.007940317504107952, 0.20881545543670654, 0.17840072512626648, -0.1973293423652649, -0.261294424533844, -0.21362575888633728]
[-0.19569218158721924, -0.057845521718263626, 0.1671258807182312, 0.11972701549530029, 0.1476486325263977, -0.045059993863105774, -0.22152234613895416, -0.15502792596817017, -0.003521842649206519, -0.12966813147068024, 0.02209424041211605, 0.18581685423851013, -0.10983873903751373, 0.18554919958114624, -0.06983692944049835, 0.19843068718910217, -0.21348430216312408, 0.26949542760849, -0.14201605319976807, 0.13971826434135437, -0.18563725054264069, 0.10062509775161743, -0.1918431967496872, 0.14163166284561157, 0.005322381854057312, 0.1427297592163086, -0.18397289514541626, -0.04657593369483948, -0.17260727286338806, 0.06706687808036804, 0.12318477034568787, 0.20614182949066162, 0.2197321653366089, 0.11589562892913818, -0.17832253873348236, 0.17164835333824158, 0.10458368062973022, 0.10461592674255371]
[-0.2683761417865753, 0.17473110556602478, 0.16810110211372375, 0.009729716926813126, -0.20688959956169128, 0.13032954931259155, 0.2151276171207428, 0.10869935154914856, 0.11581635475158691, -0.22690874338150024, -0.2568284869194031, 0.0732201337814331, 0.009618226438760757, -0.007819472812116146, -0.1271074116230011, -0.09413577616214752, 0.20712974667549133, 0.13568896055221558, 0.08082112669944763, -0.19093462824821472, 0.022562097758054733, -0.08153913915157318, -0.11075446009635925, -0.11903251707553864, -0.017188064754009247, -0.19149695336818695, 0.19572857022285461, -0.0005345299723558128, -0.13498444855213165, -0.07728856801986694, -0.03915906324982643, -0.04623383283615112, 0.07537445425987244, -0.18604189157485962, -0.0726119875907898, -0.21465452015399933, 0.09209176898002625, 0.22919493913650513]
[0.18937253952026367, -0.19272997975349426, 0.09140029549598694, 0.08574500679969788, -0.20845511555671692, 0.26711946725845337, 0.1621943712234497, 0.054532431066036224, -0.023068604990839958, 0.02204623632133007, 0.1380007565021515, 0.15254154801368713, 0.08770707249641418, -0.16715216636657715, -0.17899465560913086, 0.18651443719863892, -0.15549707412719727, 0.18175387382507324, 0.074759840965271, 0.0205097496509552, 0.05999821424484253, 0.04988482594490051, -0.017011702060699463, -0.18924307823181152, 0.02951338328421116, 0.09307745099067688, -0.23785218596458435, 0.2659342288970947, -0.04469408094882965, -0.10239081084728241, -0.14419379830360413, 0.05776442959904671, -0.12564246356487274, 0.06978166103363037, -0.05327613651752472, 0.12231200933456421, 0.1810915470123291, 0.25713688135147095]
[-0.2626136243343353, -0.006993282586336136, 0.015833038836717606, -0.02081524021923542, 0.16080307960510254, -0.06087366119027138, 0.12589573860168457, -0.013398267328739166, -0.056563302874565125, -0.07248499989509583, 0.059479355812072754, -0.0880814790725708, -0.04972994327545166, -0.06865634024143219, 0.24152672290802002, 0.1812644898891449, -0.19592337310314178, -0.18670609593391418, -0.027085760608315468, 0.08798441290855408, 0.10544365644454956, 0.21501627564430237, 0.2694319486618042, 0.16579759120941162, 0.09572985768318176, 0.029762255027890205, -0.23155078291893005, -0.11347299814224243, -0.0075882901437580585, 0.008346945978701115, -0.1418275535106659, -0.17548194527626038, -0.18166303634643555, -0.23630322515964508, 0.16188329458236694, 0.06797143816947937, 0.17319205403327942, 0.05879983305931091]
[0.20390838384628296, -0.13820569217205048, -0.0849628895521164, -0.09420605003833771, 0.13514265418052673, 0.085781991481781, -0.03363719582557678, 0.19920864701271057, -0.10312256217002869, 0.235448956489563, 0.12005576491355896, -0.0594613216817379, 0.24344569444656372, -0.07400718331336975, -0.1067916601896286, -0.0917801707983017, -0.06519228219985962, 0.07717105746269226, 0.031175706535577774, -0.21451540291309357, 0.20933586359024048, -0.04406173527240753, -0.04927188158035278, -0.027688343077898026, 0.10604193806648254, -0.06269274652004242, 0.034561336040496826, 0.24641740322113037, -0.27068138122558594, -0.05636882781982422, 0.2502284646034241, 0.06776145100593567, -0.25140535831451416, 0.23337411880493164, 0.14700084924697876, -0.23943030834197998, -0.15222209692001343, -0.05770108103752136]
[-0.14412236213684082, 0.1705092191696167, -0.1048516035079956, 0.19680994749069214, -0.22186684608459473, -0.19103363156318665, -0.022267773747444153, -0.015702012926340103, 0.06724700331687927, 0.05861899256706238, 0.0328601598739624, -0.06784483790397644, 0.1667638123035431, -0.21326187252998352, -0.2034652680158615, -0.22613337635993958, -0.1097428947687149, -0.0325591117143631, 0.03945297747850418, -0.24968664348125458, 0.10949891805648804, 0.015712350606918335, 0.2647428512573242, -0.20463502407073975, -0.14575360715389252, 0.13767120242118835, 0.03437575697898865, 0.10350963473320007, 0.06605753302574158, 0.14463454484939575, -0.0028558785561472178, -0.0820927768945694, -0.05602388083934784, 0.03733265399932861, 0.03637000918388367, -0.13578006625175476, 0.03901645541191101, 0.19408473372459412]
[-0.03581060469150543, -0.11463230848312378, 0.0727856457233429, -0.02199297398328781, 0.0716751217842102, -0.19073793292045593, -0.1890421211719513, -0.08713299036026001, 0.22544613480567932, -0.06373143196105957, -0.06100653111934662, -0.07139518857002258, 0.09142410755157471, -0.08303354680538177, -0.012956022284924984, 0.22266316413879395, 0.19172483682632446, 0.18506887555122375, 0.15135595202445984, 0.2588045597076416, 0.14905881881713867, 0.14686167240142822, -0.07751937210559845, 0.06551244854927063, -0.12795083224773407, -0.1972489356994629, -0.22281299531459808, 0.005139596294611692, -0.10233889520168304, -0.09138499200344086, 0.005375842563807964, -0.008077637292444706, 0.06178593635559082, 0.24108058214187622, -0.19774092733860016, 0.26008284091949463, 0.1637127697467804, -0.1582987904548645]
[0.07199028134346008, 0.12079614400863647, 0.1707431972026825, -0.08790576457977295, 0.10842752456665039, -0.0021640032064169645, -0.19900718331336975, 0.09685322642326355, -0.17887714505195618, 0.182545006275177, 0.05877947807312012, -0.23995856940746307, -0.18297386169433594, 0.08906993269920349, 0.15234583616256714, 0.2683519721031189, 0.14357423782348633, 0.07965508103370667, -0.1457718461751938, 0.005123252514749765, -0.10908296704292297, -0.1755809634923935, -0.09876744449138641, -0.1906977742910385, -0.003278401680290699, -0.0544920414686203, -0.162541002035141, -0.191515251994133, -0.08802035450935364, -0.07223725318908691, -0.15375590324401855, 0.2697671055793762, 0.21742814779281616, -0.1622740477323532, 0.02495228499174118, 0.22448661923408508, -0.07835982739925385, 0.13053026795387268]
[-0.05388025939464569, -0.22684839367866516, 0.11297404766082764, 0.2638603448867798, -0.032339464873075485, -0.1644592583179474, 0.22961431741714478, -0.10087725520133972, -0.025287119671702385, -0.12773163616657257, 0.2194632887840271, -0.17387691140174866, -0.046908482909202576, 0.15091082453727722, -0.16554206609725952, 0.04280143976211548, -0.17903995513916016, -0.2250855416059494, 0.1532324254512787, -0.21181555092334747, -0.09063214063644409, -0.11899702250957489, -0.23732328414916992, -0.25577041506767273, 0.2542319893836975, -0.1619873046875, 0.26553380489349365, 0.1339811384677887, -0.1576850712299347, 0.2719995975494385, 0.12803390622138977, 0.11532798409461975, -0.020365241914987564, -0.1973678171634674, 0.0028498799074441195, -0.06035304069519043, 0.049912720918655396, 0.24703937768936157]
[-0.07923835515975952, -0.16520917415618896, 0.2416764497756958, 0.19623756408691406, -0.022958312183618546, 0.09105223417282104, -0.17656773328781128, 0.12627053260803223, -0.16401198506355286, 0.1302800476551056, -0.0899580717086792, -0.22585701942443848, -0.018007228150963783, -0.11303868889808655, -0.010412491858005524, 0.11217859387397766, 0.26282769441604614, -0.006276109721511602, 0.23284518718719482, 0.00302122556604445, -0.2556353807449341, 0.22204333543777466, 0.16180741786956787, -0.11466391384601593, 0.03670781850814819, 0.008915642276406288, 0.16122004389762878, 0.03459671139717102, -0.19968079030513763, 0.23537445068359375, 0.18945851922035217, 0.018581174314022064, 0.10111930966377258, 0.029647141695022583, 0.2674097418785095, 0.1972215473651886, -0.1374092996120453, -0.268454909324646]
[-0.2258775234222412, -0.2440064251422882, -0.06105169653892517, 0.06390273571014404, -0.2417268604040146, -0.1619442105293274, 0.25545746088027954, -0.1639575958251953, -0.06495563685894012, -0.2319665402173996, -0.2263520509004593, -0.2244023233652115, -0.06581690907478333, 0.05249401926994324, -0.008260448463261127, -0.08309109508991241, -0.06845960021018982, -0.14735662937164307, 0.10618337988853455, -0.02397504448890686, -0.1337815374135971, -0.26424652338027954, 0.16198647022247314, 0.15573275089263916, 0.24849480390548706, -0.09602977335453033, -0.2320941686630249, -0.23670384287834167, -0.1432163119316101, 0.008994085714221, 0.2613181471824646, 0.22536274790763855, 0.2678643465042114, 0.12904655933380127, -0.19914856553077698, -0.12544487416744232, 0.08679193258285522, -0.2509321868419647]
[0.2446238398551941, -0.05145527794957161, 0.04472076892852783, -0.24660134315490723, -0.008823185227811337, 0.08248847723007202, -0.05884220823645592, -0.14666946232318878, -0.09798073768615723, 0.07727175951004028, -0.11674445867538452, -0.10929535329341888, 0.048721373081207275, 0.03182750940322876, -0.20852163434028625, 0.07854288816452026, -0.20584514737129211, 0.17458438873291016, -0.22751480340957642, -0.07139882445335388, 0.23460757732391357, 0.0721409022808075, -0.18365266919136047, -0.22494174540042877, -0.1334177702665329, 0.09792375564575195, 0.1746821105480194, 0.18750092387199402, 0.22685661911964417, -0.17521077394485474, 0.06384661793708801, -0.19425448775291443, -0.06158975511789322, -0.09215937554836273, 0.20816656947135925, -0.0006200210191309452, -0.06603066623210907, 0.2165699303150177]
