[-4.525138308508758e-08, -1.07418500761014e-08, 3.386862346133057e-08, 5.652343659789949e-08, 3.1135968470152875e-08, 4.8343702374609165e-09, -3.800108672180613e-08, -2.091251083413681e-08, 4.7970509342576406e-08, 4.00374489117894e-08, 2.6146913967295404e-08, 2.9057094508289083e-08, 1.6713311623561822e-08, -1.5860825541835766e-08, -5.85405857123078e-09, -4.3489528422924195e-08, 2.7118177925444797e-08, -5.40522293590584e-08, 7.138585278454457e-10, -6.917136197159834e-09, 4.9678551050647e-08, 8.92695872778404e-09, 3.748298027517194e-08, -2.222158634879179e-08, -3.24496447490219e-08, -6.506903815761689e-08, 1.657643688979249e-09, -1.9662488526250854e-08, 1.3616904936952778e-08, 2.5277815396407277e-08, 6.623243109515897e-08, 3.516553093163566e-08, 4.829880495549332e-09, -5.048018181241787e-08, -3.143305704611521e-08, -2.3694546769092995e-08, -7.845082805602033e-09, 2.310814828376806e-08, 2.1254151771898933e-09, 2.8124377493554675e-08, 2.5508935408424804e-08, 2.4369850137873073e-08, -1.5820674548194802e-08]
[0.06903544068336487, 0.03824445605278015, 0.23377370834350586, 0.20644310116767883, 0.07212668657302856, 0.019016176462173462, -0.175391286611557, 0.15153798460960388, 0.17350348830223083, -0.1683865189552307, -0.05534610152244568, -0.137642502784729, -0.24778145551681519, 0.07735446095466614, -0.0840730220079422, 0.05083325505256653, -0.08579416573047638, 0.047682106494903564, -0.19399157166481018, 0.22081619501113892, 0.1403358280658722, -0.11114682257175446, 0.14142629504203796, -0.06495939195156097, -0.20946314930915833, -0.16999158263206482, 0.21520832180976868, -0.04549454152584076, -0.23104451596736908, -0.03968632221221924, -0.18571797013282776, -0.1397724151611328, 0.1125655472278595, 0.04635205864906311, 0.0012643933296203613, -0.02358822524547577, -0.07462447881698608, -0.14097508788108826, -0.11223605275154114, -0.23427198827266693, 0.05649667978286743, -0.06705281138420105, 0.2315877377986908]
[0.24804428219795227, -0.16516529023647308, 0.1881312131881714, -0.18613597750663757, -0.1852651834487915, 0.14220789074897766, 0.10314875841140747, -0.004513353109359741, -0.07312195003032684, 0.13995295763015747, -0.052745088934898376, 0.14233461022377014, -0.09726352989673615, 0.07565182447433472, 0.03296852111816406, 0.07621198892593384, 0.06347405910491943, -0.13358616828918457, -0.18599970638751984, 0.07604178786277771, 0.04860806465148926, -0.13213397562503815, -0.11113721132278442, 0.006099790334701538, -0.2537778615951538, 0.074118971824646, -0.062046587467193604, -0.10835768282413483, 0.017666250467300415, 0.10398024320602417, -0.02862425148487091, 0.12886640429496765, 0.048926353454589844, -0.026940271258354187, 0.01892310380935669, -0.1602730005979538, -0.11435934901237488, -0.10580375790596008, 0.11087512969970703, 0.17810577154159546, 0.2094687819480896, 0.21203863620758057, -0.11996951699256897]
[-0.15500034391880035, 0.0608178973197937, -0.031519487500190735, -0.14668896794319153, -0.19618846476078033, -0.2466578185558319, -0.12614063918590546, -0.2301955223083496, 0.0038929283618927, 0.03994724154472351, -0.11801083385944366, -0.07392822206020355, -0.19185419380664825, 0.16588622331619263, -0.14947521686553955, -0.03371870517730713, -0.013286322355270386, -0.07133504748344421, 0.14434215426445007, 0.015318721532821655, 0.1956963837146759, 0.19327792525291443, 0.1278790533542633, -0.12073035538196564, -0.1676606833934784, -0.020217925310134888, 0.11421412229537964, 0.141056090593338, 0.017886459827423096, 0.2335054576396942, -0.08996197581291199, 0.23048245906829834, -0.043353304266929626, 0.06579327583312988, 0.0016914010047912598, 0.04774579405784607, 0.14595511555671692, -0.1120166927576065, 0.00040987133979797363, 0.19604289531707764, 0.13571909070014954, -0.222782164812088, 0.038869708776474]
[0.13470003008842468, -0.12639720737934113, 0.1410333216190338, -0.03940783441066742, 0.16282686591148376, -0.19237267971038818, -0.11811135709285736, 0.14373427629470825, -0.18082836270332336, 0.16081321239471436, -0.0404912531375885, 0.20670238137245178, -0.003886312246322632, -0.15647876262664795, 0.19730910658836365, 0.12756860256195068, 0.22999367117881775, -0.08765415847301483, 0.04657593369483948, 0.21399939060211182, -0.02204136550426483, -0.1690671145915985, 0.15635931491851807, 0.1786266565322876, 0.05695784091949463, 0.023384541273117065, -0.11543865501880646, -0.02893158793449402, -0.24019767343997955, 0.0062721967697143555, 0.2259868085384369, 0.0855390727519989, -0.254565566778183, -0.2256489396095276, -0.22491711378097534, 0.035229116678237915, -0.03526298701763153, 0.23968324065208435, -0.13516879081726074, -0.1729796826839447, -0.11103196442127228, -0.24449901282787323, 0.19713640213012695]
[-0.09395048022270203, -0.22053612768650055, 0.04401862621307373, -0.03621715307235718, -0.09965687990188599, -0.06571747362613678, -0.15635710954666138, -0.22125259041786194, 0.23083212971687317, -0.026389658451080322, 0.16049480438232422, 0.04413697123527527, -0.14528971910476685, 0.054333269596099854, 0.24427780508995056, 0.031119704246520996, -0.07813490927219391, -0.05199417471885681, -0.240147665143013, 0.00321921706199646, -0.11796969175338745, -0.2183946967124939, 0.13261118531227112, 0.08359649777412415, -0.21941983699798584, 0.12951907515525818, -0.09048493206501007, 0.176702618598938, 0.048188090324401855, -0.2553252577781677, -0.2150406837463379, 0.03852921724319458, -0.09557312726974487, -0.05645650625228882, 0.054165154695510864, -0.04005812108516693, -0.043719515204429626, 0.22416353225708008, 0.054702311754226685, 0.23583531379699707, -0.1215633749961853, 0.0924774706363678, 0.12794026732444763]
[0.009592052549123764, -0.09488506615161896, -0.05966843664646149, 0.004015583544969559, -0.1425236612558365, -0.028704389929771423, 0.16119858622550964, 0.056597381830215454, 0.1769637167453766, 0.24277836084365845, -0.03905974328517914, -0.15445837378501892, -0.005915164947509766, 0.20022213459014893, 0.16144028306007385, -0.013705863617360592, 0.034432411193847656, -0.04929135739803314, -0.1903700977563858, -0.1506982147693634, 0.25495579838752747, -0.03795422613620758, 0.08114662766456604, -0.19144310057163239, -0.2272292673587799, -0.009378630667924881, -0.02458256483078003, -0.2467000037431717, 0.028448373079299927, -0.2552426755428314, 0.037969887256622314, -0.22776898741722107, -0.08734402060508728, 0.12436297535896301, 0.02940678596496582, -0.19058609008789062, -0.09660211205482483, 0.12243920564651489, 0.04433941841125488, -0.07115934789180756, -0.11473634839057922, -0.1652279794216156, 0.16103053092956543]
[0.22820115089416504, -0.07772129774093628, 0.18885213136672974, 0.17962631583213806, 0.1973663568496704, 0.16113266348838806, -0.21557427942752838, -0.18305587768554688, 0.17486485838890076, -0.11928115785121918, 0.03586795926094055, 0.16685742139816284, -0.02022857964038849, -0.025598078966140747, -0.08492821455001831, 0.19203051924705505, -0.2204163819551468, -0.2059502750635147, -0.05240611732006073, -0.11881759762763977, 0.04656067490577698, 0.0290982723236084, 0.041698157787323, 0.19425934553146362, 0.20876812934875488, 0.1188691258430481, 0.13513916730880737, 0.19778570532798767, -0.11522181332111359, 0.15171825885772705, -0.20497877895832062, 0.07799214124679565, -0.14370062947273254, 0.06525814533233643, 0.19769656658172607, 0.2514406740665436, -0.12093770503997803, 0.1971779763698578, -0.045300230383872986, -0.2508716583251953, -0.0928526222705841, -0.09324479103088379, -0.15489265322685242]
[-0.0597156286239624, 0.20132440328598022, -0.04041258990764618, -0.25020143389701843, 0.18287256360054016, -0.2248631715774536, 0.23403996229171753, 0.16200858354568481, 0.02181875705718994, 0.045358806848526, 0.04333248734474182, 0.22393634915351868, -0.12478657066822052, -0.16040340065956116, -0.19084234535694122, 0.04134520888328552, -0.05028483271598816, 0.20680448412895203, 0.24535652995109558, -0.008157849311828613, 0.09446510672569275, -0.02313677966594696, -0.06326426565647125, 0.05080857872962952, -0.071060910820961, 0.09078508615493774, 0.21197140216827393, -0.1234997808933258, -0.23640158772468567, 0.1879269778728485, 0.2186395227909088, -0.11353141069412231, 0.0897878110408783, -0.11607755720615387, 0.11293566226959229, 0.11100545525550842, -0.03909127414226532, -0.027133792638778687, 0.21667185425758362, 0.1477450132369995, -0.24091094732284546, -0.1987501084804535, -0.047763049602508545]
[0.06620517373085022, 0.056575775146484375, 0.0940394401550293, 0.0914197564125061, -0.1894560158252716, -0.035767555236816406, 0.11997237801551819, -0.047626227140426636, -0.177409827709198, -0.07641167938709259, -0.058321282267570496, 0.25187525153160095, 0.11630254983901978, 0.015004605054855347, 0.11913123726844788, 0.25072184205055237, 0.030468344688415527, 0.00310824834741652, 0.09284374117851257, 0.10618185997009277, 0.12209239602088928, -0.14532093703746796, 0.2319803237915039, 0.24806740880012512, -0.05053970217704773, 0.0542721152305603, 0.07670950889587402, 0.07665660977363586, -0.12616579234600067, -0.16240665316581726, -0.22922836244106293, 0.10998594760894775, -0.24831841886043549, -0.0140799880027771, -0.07500337064266205, 0.142379492521286, 0.10526368021965027, -0.026255890727043152, 0.17058071494102478, -0.16026833653450012, -0.042395010590553284, 0.21501761674880981, 0.004710465669631958]
[0.1844145953655243, 0.07927891612052917, 0.227809339761734, -0.014029482379555702, 0.19851115345954895, 0.18179374933242798, -0.09400172531604767, -0.131729856133461, 0.0848090648651123, 0.12407639622688293, 0.14682388305664062, 0.2244555652141571, 0.1591571867465973, 0.17312881350517273, -0.027572736144065857, 0.25504711270332336, -0.11255426704883575, 0.004142314661294222, 0.11588659882545471, -0.18183079361915588, 0.04288393259048462, 0.12943294644355774, 0.01407158374786377, 0.24976739287376404, -0.22442030906677246, -0.09504956007003784, -0.05284653604030609, -0.21258465945720673, -0.0035901949740946293, 0.013868778012692928, -0.17375320196151733, -0.16332219541072845, -0.019311368465423584, -0.08801083266735077, -0.11938932538032532, 0.06868475675582886, 0.23767155408859253, 0.07003235816955566, -0.036380499601364136, -0.12988223135471344, -0.14401786029338837, 0.057510167360305786, -0.1509692370891571]
[-0.0830259770154953, 0.21582743525505066, -0.2063414752483368, -0.07354938983917236, 0.0772656500339508, 0.11714041233062744, 0.17323049902915955, 0.02455514669418335, -0.20228226482868195, 0.07766833901405334, 0.05710378289222717, -0.20379869639873505, 0.019538432359695435, -0.13759830594062805, -0.24046869575977325, -0.13600707054138184, 0.04721096158027649, -0.0031865122728049755, -0.25600889325141907, -0.1505950689315796, -0.053494855761528015, 0.10676589608192444, -0.10171963274478912, -0.2073558270931244, 0.06720659136772156, -0.16599273681640625, -0.18806344270706177, -0.017540886998176575, 0.23896530270576477, 0.06583219766616821, -0.060708314180374146, 0.1908281445503235, -0.15968596935272217, -0.061467453837394714, 0.1103411614894867, 0.08370256423950195, -0.16937094926834106, -0.16673944890499115, -0.1164732277393341, 0.2397666871547699, -0.1415216028690338, 0.050877392292022705, 0.04964190721511841]
[0.09188351035118103, -0.15375304222106934, -0.24749745428562164, -0.07563607394695282, 0.08336672186851501, -0.15434613823890686, 0.22336328029632568, -0.1919756531715393, -0.06706482172012329, -0.25404343008995056, -0.051371678709983826, -0.05478335916996002, 0.00896000862121582, -0.20041315257549286, -0.16590991616249084, -0.09880255162715912, 0.06083405017852783, 0.11508989334106445, 0.2537411153316498, 0.116607666015625, -0.07968799769878387, -0.07747715711593628, -0.0006093403790146112, 0.08262094855308533, 0.13787949085235596, 0.13134834170341492, -0.1568215787410736, 0.0853973925113678, 0.12793946266174316, 0.1445663869380951, 0.21743342280387878, 0.1850278377532959, 0.03450667858123779, -0.02510838210582733, 0.011676609516143799, 0.12671971321105957, 0.13572686910629272, -0.10914014279842377, -0.07884107530117035, 0.02097100019454956, -0.051020026206970215, -0.041852548718452454, -0.23209106922149658]
[0.017321467399597168, -0.24575255811214447, 0.16678181290626526, 0.1079150140285492, -0.14543193578720093, -0.055711522698402405, 0.19147923588752747, -0.08367638289928436, -0.11211483180522919, 0.010689795017242432, 0.0017418809002265334, -0.24721914529800415, 0.11799418926239014, -0.15850232541561127, -0.048932477831840515, -0.09276078641414642, -0.041334375739097595, -0.030906185507774353, 0.23364663124084473, 0.0016068473923951387, 0.23878660798072815, 0.2063782811164856, 0.05674239993095398, -0.2427361160516739, -0.18333283066749573, -0.01824742555618286, 0.06471806764602661, 0.18607977032661438, 0.2108166217803955, 0.051950812339782715, -0.12958548963069916, -0.2164771556854248, -0.24639739096164703, -0.22052712738513947, -0.014504611492156982, -0.21387340128421783, 0.22158318758010864, 0.19514349102973938, -0.15432263910770416, -0.21545490622520447, 0.14785048365592957, 0.003371849423274398, -0.023358702659606934]
[-0.181721031665802, -0.1776120364665985, -0.23486728966236115, 0.22620776295661926, -0.020936280488967896, -0.10889746248722076, -0.12526573240756989, -0.13305595517158508, 0.018808871507644653, -0.08675409853458405, 0.04570171236991882, -0.1422300487756729, 0.09871095418930054, 0.1939614713191986, 0.23277351260185242, 0.019859105348587036, 0.1904434859752655, -0.013623290695250034, -0.22182689607143402, -0.02186743915081024, 0.23897254467010498, 0.1220681369304657, 0.20512032508850098, -0.21559491753578186, 0.23905017971992493, -0.11430534720420837, -0.24219155311584473, -0.2228601723909378, 0.11531764268875122, 0.010829925537109375, -0.05452188849449158, 0.19559261202812195, -0.2494584023952484, 0.1120348870754242, -0.09404322504997253, 0.010047286748886108, 0.1484108567237854, -0.2204027771949768, 0.08905023336410522, 0.07057774066925049, 0.22618988156318665, -0.035757824778556824, -0.040710240602493286]
[-0.08155222237110138, -0.16559487581253052, -0.05413350462913513, -0.1805444359779358, 0.11431911587715149, 0.23494204878807068, 0.1156560480594635, 0.07739970088005066, 0.08650800585746765, 0.06672799587249756, -0.11665914952754974, -0.2182120829820633, 0.14956697821617126, -0.05012144148349762, -0.07508154213428497, 0.15060284733772278, 0.100627601146698, 0.25397220253944397, 0.22435864806175232, -0.10033556818962097, -0.25368058681488037, 0.04195454716682434, -0.18904326856136322, 0.13047975301742554, 0.0489136278629303, 0.1761985421180725, -0.06170645356178284, 0.1938002109527588, -0.06449069082736969, -0.2419535368680954, 0.18931472301483154, -0.03857193887233734, -0.08784988522529602, 0.12241202592849731, 0.06125849485397339, -0.055117011070251465, -0.24359767138957977, 0.12335547804832458, 0.07995334267616272, -0.010809837840497494, 0.2199886441230774, -0.11365324258804321, 0.05231410264968872]
[-0.2391882836818695, -0.1698540896177292, 0.03926935791969299, -0.09774301946163177, 0.07730457186698914, 0.09476423263549805, -0.24797527492046356, 0.1850014328956604, 0.04712286591529846, -0.04526121914386749, -0.17503339052200317, -0.21843473613262177, -0.14450359344482422, 0.002175664994865656, -0.11099143326282501, 0.1255701184272766, -0.23233051598072052, 0.05750361084938049, 0.14440539479255676, 0.01167866587638855, -0.06304264068603516, 0.20146602392196655, 0.12689536809921265, 0.2192787230014801, -0.13581624627113342, 0.12915629148483276, 0.25258299708366394, 0.17841127514839172, -0.034595370292663574, -0.20561987161636353, 0.08943456411361694, -0.1665007472038269, -0.24928490817546844, 0.10700508952140808, -0.040783822536468506, -0.053687214851379395, -0.018085628747940063, -0.22287437319755554, 0.24068322777748108, 0.012690267525613308, -0.1603705883026123, -0.15730100870132446, -0.09603245556354523]
[-0.033589646220207214, 0.1330324411392212, -0.07417762279510498, -0.11151175200939178, -0.17266961932182312, 0.2259484827518463, 0.10096895694732666, 0.2229636311531067, 0.24722614884376526, 0.13725289702415466, 0.15845555067062378, 0.20926302671432495, 0.015924841165542603, -0.05720841884613037, -0.024127259850502014, 0.2550080716609955, -0.10339248180389404, -0.08905316889286041, 0.09026268124580383, 0.058040082454681396, 0.11130493879318237, -0.0971718281507492, -0.05035959184169769, 0.1264309287071228, 0.10014387965202332, 0.0387304425239563, -0.22149483859539032, -0.007302343379706144, 0.23880106210708618, 0.0591580867767334, 0.10243004560470581, -0.021703556180000305, -0.06208522617816925, 0.10949411988258362, 0.16840794682502747, 0.10413581132888794, 0.026003479957580566, 0.05341404676437378, -0.13362830877304077, 0.16520956158638, -0.15656006336212158, -0.17577579617500305, -0.2058807909488678]
[0.02695167064666748, -0.06916093826293945, -0.07356426119804382, -0.08015596866607666, -0.22630220651626587, -0.14261195063591003, 0.2061101794242859, 0.12303254008293152, -0.11180315911769867, 0.02979186177253723, 0.09224224090576172, -0.201115220785141, 0.15122318267822266, -0.19426529109477997, 0.09789717197418213, 0.0008890115423128009, -0.13517320156097412, -0.14915430545806885, 0.03223973512649536, -0.1528273969888687, -0.008639472536742687, 0.060318946838378906, -0.07192650437355042, -0.0476335734128952, -0.053923219442367554, 0.09113827347755432, -0.22452861070632935, -0.0043412428349256516, -0.21679195761680603, 0.23377403616905212, 0.10834196209907532, 0.19191822409629822, -0.22499051690101624, -0.1719423234462738, 0.096597820520401, 0.1079525351524353, 0.008403152227401733, 0.19170212745666504, -0.00821717083454132, 0.2030545473098755, 0.23956164717674255, 0.060381144285202026, 0.007887423038482666]
[-0.21412882208824158, 0.10061600804328918, 0.22023534774780273, 0.05330213904380798, -0.05471651256084442, 0.03245100378990173, 0.1917206048965454, 0.20158809423446655, 0.05142524838447571, -0.13506090641021729, 0.16955718398094177, 0.24257564544677734, 0.023063868284225464, 0.09813505411148071, -0.1502947211265564, -0.08051827549934387, 0.13806462287902832, -0.01168239675462246, 0.10037970542907715, 0.09994155168533325, -0.0010718419216573238, -0.030295073986053467, 0.1052800714969635, -0.025781497359275818, -0.07642324268817902, -0.0953131765127182, -0.08223892748355865, -0.15160898864269257, -0.09406250715255737, -0.09410756826400757, 0.18255826830863953, -0.006013699807226658, -0.022601783275604248, 0.24017655849456787, 0.06069037318229675, -0.18664582073688507, -0.17225581407546997, 0.06825512647628784, -0.20823165774345398, 0.028597503900527954, 0.22633802890777588, 0.22802004218101501, 0.14488419890403748]
[-0.1972849816083908, -0.05329473316669464, 0.10557982325553894, 0.18945932388305664, -0.24781641364097595, 0.05215439200401306, 0.22497037053108215, -0.17565053701400757, -0.026769042015075684, -0.10192607343196869, 0.16718971729278564, -0.23087401688098907, -0.22923319041728973, -0.030042186379432678, 0.06940588355064392, -0.22616735100746155, -0.23593276739120483, 0.18533357977867126, -0.051253706216812134, 0.20250150561332703, -0.06829461455345154, 0.18999996781349182, 0.025611966848373413, 0.21208927035331726, -0.08412407338619232, 0.10746526718139648, 0.12517181038856506, 0.24509242177009583, -0.09091554582118988, 0.19682884216308594, -0.22937700152397156, -0.18740618228912354, 0.015822261571884155, 0.07320815324783325, 0.04921814799308777, 0.20806384086608887, -0.04172392189502716, 0.15419065952301025, -0.17775824666023254, -0.055992528796195984, -0.0758066326379776, -0.18141841888427734, -0.2507237493991852]
[0.21182698011398315, 0.011985331773757935, -0.06866590678691864, 0.13345754146575928, -0.07118768990039825, 0.11801749467849731, -0.1986551582813263, -0.01923099160194397, -0.1947336345911026, -0.2103015035390854, -0.19960033893585205, 0.05897259712219238, 0.14249855279922485, -0.14557842910289764, -0.22797805070877075, 0.11756923794746399, -0.13481798768043518, 0.23396718502044678, 0.2007262408733368, -0.032263800501823425, -0.2372148483991623, 0.20988595485687256, 0.029370278120040894, 0.22981631755828857, -0.1394995003938675, 0.2007095217704773, -0.007721215486526489, 0.09856507182121277, 0.07470497488975525, -0.01771107316017151, -0.10353243350982666, 0.25532713532447815, 0.03482040762901306, 0.03892314434051514, 0.18479248881340027, -0.03445585072040558, 0.005455284845083952, -0.19513338804244995, -0.16075798869132996, 0.24072417616844177, -0.050991252064704895, -0.11592848598957062, -0.1582810878753662]
[-0.2398754209280014, -0.015980198979377747, -0.02949260175228119, 0.22840186953544617, 0.0027404972352087498, -0.21526280045509338, 0.08988001942634583, 0.22000956535339355, 0.0806024968624115, 0.0875115692615509, -0.16507059335708618, 0.22205868363380432, 0.11929821968078613, -0.15237069129943848, 0.01241639256477356, -0.16390281915664673, -0.021316036581993103, -0.03617417812347412, -0.16803088784217834, -0.1365719437599182, 0.0800190269947052, 0.2460775077342987, -0.11168959736824036, -0.2023114711046219, 0.044581204652786255, -0.07820622622966766, -0.11869564652442932, 0.026670843362808228, -0.08710972964763641, -0.11251808702945709, -0.016733884811401367, -0.1781083643436432, -0.2509290277957916, 0.2458711564540863, -0.12109437584877014, -0.08357304334640503, -0.02613234519958496, 0.2363121509552002, 0.21588736772537231, 0.16437861323356628, -0.1914186179637909, -0.0227176696062088, -0.17505915462970734]
[0.2240663766860962, -0.07687701284885406, 0.023544251918792725, 0.08285382390022278, 0.0218924880027771, 0.011400073766708374, 0.0697377622127533, 0.2523445785045624, -0.23918062448501587, 0.05592763423919678, -0.14896127581596375, 0.19719651341438293, 0.05791288614273071, -0.18329602479934692, -0.2505490481853485, -0.2499275952577591, 0.12518683075904846, -0.007686944678425789, -0.19460617005825043, 0.2558539807796478, 0.21081528067588806, 0.13341572880744934, 0.16117703914642334, -0.07692936062812805, 0.1900646686553955, -0.08840478956699371, -0.21068155765533447, -0.08252879977226257, 0.07200896739959717, 0.16498935222625732, -0.12148392200469971, -0.07932013273239136, 0.22244924306869507, 0.08700907230377197, -0.07195496559143066, -0.2547069489955902, 0.01089426875114441, 0.09449189901351929, 0.00191836419980973, 0.19467809796333313, -0.10520906746387482, 0.029367297887802124, -0.07147334516048431]
[0.25290802121162415, -0.09830635786056519, 0.1531279981136322, 0.08553117513656616, 0.1738375723361969, -0.1624900996685028, -0.15662628412246704, 0.16509580612182617, 0.14710655808448792, 0.14151149988174438, -0.19670002162456512, 0.09425315260887146, 0.10692146420478821, -0.132573664188385, 0.144216388463974, -0.18681833148002625, 0.04657641053199768, 0.20410877466201782, -0.22192466259002686, 0.16357606649398804, -0.13924819231033325, -0.12766753137111664, -0.13065728545188904, 0.05098170042037964, 0.17114168405532837, 0.04351198673248291, -0.14259466528892517, -0.094342902302742, 0.04442697763442993, -0.0015746535500511527, 0.04574620723724365, 0.0454028844833374, 0.07534712553024292, -0.25001728534698486, 0.20282143354415894, -0.2007131278514862, 0.09812790155410767, 0.2036503553390503, 0.02641388773918152, -0.22265207767486572, 0.07979139685630798, 0.15652969479560852, -0.14570963382720947]
[0.09144878387451172, -0.21702183783054352, -0.22721904516220093, -0.08536121249198914, 0.14965441823005676, 0.12328740954399109, -0.16402500867843628, 0.1582285463809967, -0.17663875222206116, -0.01715850830078125, 0.07752430438995361, -0.025949180126190186, 0.1330449879169464, 0.05317339301109314, 0.04610246419906616, -0.1089891642332077, -0.021321967244148254, -0.03623184561729431, -0.05482377111911774, 0.1138811707496643, -0.23965710401535034, -0.19198128581047058, 0.18466785550117493, -0.2102116346359253, -0.15879018604755402, 0.13342681527137756, -0.15925171971321106, -0.1910848319530487, 0.20812475681304932, -0.15700745582580566, -0.24410095810890198, -0.14639712870121002, -0.19343209266662598, -0.1104905903339386, 0.011886268854141235, -0.05381070077419281, 0.043720364570617676, 0.08825621008872986, 0.25350669026374817, 0.055790990591049194, -0.05262760818004608, 0.18995881080627441, 0.004074394702911377]
[-0.014116044156253338, -0.03543458878993988, 0.0018744212575256824, 0.1303236186504364, 0.0065153115428984165, -0.11139482259750366, 0.23982185125350952, -0.21599425375461578, 0.20730170607566833, -0.14599379897117615, 0.2481386959552765, 0.004089293070137501, -0.02180628478527069, -0.25666543841362, -0.2085837870836258, -0.03658026456832886, 0.16580119729042053, 0.049972862005233765, -0.09296366572380066, 0.17211532592773438, 0.12478068470954895, 0.06340739130973816, 0.07614836096763611, -0.07241202890872955, -0.046934857964515686, 0.2107250988483429, 0.13235080242156982, -0.18141363561153412, -0.200884610414505, -0.1091609001159668, -0.13425195217132568, 0.08951592445373535, -0.03624708950519562, 0.1961059272289276, -0.028060361742973328, 0.0004338399739935994, 0.19291335344314575, -0.1457682102918625, -0.1688968539237976, -0.16415712237358093, 0.027736634016036987, -0.20143987238407135, 0.24650278687477112]
[-0.08003781735897064, -0.041493117809295654, 0.24642202258110046, 0.12603342533111572, 0.0020649770740419626, -0.24766875803470612, -0.04789847135543823, 0.07640156149864197, 0.22576844692230225, 0.13833528757095337, 0.24399074912071228, -0.11932797729969025, -0.17664942145347595, -0.020699232816696167, -0.008198127150535583, -0.024556905031204224, 0.12846094369888306, 0.10776323080062866, -0.16698825359344482, 0.05293866991996765, -0.01614205539226532, 0.047298282384872437, 0.22641190886497498, 0.18631815910339355, 0.23442289233207703, 0.16262611746788025, 0.04473474621772766, 0.228343665599823, -0.07158194482326508, 0.15710404515266418, 0.12919577956199646, 0.138323575258255, 0.16994011402130127, -0.06261447072029114, 0.10501506924629211, -0.03417038917541504, -0.2465331107378006, -0.05528843402862549, 0.23931336402893066, -0.05544368922710419, 0.25611284375190735, -0.016642972826957703, 0.008845895528793335]
[-0.17599870264530182, 0.19515568017959595, -0.087562695145607, 0.1594226360321045, -0.05012010037899017, -0.10652254521846771, 0.11934769153594971, 0.11302700638771057, 0.009879845194518566, -0.1403619647026062, -0.15144987404346466, 0.017779141664505005, -0.00034102273639291525, -0.18655472993850708, 0.18552365899085999, -0.05414244532585144, 0.0767415463924408, 0.24501249194145203, 0.14566248655319214, 0.05181288719177246, -0.16141781210899353, 0.16055706143379211, 0.0011932962806895375, 0.003007108112797141, -0.1848977506160736, 0.2043367624282837, -0.2337823510169983, -0.15662440657615662, -0.19402658939361572, 0.24072128534317017, -0.16635896265506744, -0.2313135266304016, -0.04177944362163544, -0.02379244565963745, 0.2105439305305481, -0.0934624969959259, 0.006999665405601263, 0.16851451992988586, 0.1545499563217163, -0.24017740786075592, -0.12064629793167114, -0.17101752758026123, 0.013219833374023438]
[0.08027675747871399, -0.09858454763889313, -0.07374051213264465, -0.049694791436195374, -0.23766720294952393, -0.07519516348838806, 0.0745995044708252, -0.008463755249977112, -0.1566394567489624, 0.25193509459495544, -0.15287728607654572, -0.2423119843006134, 0.05717957019805908, 0.079596608877182, -0.19042201340198517, 0.10442844033241272, 0.04965701699256897, 0.11978873610496521, 0.1587420105934143, -0.06572942435741425, 0.14449703693389893, -0.2022322565317154, -0.07547825574874878, -0.1899065375328064, -0.11475159227848053, 0.01442297175526619, 0.19255560636520386, 0.08747497200965881, 0.0046125054359436035, -0.09211423993110657, 0.2037687599658966, -0.00994400680065155, -0.23719102144241333, 0.033621370792388916, 0.23669031262397766, 0.17350196838378906, -0.04031309485435486, 0.16205531358718872, -0.10124897956848145, -0.03214766085147858, 0.04733523726463318, -0.14710868895053864, -0.0036498489789664745]
[-0.0480378121137619, 0.06857320666313171, 0.1479358971118927, 0.167763352394104, 0.14718931913375854, -0.05849123001098633, -0.02160070836544037, 0.1479237675666809, 0.09994658827781677, 0.09363648295402527, 0.1102634072303772, 0.2214098572731018, 0.1336374282836914, 0.05028080940246582, 0.10356292128562927, 0.14391562342643738, 0.006164480000734329, -0.015556130558252335, -0.16608744859695435, 0.11824756860733032, 0.23137301206588745, 0.046976685523986816, -0.12114310264587402, -0.16262343525886536, 0.14060521125793457, 0.036657631397247314, 0.07631751894950867, -0.06447280943393707, -0.1508687138557434, 0.20684409141540527, -0.16077390313148499, -0.0401817262172699, 0.1407630741596222, -0.04558299481868744, 0.08119231462478638, 0.07542639970779419, -0.20987248420715332, -0.12140016257762909, 0.06858515739440918, -0.21859820187091827, -0.18456390500068665, -0.04393170773983002, 0.23334571719169617]
[-0.0812089592218399, -0.1914377212524414, -0.21140824258327484, -0.17679132521152496, -0.2277514785528183, 0.00988057255744934, -0.11718668043613434, 0.1020725667476654, 0.193571537733078, 0.12372714281082153, 0.11667177081108093, -0.023695290088653564, -0.16988065838813782, -0.2502121329307556, -0.22274917364120483, -0.03617730736732483, 0.09547567367553711, 0.05636468529701233, 0.10566705465316772, 0.24601110816001892, 0.07288411259651184, 0.09466013312339783, -0.16408860683441162, 0.02113664150238037, 0.13809755444526672, -0.058593153953552246, -0.2193593531847, 0.005221865605562925, -0.009412482380867004, 0.0926608145236969, -0.038968026638031006, 0.08220073580741882, 0.16868624091148376, 0.13022330403327942, 0.21318656206130981, 0.11478206515312195, 0.22560563683509827, 0.060111552476882935, -0.052630484104156494, -0.21502330899238586, -0.060372039675712585, 0.2313874065876007, -0.004326032008975744]
[-0.17016369104385376, -0.1057986170053482, 0.012167632579803467, -0.14407363533973694, -0.25402316451072693, 0.1449739933013916, -0.2404746413230896, -0.1944597363471985, 0.20033681392669678, 0.25620612502098083, 0.030680537223815918, 0.037340134382247925, 0.19104436039924622, -0.17970332503318787, 0.1813666820526123, -0.21691757440567017, -0.12415599822998047, -0.1393793225288391, -0.2298431396484375, -0.02352699637413025, -0.0858021229505539, -0.19236618280410767, 0.06367555260658264, 0.20577329397201538, 0.12315413355827332, 0.10711780190467834, -0.22213059663772583, 0.10708245635032654, -0.04988813400268555, -0.13709048926830292, -0.062018558382987976, 0.020292192697525024, -0.14972132444381714, -0.18682654201984406, 0.07889899611473083, -0.205694317817688, -0.08011782169342041, -0.1800079047679901, 0.15630269050598145, -0.13829101622104645, -0.11158950626850128, 0.053809911012649536, -0.055621594190597534]
[-0.24613885581493378, -0.16636961698532104, 0.0819738507270813, 0.09068620204925537, -0.13072431087493896, -0.23980048298835754, 0.05788624286651611, -0.0002724425576161593, -0.041073575615882874, -0.1095426082611084, -0.13675713539123535, -0.25542712211608887, 0.21898064017295837, 0.06371626257896423, 0.2348431646823883, 0.03774920105934143, 0.13371816277503967, -0.1671612560749054, 0.060119688510894775, 0.22456467151641846, 0.1516260802745819, -0.220075324177742, 0.05582118034362793, 0.20462852716445923, -0.07017430663108826, 0.010725871659815311, 0.24517902731895447, 0.22487077116966248, 0.027825891971588135, -0.11092984676361084, 0.07010763883590698, -0.034392863512039185, -0.2276519387960434, -0.1480219066143036, -0.2245691865682602, 0.24985411763191223, -0.09725576639175415, -0.256020724773407, -0.09140151739120483, -0.03505942225456238, 0.08862891793251038, 0.17428216338157654, -0.024411872029304504]
[0.1464899480342865, -0.2375875562429428, 0.22047001123428345, -0.0971936285495758, -0.17423328757286072, -0.20713795721530914, 0.10719451308250427, -0.10114085674285889, 0.0554848313331604, 0.1834867298603058, 0.02335771918296814, 0.19541114568710327, 0.22723373770713806, 0.11078524589538574, -0.23710745573043823, 0.2153947353363037, -0.0328679233789444, 0.1264778971672058, 0.18395721912384033, 0.020034372806549072, 0.23567131161689758, 0.05956435203552246, 0.004581054672598839, -0.23361711204051971, 0.2525133192539215, -0.06928141415119171, -0.10753023624420166, 0.0556340217590332, -0.19327965378761292, 0.08632403612136841, 0.18284869194030762, -0.22006618976593018, 0.11592885851860046, 0.015360536053776741, -0.11631894111633301, -0.03571264445781708, 0.12917882204055786, 0.16240382194519043, -0.09423460066318512, 0.12622910737991333, -0.048788800835609436, -0.053211405873298645, 0.21455246210098267]
[-0.10029773414134979, 0.017357468605041504, -0.14518845081329346, 0.12238496541976929, 0.044733017683029175, -0.10302209854125977, 0.10642263293266296, 0.22268477082252502, -0.12263326346874237, -0.08632102608680725, -0.2402704656124115, 0.1967557966709137, 0.1898743212223053, 0.016224533319473267, -0.06630188226699829, 0.1938890814781189, -0.1462160348892212, 0.10567489266395569, -0.017216414213180542, -0.1881200075149536, 0.12424612045288086, -0.13713982701301575, 0.02791568636894226, -0.0527123361825943, -0.04873265326023102, 0.0951303243637085, 0.19815760850906372, -0.10751885175704956, 0.21390700340270996, -0.12910161912441254, -0.11661231517791748, 0.1071128249168396, 0.21247175335884094, -0.015353805385529995, -0.2191014289855957, -0.11807602643966675, -0.03458932042121887, -0.19014596939086914, 0.21797534823417664, -0.060103639960289, 0.024201959371566772, 0.07071396708488464, -0.06902563571929932]
[-0.24624629318714142, 0.17469310760498047, -0.08173097670078278, -0.07525743544101715, 0.03750014305114746, 0.022939354181289673, -0.021176576614379883, -0.006769082974642515, -0.01178427692502737, 0.23401957750320435, -0.22321438789367676, 0.2092112898826599, 0.008636325597763062, 0.15809351205825806, -0.2505723536014557, 0.25574377179145813, 0.20715099573135376, 0.05480307340621948, 0.242452472448349, -0.06927284598350525, -0.10818779468536377, -0.23104825615882874, 0.23755896091461182, -0.1710306853055954, -0.13780957460403442, -0.13164782524108887, -0.17299193143844604, -0.16462397575378418, -0.25490450859069824, 0.06887435913085938, -0.1446457952260971, -0.09448854625225067, -0.2035709023475647, -0.25568687915802, 0.22700220346450806, -0.19248703122138977, 0.027745455503463745, 0.11979460716247559, -0.016094490885734558, 0.029357731342315674, 0.2540809214115143, 0.10366985201835632, -0.14343155920505524]
[0.11170840263366699, -0.13546600937843323, -0.05560879409313202, -0.22082728147506714, -0.1088215559720993, 0.20744425058364868, -0.02684648334980011, 0.05793386697769165, -0.0974673330783844, -0.10418564081192017, 0.23436105251312256, 0.18846380710601807, -0.22994457185268402, -0.12073604762554169, 0.04280164837837219, -0.15196871757507324, -0.16619563102722168, -0.24912242591381073, -0.0703844279050827, -0.04737289249897003, -0.09793370962142944, 0.023215770721435547, 0.15955224633216858, -0.03476060926914215, 0.04173022508621216, -0.22326838970184326, 0.13661420345306396, 0.025525778532028198, 0.21574446558952332, 0.21955671906471252, 0.12069949507713318, -0.10588058829307556, -0.07972130179405212, -0.026793286204338074, 0.15779143571853638, -0.2365092784166336, 0.09499582648277283, -0.14740824699401855, 0.22303703427314758, -0.1251445859670639, -0.12952066957950592, -0.23628900945186615, 0.19716984033584595]
[-0.08871591091156006, 0.167709618806839, -0.048805639147758484, 0.17686569690704346, 0.03417295217514038, 0.1462765336036682, 0.10931143164634705, -0.13962268829345703, 0.22752270102500916, -0.23832476139068604, -0.04762671887874603, -0.21469253301620483, -0.22380509972572327, -0.11849857866764069, -0.2437855452299118, -0.11394274234771729, -0.10418105125427246, -0.16821154952049255, 0.05297154188156128, -0.16729703545570374, 0.08561092615127563, -0.09526310861110687, 0.08580887317657471, 0.08726057410240173, 0.18529966473579407, -0.12146627902984619, -0.0027299821376800537, 0.21781879663467407, -0.2093639224767685, -0.18003568053245544, -0.06318950653076172, -0.11506141722202301, 0.2501309812068939, -0.15848083794116974, -0.01645900309085846, -0.06891085207462311, -0.14473965764045715, -0.12038782238960266, -0.1517690122127533, 0.0644829273223877, 0.1271093785762787, 0.0716489851474762, 0.11833176016807556]
[-0.2506253123283386, 0.253455251455307, 0.11308878660202026, -0.1338118314743042, -0.1412813812494278, -0.18091383576393127, 0.22548332810401917, -0.005147092510014772, 0.18863904476165771, -0.017826661467552185, 0.18309235572814941, -0.045127272605895996, -0.024745583534240723, -0.18629080057144165, 0.12040174007415771, -0.15662458539009094, -0.24079133570194244, 0.2200884222984314, -0.21700052917003632, 0.06659317016601562, -0.11816252768039703, -0.029448404908180237, -0.01358298771083355, -0.11728371679782867, 0.23721662163734436, -0.023446518927812576, 0.19205665588378906, 0.12667924165725708, -0.12975679337978363, -0.2533782124519348, -0.019578173756599426, -0.03227195143699646, -0.2534249722957611, -0.21210676431655884, -0.19260500371456146, 0.1742410659790039, 0.15801820158958435, 0.02593296766281128, -0.029317706823349, -0.062221989035606384, -0.07303789258003235, -0.14091381430625916, 0.000531958881765604]
[0.20878031849861145, 0.13021478056907654, 0.20147815346717834, 0.07241055369377136, -0.18196921050548553, -0.2369406372308731, 0.23453554511070251, -0.19824999570846558, -0.15787941217422485, -0.11574175953865051, 0.1475353240966797, -0.10824142396450043, 0.14497393369674683, 0.0694727897644043, 0.15934336185455322, 0.15751558542251587, 0.1758286952972412, 0.2494145929813385, -0.05253027379512787, 0.1097249686717987, -0.19354045391082764, 0.059670209884643555, 0.09488305449485779, 0.19168376922607422, -0.2017306685447693, 0.08585399389266968, -0.07929588854312897, -0.1911793053150177, 0.10582634806632996, -0.15639035403728485, -0.22599543631076813, -0.17691786587238312, 0.17486563324928284, -0.018242044374346733, 0.08744367957115173, 0.21667250990867615, -0.02324385941028595, 0.2396588921546936, -0.14182746410369873, 0.09013628959655762, -0.011824946850538254, -0.05515502393245697, 0.19882753491401672]
[-0.09341976046562195, 0.05225452780723572, -0.10263168811798096, 0.20935454964637756, 0.14841127395629883, -0.07811659574508667, -0.23704789578914642, 0.1489626169204712, -0.12044072151184082, 0.12882733345031738, -0.0678543746471405, 0.20804375410079956, -0.13516706228256226, -0.23173484206199646, 0.10206937789916992, -0.0030353041365742683, -0.07517889142036438, 0.24147680401802063, 0.10189202427864075, -0.1046207994222641, -0.04520423710346222, -0.07946313917636871, 0.11667805910110474, -0.2241375893354416, -0.25562548637390137, 0.07669174671173096, -0.12934979796409607, 0.02581608295440674, 0.010771512985229492, 0.06515878438949585, 0.013428665697574615, 0.19823041558265686, -0.2050175964832306, 0.16018801927566528, -0.21367639303207397, -0.03335773944854736, -0.06945228576660156, 0.1538977026939392, -0.03794418275356293, 0.22668349742889404, 0.23254960775375366, -0.02533826231956482, 0.18880560994148254]
[0.0007966766133904457, 0.04909452795982361, 0.012657970190048218, 0.16884401440620422, 0.0852510929107666, -0.13817715644836426, -0.22940105199813843, 0.13895973563194275, -0.23350544273853302, 0.24893078207969666, 0.24432501196861267, -0.13350149989128113, 0.09742686152458191, -0.2141883224248886, 0.17898914217948914, -0.1570132076740265, 0.2514268457889557, -0.13457629084587097, -0.12704908847808838, 0.1588149070739746, 0.19516009092330933, 0.1238504946231842, -0.07841058075428009, 0.10296761989593506, -0.07074770331382751, -0.0011110227787867188, 0.23752382397651672, -0.05974765121936798, -0.1153789758682251, -0.16664333641529083, -0.2565407156944275, -0.027303189039230347, -0.06226520240306854, -0.19746631383895874, 0.24816200137138367, -0.08440838754177094, -0.20264916121959686, 0.006611287593841553, -0.2505289614200592, 0.13434237241744995, 0.015904337167739868, 0.22962132096290588, -0.04248678684234619]
[0.1151563823223114, 0.04366332292556763, -0.1536426544189453, 0.18251249194145203, 0.2542712390422821, -0.22757510840892792, -0.20768550038337708, 0.12922057509422302, 0.02211451530456543, 0.23432928323745728, 0.21016865968704224, 0.03307643532752991, 0.18723371624946594, 0.14024877548217773, -0.029091432690620422, 0.04397889971733093, 0.14836788177490234, -0.23498551547527313, 0.04729139804840088, -0.01271936297416687, -0.08232621848583221, 0.18103015422821045, -0.16272211074829102, 0.06210970878601074, 0.21597087383270264, 0.12022364139556885, -0.20926296710968018, -0.17564484477043152, -0.11144845187664032, -0.016318127512931824, -0.05494822561740875, -0.05979815125465393, -0.08248582482337952, 0.18692058324813843, -0.06991241872310638, 0.08355656266212463, -0.13853693008422852, -0.24719074368476868, -0.10554522275924683, 0.17753446102142334, 0.24606844782829285, 0.04049381613731384, 0.12890595197677612]
[0.0010124295949935913, 0.08552810549736023, 0.17592346668243408, 0.12410372495651245, -0.020825162529945374, 0.13008707761764526, 0.20310017466545105, 0.014523159712553024, 0.17429739236831665, -0.12467759847640991, 0.11719775199890137, 0.1878311038017273, -0.21468162536621094, 0.08804798126220703, -0.097246453166008, 0.22354847192764282, -0.15010222792625427, -0.19878248870372772, -0.20371341705322266, 0.13385456800460815, 0.08132722973823547, 0.061529695987701416, 0.11573526263237, -0.23977667093276978, 0.12942969799041748, 0.16292500495910645, -0.17066580057144165, -0.1011204719543457, 0.18483597040176392, 0.018368035554885864, 0.25231608748435974, -0.058815762400627136, 0.006703078746795654, -0.018305150792002678, -0.2270037978887558, -0.24089375138282776, 0.25487300753593445, -0.07584753632545471, 0.10443878173828125, 0.0373973548412323, 0.1793261468410492, -0.013887803070247173, -0.06734955310821533]
[0.15446773171424866, 0.10473001003265381, 0.17706725001335144, 0.08434540033340454, -0.2136446237564087, -0.042140647768974304, -0.24605418741703033, -0.024934083223342896, -0.21952512860298157, 0.09720519185066223, -0.024144649505615234, -0.04679577052593231, -0.22990238666534424, -0.17287695407867432, 0.13543367385864258, -0.15876588225364685, 0.22229331731796265, 0.16213685274124146, -0.07986119389533997, 0.25603941082954407, 0.01602157950401306, -0.10700777173042297, -0.16284596920013428, 0.24196362495422363, 0.1184232234954834, 0.2416449785232544, 0.2290346622467041, 0.00550609827041626, -0.06240692734718323, -0.19098928570747375, -0.11064426600933075, -0.103528693318367, -0.06186653673648834, -0.031719669699668884, 0.01733464002609253, -0.23738111555576324, -0.11582508683204651, 0.16745597124099731, 0.0608726441860199, 0.010449439287185669, -0.14561951160430908, 0.17830884456634521, 0.19500255584716797]
[0.2396482229232788, 0.2211889624595642, -0.07727193832397461, 0.03696337342262268, -0.20824836194515228, -0.01982709765434265, 0.009285509586334229, 0.20454943180084229, -0.19123458862304688, 0.16503581404685974, 0.24047544598579407, 0.20693078637123108, 0.06316471099853516, 0.08456665277481079, 0.13689923286437988, 0.03012758493423462, -0.19184672832489014, -0.1362704336643219, -0.07179512083530426, -0.14903241395950317, -0.23127985000610352, -0.17393624782562256, 0.12586966156959534, 0.24180826544761658, 0.09791019558906555, -0.05408655107021332, -0.10126599669456482, 0.1311521828174591, -0.024734631180763245, -0.03565166890621185, -0.18741345405578613, 0.11303332448005676, -0.05902206897735596, 0.08098995685577393, 0.039909958839416504, -0.1600351631641388, -0.21774822473526, -0.10617977380752563, 0.17280283570289612, 0.18418961763381958, 0.004699477925896645, -0.1615549623966217, -0.06667263805866241]
[-0.24749085307121277, 0.07578197121620178, 0.20961308479309082, -0.19358880817890167, -0.06342968344688416, 0.18571791052818298, -0.17585894465446472, -0.1541130244731903, -0.029561355710029602, -0.18905362486839294, 0.11266782879829407, -0.0479433536529541, -0.21529892086982727, -0.017753690481185913, 0.008835047483444214, -0.11426936089992523, -0.15619732439517975, 0.025872886180877686, 0.06663554906845093, 0.08767062425613403, -0.11758020520210266, 0.23651912808418274, -0.04121994972229004, -0.0608624666929245, -0.028227530419826508, 0.10127431154251099, 0.17238113284111023, -0.1598963737487793, 0.1906234323978424, -0.16583779454231262, 0.16651421785354614, -0.06306003034114838, -0.23673120141029358, -0.1005413830280304, -0.22329507768154144, 0.17385581135749817, -0.031245529651641846, -0.012661874294281006, -0.2422506958246231, 0.19318082928657532, -0.08726486563682556, -0.22517766058444977, 0.006649301387369633]
[0.05773773789405823, 0.24355635046958923, -0.026566281914711, 0.12492546439170837, -0.10310915112495422, 0.22038087248802185, -0.19481168687343597, 0.016947299242019653, 0.12777987122535706, 0.24688014388084412, -0.11724147200584412, -0.13569632172584534, -0.1560199111700058, -0.2244643270969391, 0.1364753544330597, 0.11089029908180237, 0.21261104941368103, 0.0023759123869240284, 0.12067720293998718, 0.09422388672828674, -0.07324224710464478, 0.16057181358337402, -0.21561579406261444, -0.1943039894104004, 0.11111608147621155, 0.11197036504745483, 0.22221559286117554, 0.22196254134178162, -0.07330462336540222, -0.05655255913734436, -0.17655181884765625, -0.09538707137107849, -0.09905275702476501, -0.20985881984233856, 0.043737441301345825, -0.23245932161808014, -0.06649558246135712, -0.18116171658039093, 0.23201259970664978, 0.03701046109199524, 0.06733131408691406, -0.0030257871840149164, -0.23022422194480896]

[-2.57937159631183e-07, 6.629056770179886e-08, -3.3114736197603634e-07, 8.601395506957488e-08, 6.75726941068433e-09, 1.224737644633933e-07, -8.054749400798755e-08, 2.991239114180644e-07, -1.114035157456783e-07, 1.1312341285929506e-07, 5.0732534617736746e-08, 2.0784522547501183e-08, -1.0784697934695942e-07, -1.5346829584927946e-08, -2.2401383148462628e-07, 2.6370258865426877e-07, 6.124573559418423e-08, -2.7539695679479337e-07, -9.24382135281121e-08, 4.0328192341121394e-08, -1.0319656951196521e-07, 1.9438212461864168e-07, 1.7528464013594203e-07, -2.591251870853739e-07, -6.401855046078708e-08, -5.9392249340817216e-08, 2.0760433017130708e-07, -2.797046363411937e-07, 1.1209651518129249e-07, -7.577821747872804e-08, -2.0178666204628826e-07, 3.935095094220742e-08, 1.2292191797769192e-07, -9.126949862547917e-08, 2.233641680504661e-07, -2.0040269532728416e-07, -2.0382526599860284e-07, -6.379152495128437e-08]
[-0.02449788898229599, 0.12197452783584595, -0.14255936443805695, 0.02049088478088379, -0.26155737042427063, -0.007974750362336636, 0.24667251110076904, -0.060387223958969116, 0.2073129415512085, -0.014490409754216671, 0.049425363540649414, -0.2601023018360138, 0.25616002082824707, -0.22700288891792297, -0.05625099316239357, 0.1739886999130249, 0.10356178879737854, 0.09490504860877991, 0.2526930570602417, -0.0776626467704773, 0.020298093557357788, -0.13867029547691345, 0.03314533829689026, -0.032852042466402054, -0.27148187160491943, -0.024318963289260864, 0.04599693417549133, 0.2558274269104004, -0.11484982073307037, 0.22985392808914185, 0.13547015190124512, 0.0780482292175293, -0.09026376903057098, 0.13289818167686462, 0.11422479152679443, 0.03882730007171631, 0.09200116991996765, 0.14239871501922607]
[-0.137228325009346, -0.16700148582458496, 0.01594104804098606, -0.1411890983581543, 0.0813562273979187, -0.06070448458194733, -0.09652779996395111, 0.044188156723976135, 0.20484566688537598, 0.019393105059862137, -0.20648151636123657, 0.13494864106178284, -0.06549648940563202, -0.14108391106128693, 0.26159220933914185, 0.06374362111091614, -0.1607322096824646, 0.08100199699401855, 0.020198164507746696, -0.08299435675144196, -0.16179580986499786, 0.16413909196853638, -0.266633003950119, 0.007439304143190384, 0.21605828404426575, -0.24634523689746857, -0.08860811591148376, -0.04055144265294075, -0.01400292944163084, -0.21850913763046265, -0.01609876938164234, 0.03503841161727905, 0.13024461269378662, -0.16863663494586945, -0.052779536694288254, -0.20750877261161804, 0.217909574508667, -0.09189891815185547]
[0.052721355110406876, -0.01428604032844305, 0.18578609824180603, -0.25200513005256653, -0.24040766060352325, -0.2260189801454544, 0.10157132148742676, -0.02360968478024006, 0.21736526489257812, 0.2150188684463501, -0.11079767346382141, 0.21236419677734375, -0.22178974747657776, 0.16537204384803772, -0.26071906089782715, -0.05699669569730759, -0.18391190469264984, -0.12703654170036316, 0.06297281384468079, -0.029200777411460876, -0.07987985014915466, 0.019706783816218376, 0.1462874710559845, -0.11789396405220032, 0.137950599193573, -0.17016179859638214, 0.25201737880706787, -0.16282592713832855, 0.07923322916030884, -0.20623674988746643, 0.0996825098991394, 0.2462775707244873, -0.1863008737564087, -0.24839580059051514, 0.0161318127065897, -0.060822710394859314, 0.0011995325330644846, 0.10308349132537842]
[0.029451271519064903, 0.04433998465538025, 0.12816011905670166, -0.17072075605392456, -0.20447111129760742, -0.2706963121891022, -0.08380767703056335, 0.01092132180929184, -0.013007682748138905, 0.22686630487442017, 0.2577088475227356, 0.26706719398498535, 0.040791746228933334, -0.25276169180870056, 0.052556734532117844, -0.0307132788002491, 0.002868328709155321, -0.185652494430542, 0.10358574986457825, -0.05160030722618103, -0.21154794096946716, 0.052671533077955246, -0.08260948956012726, -0.19397681951522827, -0.11194653809070587, 0.24694591760635376, -0.004271272569894791, -0.2430802583694458, 0.09683939814567566, -0.19040259718894958, -0.21319204568862915, 0.2094140648841858, 0.07552629709243774, -0.19776928424835205, 0.13423582911491394, -0.08188760280609131, -0.040967512875795364, -0.025987865403294563]
[-0.00921578612178564, 0.07950484752655029, 0.025417909026145935, -0.051713213324546814, 0.049932777881622314, 0.1025669276714325, -0.25054559111595154, 0.24792814254760742, -0.1634713113307953, 0.1605343520641327, -0.2376919835805893, -0.11500048637390137, -0.12794934213161469, -0.027871185913681984, -0.07373042404651642, -0.009539111517369747, 0.10767176747322083, -0.1160224974155426, 0.1061277687549591, 0.025469958782196045, 0.09355619549751282, -0.04914827644824982, -0.16281113028526306, -0.1616916060447693, 0.16236969828605652, -0.22265271842479706, -0.23226171731948853, -0.02855713665485382, -0.06787422299385071, -0.1840919852256775, -0.06746666133403778, 0.06451347470283508, -0.049746230244636536, 0.058909058570861816, -0.0867764949798584, 0.0771554708480835, 0.03671756386756897, -0.20722734928131104]
[0.0027375100180506706, -0.11384117603302002, 0.20326372981071472, -0.023656174540519714, 0.26915258169174194, -0.059151872992515564, 0.06865161657333374, -0.24628028273582458, -0.02572045475244522, -0.08712689578533173, -0.048831477761268616, 0.13127577304840088, -0.2516479194164276, -0.18627271056175232, -0.22369931638240814, -0.13567201793193817, 0.2577795386314392, -0.006317307706922293, -0.0907040387392044, -0.2609732449054718, -0.02793005108833313, 0.1516817808151245, 0.20097902417182922, 0.17893263697624207, 0.09489750862121582, -0.06386043131351471, 0.2524603009223938, -0.2515176236629486, 0.19383010268211365, 0.017476439476013184, 0.08346149325370789, -0.2602849006652832, -0.22511780261993408, 0.03952038288116455, -0.09616993367671967, -0.15054510533809662, -0.01893138885498047, -0.18305322527885437]
[0.06983330845832825, -0.19325032830238342, 0.18465080857276917, -0.10765573382377625, -0.00023652103845961392, 0.07889491319656372, -0.05481518805027008, 0.04705652594566345, -0.1437116116285324, 0.20762798190116882, -0.19834667444229126, -0.16967779397964478, 0.1835586428642273, 0.06400826573371887, 0.2017667293548584, 0.22843116521835327, 0.22809380292892456, 0.1992141604423523, -0.1554776132106781, -0.0315127819776535, -0.06536845862865448, -0.0026408201083540916, 0.037813588976860046, -0.019499503076076508, 0.0729215145111084, -0.2211981564760208, -0.09636427462100983, 0.1295226514339447, -0.05869050323963165, 0.030860573053359985, 0.08249911665916443, -0.1753929853439331, 0.0028111066203564405, -0.11358129978179932, 0.0836646556854248, 0.021831421181559563, 0.18771255016326904, -0.12975884974002838]
[-0.1830100119113922, -0.17406392097473145, 0.07203205674886703, -0.2586449384689331, 0.04722630977630615, -0.033426299691200256, -0.19895948469638824, 0.04861542209982872, 0.17881536483764648, -0.21843627095222473, -0.0046179951168596745, -0.22450627386569977, 0.033508509397506714, -0.24946576356887817, -0.030764704570174217, -0.025749118998646736, 0.2639719247817993, 0.1797587275505066, -0.1557970494031906, 0.07221877574920654, -0.06314761936664581, -0.2578153908252716, 0.13915735483169556, 0.1354667842388153, 0.23488467931747437, 0.00946671050041914, 0.07155826687812805, 0.010939568281173706, -0.02122044563293457, 0.07622775435447693, 0.10442033410072327, 0.24113762378692627, -0.25042587518692017, 0.0427381694316864, -0.19555583596229553, 0.07975539565086365, -0.07187043130397797, -0.19540128111839294]
[-0.22835512459278107, 0.1537834107875824, 0.08909374475479126, 0.19108229875564575, -0.14910903573036194, -0.1250709891319275, -0.06237538158893585, -0.07492218911647797, -0.026234766468405724, 0.08882692456245422, -0.05351331830024719, -0.0776568204164505, -0.26792988181114197, -0.1728757917881012, -0.15161246061325073, 0.22850656509399414, -0.10948340594768524, -0.10611331462860107, -0.12916530668735504, 0.005697025917470455, 0.13338524103164673, -0.14315414428710938, -0.16735202074050903, -0.2151062786579132, -0.14232589304447174, -0.26254934072494507, 0.005257387179881334, 0.12452825903892517, 0.1363523304462433, -0.12148091197013855, -0.08732467889785767, 0.012206438928842545, 0.1232350766658783, 0.062149226665496826, -0.04092423617839813, -0.013509970158338547, 0.1784602403640747, 0.05487501621246338]
[0.0409894734621048, -0.1292055994272232, -0.2684316635131836, -0.21661540865898132, -0.25525569915771484, 0.2471238374710083, 0.13700756430625916, 0.2719805836677551, 0.1627027690410614, -0.11376740038394928, -0.24811029434204102, 0.06911075115203857, -0.2625371217727661, 0.018342075869441032, -0.23491108417510986, 0.10688257217407227, 0.005184187088161707, -0.20716628432273865, 0.012679497711360455, 0.025691300630569458, 0.01760418340563774, 0.060983721166849136, -0.14680223166942596, 0.11019036173820496, -0.2054990828037262, -0.26219841837882996, 0.2184179723262787, 0.23771530389785767, -0.027245434001088142, -0.08860838413238525, -0.26605087518692017, -0.07426394522190094, 0.0826704204082489, 0.2331957221031189, 0.046366915106773376, 0.13427072763442993, 0.2536218762397766, -0.004751383326947689]
[-0.23278531432151794, 0.0010915969032794237, -0.05220269784331322, -0.14761218428611755, -0.26719650626182556, 0.01616540178656578, 0.16445297002792358, -0.10206182301044464, -0.015353445895016193, -0.09618349373340607, -0.13348674774169922, -0.21362850069999695, -0.23222479224205017, 0.2522073984146118, 0.22849124670028687, -0.1171121746301651, 0.24572592973709106, -0.16177919507026672, -0.08687452971935272, -0.03422898054122925, 0.1627139151096344, -0.1674683690071106, -0.0024524435866624117, -0.19036048650741577, 0.14350947737693787, -0.25923165678977966, -0.07007923722267151, -0.2060757577419281, 0.2161899209022522, -0.1541001945734024, -0.2229500412940979, 0.21342265605926514, -0.1458892971277237, 0.014582275412976742, 0.26143693923950195, 0.12170097231864929, -0.2259681671857834, -0.1911270171403885]
[-0.19442176818847656, -0.21484510600566864, 0.041601527482271194, 0.272042453289032, 0.2548150420188904, -0.10773703455924988, 0.15488281846046448, 0.031396880745887756, -0.043533533811569214, 0.061358243227005005, 0.04123806953430176, 0.147813081741333, -0.19431833922863007, 0.030750267207622528, 0.24964773654937744, -0.17711734771728516, 0.1629372239112854, -0.2070799171924591, 0.22604304552078247, -0.2166873812675476, 0.16128700971603394, 0.22679713368415833, 0.17370197176933289, 0.09602230787277222, -0.020392123609781265, -0.22263208031654358, 0.06918427348136902, 0.03854217752814293, 0.26392853260040283, -0.14890840649604797, -0.07199515402317047, -0.05120895802974701, 0.17122825980186462, -0.0014926547883078456, -0.18152417242527008, -0.19278383255004883, 0.1303100883960724, -0.2552381157875061]
[0.23672610521316528, 0.21722471714019775, 0.03967122361063957, -0.23162561655044556, -0.14029662311077118, -0.2198047935962677, -0.015635216608643532, -0.05700688436627388, 0.03353143110871315, -0.08218804001808167, 0.0363917350769043, -0.0626509040594101, 0.1295146644115448, -0.057100262492895126, 0.1229453980922699, -0.06057089567184448, -0.05086076259613037, -0.2459007352590561, -0.1809144765138626, -0.19673754274845123, 0.18250596523284912, 0.1973852813243866, 0.2347617745399475, -0.08358165621757507, 0.08644139766693115, 0.18551045656204224, 0.16848823428153992, -0.2311779409646988, 0.16901221871376038, 0.13669759035110474, -0.10598282516002655, 0.12907704710960388, -0.12284386157989502, -0.2333076000213623, -0.14940643310546875, -0.20771721005439758, 0.08329373598098755, 0.09785899519920349]
[-0.17162667214870453, 0.01774081587791443, 0.03441235423088074, 0.16647842526435852, 0.005404282361268997, 0.12093222141265869, 0.06100103259086609, -0.04272806644439697, 0.030354589223861694, -0.034926801919937134, 0.037472277879714966, -0.2682766616344452, -0.09320390224456787, 0.03146845102310181, 0.25228655338287354, 0.14964982867240906, 0.17582714557647705, 0.24692809581756592, 0.1292273998260498, 0.08013156056404114, 0.21544617414474487, 0.12491253018379211, 0.016851844266057014, -0.024891864508390427, -0.1374429166316986, 0.06815993785858154, 0.18023228645324707, 0.2176799178123474, -0.05040596425533295, -0.042437806725502014, 0.09563946723937988, -0.11664095520973206, -0.26274749636650085, -0.020879894495010376, -0.10019221901893616, -0.230291485786438, 0.19094818830490112, -0.13808771967887878]
[-0.16074973344802856, -0.2452961653470993, -0.14456108212471008, 0.26896679401397705, 0.202886700630188, -0.1525694578886032, 0.043076008558273315, 0.10349094867706299, -0.16462388634681702, 0.17083683609962463, 0.12687388062477112, 0.14858058094978333, 0.03700065612792969, 0.1598893702030182, -0.10115693509578705, -0.03200874105095863, 0.12766870856285095, 0.061175763607025146, -0.027984721586108208, -0.08928076922893524, 0.10017761588096619, -0.19249281287193298, -0.20086735486984253, 0.10592520236968994, -0.20226754248142242, 0.06766489148139954, 0.01409883238375187, 0.15003255009651184, -0.2011166512966156, -0.0195695161819458, -0.09266448020935059, -0.1994992345571518, -0.14006184041500092, 0.06703683733940125, -0.053595785051584244, -0.23329734802246094, 0.20683050155639648, 0.17917796969413757]
[0.03862917795777321, -0.10952194035053253, 0.13066977262496948, 0.030956566333770752, 0.10829553008079529, -0.26312482357025146, -0.13601547479629517, 0.22386062145233154, 0.027052540332078934, -0.11319442093372345, -0.05453351140022278, -0.19294898211956024, 0.196586012840271, -0.26825347542762756, 0.25684458017349243, -0.12773995101451874, 0.19583317637443542, -0.02783839963376522, 0.008788838051259518, -0.14772364497184753, 0.21336692571640015, 0.05161341652274132, 0.10128378868103027, 0.058034732937812805, 0.07171568274497986, -0.24941150844097137, -0.04261470213532448, 0.2296040654182434, 0.05618324875831604, -0.12090502679347992, 0.05250343680381775, -0.13574346899986267, -0.021090922877192497, -0.09027259051799774, 0.010301302187144756, -0.009795565158128738, -0.2272423952817917, 0.18730515241622925]
[0.2342303991317749, 0.13749989867210388, -0.08913838863372803, 0.13913041353225708, 0.25299757719039917, 0.2545822858810425, -0.035691067576408386, -0.017854828387498856, 0.25338077545166016, 0.18045052886009216, -0.18290969729423523, -0.016710877418518066, -0.20135921239852905, 0.008352956734597683, 0.031093444675207138, 0.08131411671638489, -0.06704689562320709, 0.14425018429756165, 0.14504748582839966, -0.15407061576843262, 0.1658974587917328, -0.22324618697166443, -0.04604124650359154, -0.07667918503284454, -0.1177603006362915, 0.15684008598327637, 0.14519044756889343, -0.22729742527008057, 0.16899645328521729, -0.19723349809646606, -0.11527366936206818, -0.10228730738162994, -0.1542043387889862, -0.12813058495521545, 0.20591524243354797, 0.17750200629234314, -0.06968218088150024, -0.23144379258155823]
[0.26771438121795654, -0.20848225057125092, -0.09321343898773193, 0.1523958146572113, -0.13252677023410797, 0.16575774550437927, -0.19427525997161865, 0.1526150107383728, 0.02182375267148018, -0.17783468961715698, 0.1867709457874298, 0.26604676246643066, -0.19845041632652283, 0.04630360007286072, 0.19272789359092712, -0.10724388062953949, 0.16678041219711304, 0.15562301874160767, 0.20125862956047058, -0.18748751282691956, 0.0767778754234314, -0.15144051611423492, 0.20997118949890137, 0.18789035081863403, 0.020615229383111, 0.11637088656425476, -0.21473419666290283, -0.12173391878604889, -0.1340712010860443, -0.26269739866256714, 0.23903411626815796, 0.18797534704208374, -0.11244352161884308, 0.22780472040176392, 0.25574827194213867, 0.2653297781944275, 0.03910917043685913, -0.1824161410331726]
[0.2014709711074829, -0.23898684978485107, -0.15979799628257751, -0.12104804813861847, -0.26839086413383484, 0.11280041933059692, 0.017395466566085815, 0.1536373496055603, 0.049806445837020874, 0.20987632870674133, -0.2322300523519516, -0.16917528212070465, 0.17096403241157532, 0.01866232231259346, -0.14749348163604736, 0.15359795093536377, -0.010980639606714249, -0.1053289920091629, 0.20334166288375854, -0.030963823199272156, -0.21585750579833984, -0.07930824160575867, -0.02127603068947792, 0.2527337074279785, -0.13310590386390686, 0.16061994433403015, 0.18916749954223633, 0.05555528402328491, -0.10285638272762299, 0.005423613823950291, -0.11919169127941132, -0.17222300171852112, -0.11975519359111786, 0.010954937897622585, 0.04392954707145691, 0.09484866261482239, 0.16752728819847107, -0.005948948208242655]
[-0.19077187776565552, 0.22779539227485657, 0.15889734029769897, 0.21548619866371155, 0.24449652433395386, 0.02416727878153324, 0.24586278200149536, 0.0780961811542511, -0.26892560720443726, -0.2613690495491028, -0.19288849830627441, -0.07294882833957672, 0.1322559118270874, -0.2206295281648636, 0.09184089303016663, 0.1462216079235077, -0.16108734905719757, 0.2641026973724365, 0.005246396642178297, -0.01095157116651535, 0.20183536410331726, 0.17120516300201416, -0.0697031319141388, 0.10578465461730957, 0.1361536979675293, -0.08967119455337524, 0.1870206892490387, 0.16395559906959534, 0.18328216671943665, 0.07758790254592896, -0.2044312059879303, 0.024504922330379486, 0.11435651779174805, -0.07793869078159332, -0.05194875970482826, 0.1938614547252655, -0.2267565131187439, 0.1863245666027069]
[0.07136598229408264, 0.0022124124225229025, -0.20341990888118744, -0.01450848113745451, 0.26845818758010864, 0.045126110315322876, 0.013248628936707973, 0.2129388451576233, 0.026219109073281288, -0.05900612100958824, -0.1585133820772171, 0.13015031814575195, 0.20548015832901, -0.26237523555755615, -0.2045881748199463, -0.09325626492500305, -0.05209599435329437, -0.004343757405877113, -0.27029672265052795, -0.14040076732635498, -0.21987226605415344, 0.1503099501132965, 0.2521681785583496, -0.14204344153404236, -0.13723494112491608, -0.039915308356285095, 0.22729936242103577, -0.18533331155776978, 0.026504477486014366, 0.24677973985671997, 0.09377241134643555, -0.11659897863864899, -0.12428192794322968, -0.1821807324886322, 0.004909183830022812, -0.00010315285908291116, 0.1799009144306183, 0.05945950746536255]
[0.014634596183896065, 0.1108560860157013, -0.15311849117279053, 0.16481387615203857, 0.23458755016326904, -0.0031825765036046505, 0.027867818251252174, -0.2022731900215149, 0.09459573030471802, 0.23167932033538818, -0.05640348792076111, 0.266105055809021, 0.014633413404226303, 0.05960265174508095, 0.09890943765640259, -0.20600950717926025, 0.22632849216461182, 0.04734567552804947, 0.06904101371765137, -0.01264573447406292, -0.19921547174453735, 0.24616849422454834, -0.26150059700012207, 0.1773843765258789, -0.23554226756095886, -0.25623273849487305, 0.2596319317817688, 0.08357608318328857, 0.1776229739189148, 0.15001320838928223, -0.1702679544687271, -0.14514468610286713, 0.26879531145095825, -0.10861700773239136, 0.10024037957191467, 0.12376871705055237, 0.019573897123336792, -0.05956067144870758]
[-0.04028993099927902, -0.17504361271858215, 0.25237542390823364, -0.1558537632226944, -0.015245629474520683, 0.25771844387054443, -0.1044522076845169, 0.15372461080551147, 0.17989233136177063, -0.18442563712596893, -0.02828025259077549, 0.08707749843597412, 0.1908080279827118, 0.012211555615067482, -0.11813464760780334, 0.24465906620025635, -0.1996028572320938, -0.2429584562778473, -0.11334080994129181, 0.0345894992351532, 0.1447204351425171, -0.22225429117679596, 0.17288410663604736, -0.21589727699756622, 0.09477722644805908, 0.10964944958686829, -0.228691965341568, -0.19011889398097992, -0.14661073684692383, -0.03600591421127319, 0.007395109161734581, 0.15706011652946472, -0.11775749921798706, 0.07581979036331177, 0.2433508038520813, 0.26531392335891724, -0.1927555501461029, -0.22707252204418182]
[-0.09060800075531006, 0.008233754895627499, -0.055062226951122284, 0.09974434971809387, -0.23274709284305573, 0.14433124661445618, -0.08546267449855804, 0.24803978204727173, 0.24742037057876587, -0.22607985138893127, -0.13794411718845367, -0.12130318582057953, 0.11623644828796387, -0.06662964820861816, 0.23607605695724487, 0.02919004298746586, 0.14937546849250793, -0.20561394095420837, -0.24336227774620056, -0.18175524473190308, 0.03122851252555847, -0.17372429370880127, -0.21123433113098145, 0.07606515288352966, -0.08725504577159882, 0.018658071756362915, 0.08870086073875427, 0.07859531044960022, -0.0018486195476725698, 0.2277856469154358, 0.2541915774345398, 0.03366595506668091, -0.24180032312870026, -0.18809622526168823, -0.17432302236557007, -0.21223947405815125, 0.2329276204109192, -0.060275107622146606]
[-0.19265684485435486, -0.03406241536140442, 0.086514912545681, 0.0007545084808953106, -0.17212943732738495, -0.04120717942714691, 0.20659053325653076, -0.030902979895472527, 0.09525030851364136, 0.1423276662826538, 0.08444321155548096, 0.18913063406944275, -0.08146899938583374, 0.1824747920036316, 0.13323530554771423, -0.004951113369315863, 0.13380470871925354, 0.14144086837768555, -0.058013852685689926, -0.26103124022483826, -0.1959240883588791, -0.21438704431056976, -0.029104575514793396, 0.2080731987953186, 0.2551536560058594, -0.08650843799114227, -0.21945029497146606, 0.2587466239929199, -0.2273809313774109, -0.18656301498413086, 0.21892261505126953, -0.04946441948413849, -0.14858953654766083, 0.2042669653892517, -0.045408979058265686, 0.2468951940536499, -0.2578326463699341, -0.2030528336763382]
[0.23293298482894897, -0.027393877506256104, -0.10622192919254303, -0.2563484311103821, -0.03676168620586395, -0.10774287581443787, 0.2583652138710022, -0.004927857778966427, -0.07937975227832794, -0.09395311772823334, 0.042400509119033813, -0.06731085479259491, -0.11427794396877289, -0.026860244572162628, 0.11452996730804443, -0.24431303143501282, -0.14444446563720703, 0.23376840353012085, -0.06007461994886398, 0.012282979674637318, -0.10140170156955719, 0.11210116744041443, -0.18001925945281982, 0.04642733559012413, 0.22901636362075806, 0.14891144633293152, 0.13242268562316895, -0.004180074203759432, -0.08519364893436432, 0.006613932084292173, -0.13449245691299438, -0.013611692003905773, 0.14119571447372437, 0.21056079864501953, -0.26380065083503723, -0.14515994489192963, -0.14200282096862793, 0.17118477821350098]
[0.20402824878692627, 0.020688414573669434, -0.27202725410461426, 0.18261119723320007, 0.131712406873703, -0.059168800711631775, 0.04066950082778931, -0.053751710802316666, 0.01075196173042059, -0.028483808040618896, 0.12038415670394897, 0.21271038055419922, -0.1075829267501831, 0.06332322955131531, -0.25463491678237915, 0.06362074613571167, 0.08511188626289368, 0.055461157113313675, 0.17090842127799988, 0.020346879959106445, -0.23541145026683807, 0.14711785316467285, -0.17155444622039795, -0.0422072559595108, -0.09439462423324585, -0.009392865933477879, 0.11806657910346985, 0.2599099278450012, -0.2632908821105957, -0.09704625606536865, -0.17418667674064636, 0.13830339908599854, 0.04489925503730774, 0.22959023714065552, -0.11066743731498718, 0.14906272292137146, 0.09119701385498047, 0.12545499205589294]
[-0.06158176437020302, 0.026794105768203735, 0.024152016267180443, 0.12850117683410645, -0.0019283778965473175, -0.22400248050689697, 0.036531656980514526, -0.17040681838989258, 0.07342115044593811, -0.06507906317710876, -0.09361070394515991, 0.03074372187256813, -0.18191954493522644, 0.24144649505615234, -0.10692980885505676, 0.06558758020401001, -0.06926512718200684, -0.11224722862243652, 0.10701462626457214, -0.023195654153823853, -0.010177424177527428, 0.24117964506149292, 0.14820948243141174, 0.22766631841659546, 0.25239020586013794, -0.22291377186775208, -0.24527651071548462, 0.07590785622596741, 0.06024375557899475, -0.21303623914718628, 0.1420850157737732, -0.17374466359615326, -0.20958271622657776, 0.018897205591201782, 0.20420539379119873, 0.025376370176672935, 0.09148234128952026, -0.171991229057312]
[-0.05280717834830284, 0.1663568913936615, 0.02930421195924282, -0.019737452268600464, -0.20663771033287048, 0.18007254600524902, -0.06468653678894043, -0.1422308385372162, 0.2193637192249298, -0.2418336719274521, -0.16644759476184845, 0.18584132194519043, -0.1150897741317749, 0.0115658612921834, -0.16958746314048767, -0.12192820012569427, 0.06604325771331787, 0.24223768711090088, -0.26899632811546326, 0.1253570318222046, 0.09001141786575317, -0.08248652517795563, -0.0209762305021286, 0.10575824975967407, -0.22860130667686462, 0.1456241011619568, 0.24443984031677246, -0.17286989092826843, 0.040732771158218384, -0.255115270614624, -0.13685540854930878, -0.08712039887905121, -0.09606584906578064, 0.03736963868141174, 0.11924010515213013, -0.056450262665748596, -0.0004430626577232033, -0.0525641143321991]
[-0.0877266675233841, 0.255900502204895, 0.03873629495501518, -0.25566333532333374, -0.19909775257110596, 0.11150971055030823, -0.1748080551624298, 0.12650582194328308, 0.21995428204536438, 0.10354992747306824, 0.20498815178871155, -0.25122562050819397, -0.14400114119052887, 0.1621551811695099, 0.03264869377017021, -0.019756263121962547, 0.15783023834228516, 0.05961069092154503, 0.1797950565814972, -0.05270349979400635, -0.21528375148773193, -0.13293634355068207, 0.11498549580574036, -0.1849917322397232, 0.11340317130088806, -0.12905097007751465, 0.21598026156425476, 0.05966450273990631, -0.06087157130241394, -0.2478180229663849, 0.048021525144577026, 0.22924351692199707, -0.18219518661499023, -0.1571960747241974, 0.18908539414405823, 0.23583227396011353, -0.05270063877105713, 0.0018901904113590717]
[0.047756731510162354, 0.05389907956123352, -0.13213516771793365, -0.06824222207069397, -0.27033132314682007, -0.09532293677330017, -0.26759570837020874, -0.15658363699913025, -0.24310998618602753, -0.1316273957490921, -0.06956595182418823, -0.019224166870117188, -0.21146579086780548, -0.14818300306797028, -0.2707732617855072, 0.036947280168533325, 0.16914841532707214, -0.24283692240715027, 0.01437197532504797, -0.1264086216688156, -0.05107243359088898, -0.1808127909898758, -0.2640441954135895, -0.19431814551353455, -0.07248248159885406, 0.023227453231811523, 0.18353217840194702, -0.13269223272800446, -0.16092824935913086, 0.010415582917630672, 0.1768358051776886, 0.2651110291481018, -0.21976007521152496, -0.1816289722919464, 0.10688892006874084, 0.05361732840538025, -0.2710428833961487, -0.20272332429885864]
[-0.2603934407234192, -0.2189408540725708, -0.010013381019234657, 0.031691670417785645, -0.19760777056217194, 0.1832907795906067, -0.12195733189582825, -0.20211711525917053, -0.05309736728668213, -0.18414154648780823, -0.06433004140853882, 0.03137502074241638, 0.0120999151840806, -0.005806450732052326, -0.010071629658341408, 0.19276857376098633, 0.07825309038162231, -0.013826029375195503, -0.2452131062746048, 0.2508721351623535, -0.250906378030777, -0.23681208491325378, 0.2539493441581726, -0.16852515935897827, 0.15479186177253723, 0.12000787258148193, -0.20175011456012726, 0.1932668685913086, -0.21394982933998108, 0.14855948090553284, -0.08478406071662903, -0.15567505359649658, 0.06607159972190857, -0.03097952902317047, 0.13455551862716675, 0.0732402503490448, -0.1544736921787262, -0.12949293851852417]
[0.010048215277493, 0.25767403841018677, 0.1888503134250641, 0.17452210187911987, -0.15714851021766663, -0.17692209780216217, -0.15200525522232056, -0.014716372825205326, 0.20810317993164062, 0.23376798629760742, -0.14547140896320343, 0.2153054177761078, -0.21259266138076782, -0.07045571506023407, -0.07468605041503906, -0.2696739137172699, 0.2098410427570343, 0.2717851996421814, 0.05201113224029541, -0.12545883655548096, -0.06398288905620575, 0.25185084342956543, 0.1669946014881134, -0.10516171157360077, -0.2167440950870514, -0.012306898832321167, 0.12559932470321655, -0.01150300819426775, -0.12313124537467957, 0.01945587992668152, 0.2594151496887207, 0.0917811393737793, 0.18964475393295288, 0.055136650800704956, 0.10360333323478699, -0.015341813676059246, 0.050895750522613525, -0.20357805490493774]
[0.20090797543525696, 0.26260340213775635, 0.06185639277100563, 0.2224433720111847, 0.004002472385764122, -0.08943149447441101, 0.2694671154022217, -0.10707756876945496, 0.2488694190979004, -0.013623547740280628, -0.03867916762828827, -0.10985216498374939, 0.1674938201904297, -0.12093876302242279, 0.19571208953857422, 0.127813458442688, -0.12113863229751587, -0.10808219015598297, -0.1978098452091217, -0.19222870469093323, 0.013950183056294918, -0.006425458937883377, -0.17830052971839905, 0.20828860998153687, 0.23555803298950195, -0.18626675009727478, 0.1825868785381317, -0.002213808009400964, 0.09959220886230469, -0.16478072106838226, -0.07412832975387573, -0.04346935451030731, -0.06564494967460632, -0.22216486930847168, -0.19834211468696594, -0.24576778709888458, 0.20422986149787903, -0.07623372972011566]
[0.007687956094741821, -0.12246398627758026, 0.039089545607566833, 0.16829031705856323, 0.21609550714492798, 0.24295419454574585, -0.05067537724971771, 0.2007158398628235, -0.1851533055305481, 0.13052934408187866, -0.14464615285396576, -0.25365883111953735, -0.22999319434165955, 0.22948259115219116, -0.02056736685335636, -0.15678797662258148, -0.23142269253730774, 0.08791860938072205, 0.1946437656879425, -0.019282042980194092, -0.05732263624668121, -0.14368391036987305, 0.08792620897293091, 0.04388991743326187, -0.17842161655426025, 0.17507237195968628, 0.129372239112854, 0.1763550341129303, 0.22476959228515625, 0.2649022936820984, 0.12848350405693054, 0.15123727917671204, 0.23852789402008057, -0.2535672187805176, -0.16590207815170288, 0.10983958840370178, 0.25487279891967773, 0.16379064321517944]
[0.05352840572595596, 0.056214213371276855, 0.10016503930091858, -0.07140141725540161, -0.10994255542755127, -0.2595880329608917, -0.06453865766525269, 0.03051367774605751, -0.250056654214859, -0.18672466278076172, -0.24943765997886658, 0.13242217898368835, -0.1023203432559967, -0.19259539246559143, -0.0220783781260252, -0.09890280663967133, 0.218157559633255, -0.21544474363327026, -0.26284393668174744, 0.13874420523643494, 0.14983120560646057, -0.2667265832424164, 0.11966362595558167, -0.0676877349615097, -0.2078166902065277, -0.018744826316833496, -0.01612614095211029, -0.1653224229812622, 0.17888420820236206, 0.21726500988006592, 0.2017120122909546, -0.2172735184431076, -0.18506649136543274, -0.22734732925891876, -0.25850868225097656, 0.11720165610313416, 0.055248260498046875, -0.14686445891857147]
[0.007953769527375698, -0.1553122103214264, 0.09515130519866943, -0.25018227100372314, -0.17835180461406708, -0.061702027916908264, 0.13482695817947388, -0.21662059426307678, 0.12593543529510498, 0.07424589991569519, -0.17264056205749512, -0.20548981428146362, -0.04949912428855896, 0.09344497323036194, 0.2573515772819519, 0.027211852371692657, 0.18295720219612122, -0.11161799728870392, 0.10153207182884216, 0.2425745725631714, -0.13552433252334595, -0.04177756607532501, -0.09857414662837982, -0.030597949400544167, 0.10347387194633484, -0.22741752862930298, -0.15217122435569763, -0.21584750711917877, 0.18182572722434998, 0.0037141498178243637, -0.1309603452682495, 0.03859701752662659, -0.08589613437652588, -0.10813124477863312, 0.07524570822715759, 0.09426680207252502, -0.0672483742237091, 0.20785832405090332]
[-0.0695200115442276, 0.006120295263826847, -0.017353249713778496, 0.09788411855697632, 0.03771698474884033, -0.22141650319099426, 0.10788607597351074, 0.13861235976219177, 0.07611018419265747, -0.15519863367080688, 0.1554119884967804, 0.21928247809410095, 0.10077318549156189, 0.25985515117645264, 0.00935661792755127, 0.24281704425811768, 0.1243123710155487, -0.10981413722038269, 0.14260607957839966, 0.1303829550743103, 0.10259008407592773, -0.0542038232088089, 0.10489904880523682, -0.15303140878677368, -0.024470513686537743, 0.19649913907051086, 0.17699289321899414, 0.05016804113984108, -0.0859333872795105, 0.18849894404411316, 0.2708367705345154, 0.052765339612960815, -0.11100272834300995, 0.12172672152519226, 0.09076866507530212, -0.22602540254592896, 0.2406984567642212, -0.12753437459468842]
[0.19197240471839905, 0.05059322714805603, -0.14900794625282288, 0.027202248573303223, 0.0013660989934578538, 0.1799393892288208, -0.1769784837961197, 0.2510907053947449, -0.19320854544639587, -0.22854569554328918, -0.046637192368507385, -0.2153071165084839, -0.22006817162036896, -0.2662610113620758, 0.10938224196434021, -0.14800280332565308, 0.0005098331021144986, 0.11296069622039795, 0.1820264756679535, 0.16539809107780457, -0.21190586686134338, 0.0738961398601532, -0.07352998852729797, -0.2201431840658188, -0.016732744872570038, 0.22100213170051575, 0.04087585210800171, 0.24560821056365967, -0.0028547083493322134, -0.07522885501384735, 0.2294548749923706, -0.21570436656475067, 0.23852741718292236, 0.11300748586654663, 0.22200876474380493, 0.08101028203964233, 0.22038593888282776, -0.23135119676589966]
[-0.16731172800064087, -0.0574127733707428, -0.08810484409332275, -0.11420240998268127, -0.19345258176326752, -0.035965561866760254, -0.2102917581796646, -0.0538719967007637, 0.061652570962905884, -0.24785436689853668, -0.17508995532989502, -0.24268709123134613, -0.2520713806152344, -0.04605986177921295, -0.15586751699447632, 0.22890222072601318, 0.25404220819473267, 0.10739162564277649, -0.09287381172180176, 0.008550480008125305, 0.1351851522922516, -0.19332176446914673, -0.2017011195421219, -0.18691590428352356, -0.12208133935928345, -0.24332678318023682, -0.07751865684986115, -0.05275212228298187, 0.24167895317077637, -0.13973461091518402, 0.06061536446213722, -0.14169283211231232, 0.17600059509277344, -0.18966862559318542, 0.2654035687446594, 0.17958593368530273, 0.2347475290298462, -0.11251308023929596]
[-0.11228221654891968, -0.22759371995925903, 0.15416768193244934, 0.20792913436889648, -0.12307174503803253, -0.2683347165584564, 0.18304693698883057, 0.20643720030784607, -0.26085278391838074, 0.21872717142105103, 0.07526510953903198, -0.10502901673316956, 0.032077640295028687, -0.08632725477218628, -0.15892426669597626, 0.023173436522483826, -0.2004956752061844, -0.10306397080421448, 0.0785849392414093, 0.00938631035387516, 0.12154841423034668, 0.2294127345085144, 0.008217877708375454, 0.18745648860931396, 0.06360769271850586, -0.16297581791877747, -0.008213980123400688, -0.2653171718120575, 0.11413818597793579, 0.18002933263778687, 0.21469852328300476, 0.07464051246643066, -0.2660767138004303, -0.24628138542175293, -0.08706426620483398, 0.026915395632386208, -0.12780717015266418, 0.008391719311475754]
[-0.17154744267463684, 0.11310294270515442, 0.10052633285522461, 0.16788256168365479, -0.22555981576442719, 0.17813357710838318, 0.11832332611083984, 0.09709849953651428, 0.09271293878555298, -0.230993390083313, 0.2432105541229248, 0.17356464266777039, 0.2510368227958679, 0.1732814908027649, 0.1562420129776001, 0.12743249535560608, -0.21985357999801636, -0.24607087671756744, -0.14142407476902008, 0.08209854364395142, -0.030022606253623962, 0.023670541122555733, -0.18714794516563416, -0.2550005614757538, 0.1093248724937439, -0.01105404645204544, -0.1056622713804245, 0.02962431311607361, -0.15889784693717957, 0.13452178239822388, 0.13279613852500916, -0.2281978279352188, 0.1863948404788971, -0.12470468878746033, 0.2622765302658081, 0.0009963302873075008, 0.014623474329710007, 0.2105100452899933]
[0.00884553324431181, -0.16981923580169678, -0.0003441018343437463, -0.0680249035358429, -0.252549946308136, 0.11029165983200073, -0.21458742022514343, 0.19978052377700806, 0.08252546191215515, -0.24922119081020355, 0.23109811544418335, -0.14166662096977234, 0.1492491364479065, -0.16163092851638794, -0.24351288378238678, -0.2690954804420471, -0.03758862614631653, 0.017124634236097336, -0.261342316865921, 0.03811675310134888, -0.257038414478302, 0.1380539834499359, -0.2716839909553528, 0.2553819417953491, 0.15470483899116516, -0.21234530210494995, -0.11835980415344238, -0.22270001471042633, -0.1586979329586029, 0.0035745310597121716, 0.1684339940547943, 0.06153175234794617, 0.11578240990638733, 0.2197393774986267, 0.06376791000366211, -0.07724827527999878, 0.2518101930618286, -0.24399104714393616]

[3.02248793104809e-07, -8.686164960636233e-07, 4.732099512239074e-07, 3.7455862411661656e-07, -4.193635163574072e-07, -1.479712409491185e-06, 2.2454787540482357e-07, 1.101530315850141e-07, -8.639211301897376e-08, -5.557546955969883e-07, 5.061557430963148e-07, 1.0908115655183792e-06, 6.699723797964907e-08, -8.249739380516985e-07, 2.2922368003719384e-08, -1.11867407781574e-07, 8.453657756035682e-07, -1.3300428918228135e-06, 1.6312943671437097e-06, -4.62952186808252e-07, 5.627285872833454e-07, -1.4182244285620982e-06, 6.674255246252869e-07, 9.611903806217015e-07, -5.87306772104057e-07, -3.2748911849012075e-07, -2.190533194834643e-07, -1.1139801614490352e-07, -4.1569410313968547e-07, 3.66254624850626e-07, -3.025526780220389e-07, -6.305609758783248e-07, -1.0466330877534347e-06]
[0.10038802027702332, 0.251108318567276, -0.09054180979728699, -0.11523966491222382, 0.0627932921051979, 0.14634019136428833, -0.22175589203834534, 0.0019270154880359769, -0.20138508081436157, -0.030996115878224373, -0.22414405643939972, -0.19346892833709717, -0.2788708806037903, -0.2287006676197052, 0.051992177963256836, 0.01650502160191536, 0.07839646935462952, 0.160821795463562, 0.26670917868614197, -0.03520924597978592, -0.23356473445892334, 0.09008427709341049, -0.0939825102686882, 0.007842172868549824, 0.21122559905052185, -0.08080796152353287, -0.27872270345687866, -0.17000386118888855, -0.003511938266456127, -0.13233724236488342, 0.19874677062034607, -0.01106282975524664, 0.2895948588848114]
[-0.04403403773903847, 0.19791612029075623, 0.0044502816163003445, -0.12135434150695801, 0.21965739130973816, 0.025401007384061813, 0.2537536323070526, 0.19371762871742249, 0.05601441115140915, -0.282760888338089, -0.11035758256912231, -0.10224676132202148, -0.03953412175178528, -0.13443653285503387, -0.06292401254177094, 0.06602225452661514, 0.2896118462085724, -0.04283812269568443, -0.04862361401319504, 0.23712870478630066, 0.23403236269950867, -0.15621507167816162, -0.1370074599981308, -0.06495384871959686, -0.11879745125770569, 0.2559017241001129, -0.15200963616371155, -0.0020261199679225683, 0.17436161637306213, 0.22333946824073792, 0.08405396342277527, 0.1882660984992981, -0.25753891468048096]
[-0.1480373591184616, 0.002936153905466199, 0.2641354501247406, 0.003931268118321896, -0.08655895292758942, 0.2429181933403015, -0.20721496641635895, -0.1073005199432373, -0.21504813432693481, 0.14184331893920898, -0.21532219648361206, 0.06364164501428604, -0.0910947322845459, 0.018118679523468018, -0.27181562781333923, -0.16540300846099854, -0.004395631607621908, 0.2671339213848114, -0.1386907398700714, -0.15674521028995514, -0.20945292711257935, -0.06934267282485962, -0.03151872754096985, -0.19666728377342224, 0.12569743394851685, -0.27008047699928284, -0.1508636176586151, -0.16078083217144012, -0.17682749032974243, -0.23997439444065094, -0.015608257614076138, -0.03863737732172012, 0.21298977732658386]
[-0.10371650755405426, -0.03414197638630867, -0.23785465955734253, 0.15510916709899902, 0.12775713205337524, -0.03303927555680275, 0.15073499083518982, 0.04970533400774002, -0.2834102511405945, -0.18074244260787964, 0.1322997510433197, 0.017778340727090836, 0.2644420564174652, -0.09515276551246643, 0.024633290246129036, 0.03168889507651329, -0.25263234972953796, -0.2513897716999054, -0.21167118847370148, -0.05137624964118004, 0.1812078356742859, -0.214018315076828, -0.24011841416358948, 0.0748424157500267, -0.13335704803466797, 0.09807867556810379, -0.20394659042358398, 0.16724994778633118, -0.032506994903087616, -0.08624023199081421, 0.18685013055801392, -0.05708015337586403, 0.08354759216308594]
[-0.15488378703594208, -0.2755933403968811, 0.18182054162025452, 0.19708025455474854, 0.10045400261878967, -0.25127044320106506, -0.05907943844795227, -0.08211955428123474, -0.12751011550426483, -0.174613356590271, 0.06476393342018127, 0.06787960976362228, -0.2565801441669464, -0.05762748792767525, -0.147786945104599, 0.16561287641525269, -0.13999028503894806, -0.015608539804816246, 0.0004354990378487855, 0.2505256235599518, -0.05889463797211647, 0.23213592171669006, -0.03479641303420067, 0.018724052235484123, 0.2775940001010895, -0.00664681289345026, -0.07999032735824585, -0.2747301757335663, 0.07601550221443176, -0.07184581458568573, 0.11274290829896927, 0.2084190547466278, -0.1117238774895668]
[0.0750967264175415, -0.1799892783164978, 0.23586633801460266, 0.20642033219337463, 0.13925188779830933, -0.1637173742055893, 0.17185813188552856, -0.08111299574375153, 0.1280606985092163, 0.19848883152008057, -0.158853217959404, 0.2190832942724228, 0.1493869423866272, 0.04336877539753914, -0.25377053022384644, 0.21563419699668884, -0.21714168787002563, -0.09904644638299942, -0.06365854293107986, 0.08572214841842651, -0.04710039123892784, -0.07702955603599548, 0.13615232706069946, -0.2643962800502777, -0.14177367091178894, 0.21115222573280334, -0.0042898766696453094, -0.17035433650016785, 0.055704180151224136, 0.14713308215141296, 0.2529700696468353, -0.013934208080172539, -0.20376716554164886]
[-0.02168274112045765, -0.21933689713478088, -0.15821503102779388, 0.020045625045895576, 0.04344886913895607, 0.024277493357658386, -0.26170143485069275, 0.13645416498184204, 0.1629641056060791, -0.16503706574440002, -0.24554957449436188, 0.1240578219294548, 0.2555212080478668, 0.04313692823052406, 0.2661966383457184, 0.015201088041067123, -0.1817203164100647, 0.24081499874591827, 0.04003316909074783, 0.16203996539115906, -0.14102347195148468, -0.05465421825647354, 0.003121887566521764, -0.25837525725364685, 0.17278721928596497, -0.011439000256359577, -0.0800112783908844, -0.2522745132446289, -0.03447183594107628, 0.17731693387031555, -0.05557091906666756, -0.04653920605778694, -0.23130466043949127]
[0.08304020017385483, -0.18062828481197357, 0.26140400767326355, -0.15286032855510712, -0.04382764920592308, -0.24589890241622925, -0.0675763338804245, -0.0035285537596791983, 0.05849626660346985, 0.23847608268260956, 0.017593644559383392, 0.056513454765081406, 0.20364633202552795, -0.2231493890285492, -0.0087891211733222, -0.2696540951728821, -0.17879128456115723, 0.2781141996383667, 0.25621819496154785, 0.1933998316526413, -0.057563185691833496, 0.0013883707579225302, -0.1519339233636856, 0.14526261389255524, -0.0512046292424202, -0.17846475541591644, -0.011968945153057575, 0.2795916497707367, -0.26472729444503784, 0.2543477714061737, -0.09770384430885315, -0.12296802550554276, -0.2525552809238434]
[0.07916245609521866, 0.20900869369506836, 0.10077975690364838, -0.18788295984268188, -0.06497897952795029, 0.17663311958312988, 0.22802294790744781, -0.21089968085289001, 0.17213216423988342, -0.016739655286073685, 0.19458335638046265, 0.08591562509536743, 0.12239009141921997, -0.2632192075252533, 0.2612224519252777, 0.2417713701725006, -0.2870078384876251, 0.0923461988568306, -0.04532339423894882, -0.132240429520607, 0.13507431745529175, 0.12370341271162033, 0.2673000395298004, -0.1829611212015152, -0.09576588124036789, 0.08107204735279083, -0.16690097749233246, -0.0039335680194199085, 0.23192283511161804, -0.28631100058555603, 0.28559091687202454, -0.24382677674293518, 0.027914831414818764]
[-0.2261846959590912, 0.21324166655540466, -0.0063483742997050285, 0.02840436063706875, 0.20427441596984863, -0.14810481667518616, 0.1847897171974182, 0.1830264925956726, -0.1548977941274643, -0.27541953325271606, -0.12565597891807556, 0.1010289117693901, 0.1475183069705963, -0.007365521043539047, -0.1838332563638687, 0.19740211963653564, 0.12208230793476105, -0.1321936547756195, -0.1227489784359932, 0.15507522225379944, -0.19101735949516296, -0.057408303022384644, 0.1676226258277893, 0.09643246978521347, 0.1379186511039734, -0.16990342736244202, 0.23542001843452454, 0.15445011854171753, 0.16298940777778625, 0.26935258507728577, 0.17694100737571716, -0.2088828682899475, -0.2740313410758972]
[-0.2838626801967621, -0.06871805340051651, 0.01606619544327259, -0.15737736225128174, -0.15130317211151123, 0.04075735807418823, -0.17682921886444092, 0.029229596257209778, -0.16016197204589844, -0.013007818721234798, -0.0483105443418026, 0.15591523051261902, 0.11705353856086731, 0.05254070833325386, -0.23271231353282928, 0.28568270802497864, -0.15228159725666046, 0.27616891264915466, 0.24238775670528412, -0.10967773199081421, 0.026855112984776497, -0.2622901499271393, 0.1431940197944641, -0.1448955237865448, 0.008472259156405926, -0.27277588844299316, 0.28160515427589417, 0.27872976660728455, -0.17940360307693481, -0.19656482338905334, 0.0840226486325264, 0.16276311874389648, -0.12003383785486221]
[0.009583343751728535, -0.07112143188714981, -0.02509954199194908, -0.10775212943553925, 0.21298792958259583, -0.12166393548250198, 0.2447088658809662, -0.10726641118526459, -0.013329112902283669, 0.23864570260047913, -0.28484979271888733, -0.1172669306397438, -0.2784584164619446, 0.10998815298080444, 0.19347691535949707, 0.22008469700813293, 0.1536690890789032, -0.10363536328077316, 0.16263550519943237, 0.025206265971064568, -0.04503420367836952, -0.2695602476596832, 0.20200538635253906, -0.24489305913448334, -0.28244277834892273, 0.1786263883113861, -0.1889507919549942, -0.028065361082553864, -0.11808813363313675, -0.02286742441356182, 0.191764235496521, 0.22884401679039001, 0.2852303683757782]
[-0.08593957126140594, 0.01641049049794674, 0.24759814143180847, -0.1984594315290451, -0.0828123688697815, -0.06655259430408478, 0.09296750277280807, -0.1779281049966812, -0.042465705424547195, 0.1410227119922638, -0.2687970995903015, -0.262421190738678, 0.13211727142333984, 0.2534710466861725, 0.13082009553909302, 0.03156278654932976, -0.18803057074546814, -0.2853471338748932, -0.24303939938545227, 0.06679412722587585, 0.18055197596549988, 0.1270216405391693, 0.1313418447971344, 0.22142770886421204, -0.06718835234642029, -0.06784595549106598, 0.2734443247318268, -0.12682346999645233, -0.09553997218608856, 0.1272495985031128, -0.1938050091266632, 0.04918024316430092, 0.05555026978254318]
[0.022075913846492767, 0.07690492272377014, 0.0360591895878315, -0.06818266212940216, 0.285739928483963, 0.18804387748241425, -0.23254285752773285, 0.12597084045410156, -0.11685310304164886, 0.0661872997879982, 0.18568560481071472, 0.025592070072889328, -0.23316843807697296, -0.06159823387861252, -0.16719645261764526, 0.09712452441453934, -0.14611481130123138, 0.27991923689842224, 0.21737277507781982, -0.18418097496032715, 0.14386102557182312, -0.20449353754520416, -0.2679784297943115, -0.07197699695825577, -0.2657889127731323, 0.1023688092827797, -0.23565633594989777, 0.167272686958313, -0.08631978929042816, -0.26437562704086304, -0.2840859889984131, 0.217508465051651, -0.1566447764635086]
[-0.09052370488643646, 0.28007271885871887, -0.27881577610969543, -0.19794917106628418, 0.23704251646995544, -0.023891424760222435, 0.07923761755228043, 0.23997566103935242, 0.07117290049791336, -0.19804364442825317, 0.2473450005054474, 0.03475312888622284, -0.09398607909679413, -0.21516092121601105, 0.25463762879371643, 0.19377201795578003, -0.02430999092757702, 0.2710936963558197, 0.04155809432268143, -0.021117566153407097, -0.23629119992256165, 0.2730571925640106, -0.21641965210437775, 0.13768136501312256, -0.22864681482315063, 0.28002306818962097, -0.26466408371925354, -0.28398287296295166, 0.08420930802822113, -0.09045735746622086, 0.05755084007978439, 0.008818937465548515, 0.010569421574473381]
[-0.030979851260781288, -0.007974936626851559, 0.2651396095752716, -0.2646068334579468, 0.09410794079303741, -0.24156472086906433, 0.046558551490306854, -0.13458700478076935, -0.28734785318374634, 0.18583598732948303, 0.05450764298439026, 0.22346411645412445, 0.008904163725674152, -0.11746693402528763, 0.1617434024810791, -0.1796235293149948, -0.11902318894863129, -0.0466277115046978, 0.17699077725410461, 0.012596617452800274, 0.036361049860715866, -0.07529690861701965, 0.19272589683532715, 0.07311171293258667, 0.22533026337623596, -0.20586872100830078, -0.23272478580474854, -0.01978372596204281, 0.03929799050092697, -0.2789311110973358, -0.016382785513997078, -0.18323886394500732, 0.15226876735687256]
[0.04973362013697624, 0.12762145698070526, -0.17738422751426697, -0.094082310795784, -0.006619298830628395, -0.007901599630713463, 0.14211274683475494, 0.1384865641593933, -0.15961062908172607, 0.1776861995458603, -0.182726189494133, -0.13300664722919464, -0.2782365083694458, -0.005425987299531698, 0.0778627097606659, 0.2690386474132538, -0.03603405877947807, -0.04104163125157356, 0.134620800614357, -0.23565956950187683, 0.1937180459499359, -0.21602098643779755, 0.18651540577411652, 0.10575540363788605, -0.2221657931804657, -0.07181362807750702, -0.04398959502577782, -0.23028111457824707, 0.20414480566978455, 0.18526634573936462, -0.0409972183406353, 0.2617804706096649, 0.10141441226005554]
[-0.11711758375167847, 0.20545992255210876, -0.12354366481304169, -0.18225136399269104, -0.20638152956962585, 0.1353890597820282, 0.018254432827234268, -0.13732066750526428, -0.012992472387850285, -0.0703095868229866, -0.2721311151981354, 0.0014808491105213761, -0.16444779932498932, -0.130643829703331, -0.2448970377445221, -0.2745792865753174, -0.2483125478029251, 0.06897468864917755, 0.001083517912775278, 0.19878941774368286, -0.1378404051065445, 0.199284628033638, 0.043404288589954376, 0.09157922118902206, -0.15646721422672272, 0.2362917959690094, -0.02292056940495968, 0.18921354413032532, 0.23101994395256042, -0.18867355585098267, -0.01613328419625759, -0.04218919575214386, -0.09084835648536682]
[0.21983841061592102, 0.22224834561347961, 0.06576007604598999, 0.12871885299682617, -0.255606085062027, 0.03320838510990143, 0.07031693309545517, -0.1315600872039795, -0.21983402967453003, -0.2703028917312622, -0.19208471477031708, -0.28428998589515686, 0.16896027326583862, -0.22960563004016876, 0.20138493180274963, -0.28451335430145264, -0.035474993288517, 0.053164102137088776, -0.015327155590057373, 0.24982282519340515, 0.23948505520820618, 0.21595574915409088, 0.15502586960792542, 0.188461035490036, 0.06626617163419724, 0.2754332721233368, -0.15472312271595, -0.05364042520523071, -0.17180192470550537, -0.26776108145713806, -0.14881658554077148, 0.02313385158777237, 0.1657179594039917]
[0.19198372960090637, 0.07826973497867584, 0.054052773863077164, 0.00661255419254303, 0.019791802391409874, -0.17528678476810455, -0.2671036720275879, -0.10656848549842834, -0.043473515659570694, -0.2346295267343521, -0.159018874168396, 0.077052541077137, 0.2222481071949005, 0.2334100902080536, -0.03243020176887512, 0.23611637949943542, 0.2711165249347687, 0.2204008847475052, -0.21108238399028778, -0.10588352382183075, -0.00568062299862504, -0.28760743141174316, 0.2510741055011749, -0.13568733632564545, -0.054207608103752136, 0.2122197449207306, -0.04469667002558708, 0.11849826574325562, 0.2836662828922272, 0.08688756823539734, -0.2894171476364136, -0.0819510668516159, 0.053845833986997604]
[0.16982483863830566, 0.0767793208360672, -0.029997726902365685, 0.15754404664039612, -0.14034299552440643, 0.001072894548997283, 0.06173429265618324, 0.23533090949058533, -0.029542822390794754, -0.0036858124658465385, 0.047885775566101074, 0.11417341232299805, -0.00032544907298870385, -0.18226425349712372, -0.2204989194869995, 0.2412002980709076, -0.2221284955739975, -0.011509200558066368, -0.12157263606786728, 0.05365071818232536, 0.22488120198249817, 0.022523371502757072, -0.06583099812269211, -0.14666448533535004, -0.16056257486343384, 0.18603885173797607, -0.08858458697795868, 0.24880048632621765, 0.09591333568096161, 0.1248856782913208, -0.2300659716129303, 0.281950443983078, 0.26026174426078796]
[0.17659515142440796, -0.09425061196088791, 0.042516618967056274, -0.14326068758964539, 0.28217336535453796, -0.11141218990087509, 0.18396294116973877, 0.013975906185805798, -0.04540792107582092, -0.25106576085090637, -0.25965967774391174, -0.16593597829341888, -0.28927090764045715, -0.22422604262828827, -0.19933804869651794, -0.20407521724700928, -0.15146999061107635, 0.0886460542678833, 0.15189914405345917, -0.23422615230083466, -0.0684288814663887, -0.1730281412601471, 0.2902049124240875, -0.2633254826068878, 0.08179131895303726, 0.17731937766075134, -0.12147410213947296, 0.28479912877082825, -0.09559638798236847, 0.19239285588264465, -0.2526642382144928, -0.07880719006061554, -0.20881254971027374]
[0.009197425097227097, 0.08048110455274582, -0.011135296896100044, 0.16976618766784668, -0.06245584785938263, -0.0792003646492958, 0.20210692286491394, -0.0032400754280388355, 0.17086383700370789, -0.16945597529411316, 0.07325826585292816, -0.14482031762599945, 0.28311482071876526, -0.09851644188165665, -0.1306738406419754, -0.011003803461790085, -0.23443685472011566, 0.13921663165092468, 0.26303622126579285, 0.23123523592948914, -0.25590917468070984, -0.08719783276319504, 0.057390015572309494, 0.22927072644233704, -0.18928693234920502, 0.21682432293891907, 0.09652844071388245, 0.06020580232143402, -0.16625308990478516, 0.13195300102233887, -0.12346309423446655, 0.0539393350481987, -0.1942475438117981]
[-0.2587668299674988, 0.19005265831947327, -0.27952516078948975, 0.2154160439968109, 0.1917773187160492, 0.2578272521495819, 0.1579015552997589, 0.16881632804870605, 0.2100507915019989, 0.26342007517814636, -0.054958853870630264, -0.2500983476638794, 0.000574330217204988, 0.018546145409345627, 0.2906377613544464, -0.278685063123703, -0.22177092730998993, -0.1798000931739807, -0.04484808072447777, 0.09030891954898834, 0.13272544741630554, 0.13770854473114014, -0.16930675506591797, 0.019375521689653397, -0.1767818033695221, 0.09130668640136719, 0.015503954142332077, -0.1937064528465271, -0.27038633823394775, 0.2857629954814911, 0.07015153020620346, 0.0001572492328705266, -0.09525780379772186]
[0.08084040880203247, 0.07519595324993134, 0.20142126083374023, -0.2268671840429306, 0.2692174017429352, -0.16897208988666534, -0.06949710100889206, 0.007052160333842039, -0.029200445860624313, 0.053586624562740326, 0.17716723680496216, 0.230294331908226, -0.2405228316783905, -0.11689597368240356, 0.22200533747673035, 0.07942219078540802, -0.04488508030772209, 0.11410588771104813, -0.1451316773891449, 0.02404203452169895, -0.22743266820907593, -0.010551723651587963, -0.2196953445672989, -0.06790666282176971, -0.2836989164352417, -0.27394700050354004, 0.06234467774629593, 0.19919908046722412, 0.12445665895938873, 0.2609657347202301, -0.011099948547780514, 0.2643227279186249, 0.10037271678447723]
